svm_type c_svc
kernel_type linear
nr_class 5
total_sv 148
rho 0.078967 0.154252 0.160475 0.152817 0.0366664 0.231686 0.104319 0.159132 0.0553796 -0.0640384
label 0 1 2 3 4
probA -4.75228 -5.73874 -4.36466 -5.27745 -5.80655 -5.12217 -5.76629 -5.07135 -5.60831 -6.05279
probB 0.055502 -0.195853 0.149337 0.171603 -0.0666173 -0.00566443 0.027262 0.0797623 -0.0441249 0.0666907
nr_sv 29 30 30 29 30
SV
0.4128720171969829 0.4538685058013726 0.513486909411249 0.6031276778593808 1:-0.030156525 2:0.020395467 3:-0.030469369 4:-0.025734881 5:-0.040289961 6:0.012618374 7:-0.006407232 8:-0.025468614 9:-0.0098864641 10:0.050542254 11:0.01605008 12:0.022433463 13:0.025760008 14:-0.021239195 15:0.020002985 16:-0.026980741 17:-0.019854048 18:-0.018121418 19:0.03451531 20:-0.014803692 21:0.013582336 22:-0.015942091 23:0.018897565 24:0.018324569 25:0.024682872 26:-0.036301587 27:-0.024099659 28:-0.01977607 29:-0.037186977 30:-0.013199416 31:0.012781396 32:0.0082919132 33:-0.018379655 34:-0.024825037 35:-0.0070030997 36:0.04349415 37:0.041827824 38:0.01552977 39:-0.031008976 40:0.017339837 41:0.025632333 42:0.043429922 43:-0.016144466 44:-0.030343693 45:-0.048080448 46:-0.015091762 47:0.0073464816 48:-0.016638534 49:-0.029266415 50:-0.029758753 51:0.015507646 52:0.0088335508 53:-0.016783087 54:0.020125374 55:0.0070688762 56:-0.016795369 57:0.023275219 58:0.009785221 59:-0.025571734 60:-0.020801643 61:0.035853311 62:0.018751999 63:-0.015731314 64:-0.016805755 65:0.017814266 66:-0.010716502 67:-0.016120704 68:0.018782848 69:0.0092597306 70:0.012623045 71:0.025415326 72:0.037260629 73:-0.04072595 74:-0.020124186 75:-0.028751999 76:-0.021283105 77:-0.016445484 78:0.022449451 79:-0.034712039 80:0.019569492 81:0.016650122 82:0.018101702 83:-0.021982607 84:0.038585301 85:0.020317338 86:0.0042200563 87:0.0037380331 88:-0.017319115 89:0.0066605774 90:-0.018907912 91:-0.028728915 92:-0.040240303 93:-0.030715879 94:0.024131864 95:0.022331132 96:0.020468539 97:0.031239824 98:0.026031621 99:0.014760693 100:-0.01801848 101:-0.013507232 102:0.019428615 103:-0.019033618 104:0.01821286 105:-0.014096015 106:0.03823505 107:0.043201879 108:0.030602075 109:-0.026609246 110:-0.03856831 111:-0.040457819 112:0.020333277 113:0.017447649 114:-0.0098887999 115:-0.021870133 116:-0.045367762 117:-0.039351609 118:0.016318632 119:0.013089216 120:0.026522029 121:0.015053071 122:-0.023093577 123:-0.020595532 124:-0.015241904 125:-0.025549462 126:-0.017431067 127:-0.015592725 128:0.017239479 129:-0.01076958 130:0.013226528 131:-0.022300221 132:0.017353207 133:0.0032303464 134:-0.0029521987 135:-0.025025368 136:-0.0069044959 137:-0.020885373 138:-0.0074316873 139:0.024154715 140:0.0095047094 141:-0.019744048 142:0.024884088 143:-0.043396808 144:0.032892361 145:-0.031565271 146:0.026316363 147:-0.028749602 148:-0.037550114 149:-0.020395223 150:-0.024156621 151:0.020870522 152:0.0108882 153:-0.026472438 154:0.019824887 155:-0.022944393 156:0.019003961 157:-0.028162429 158:0.033429168 159:0.02032361 160:-0.020880695 161:0.011992376 162:0.024113186 163:0.011634176 164:-0.020957792 165:-0.01072726 166:0.0092003373 167:0.021939093 168:0.0069252504 169:-0.017665658 170:0.01385114 171:0.028550511 172:-0.028107302 173:-0.024161935 174:0.021996278 175:0.024495028 176:0.026095385 177:0.050415024 178:0.017043814 179:-0.026398296 180:-0.029281527 181:0.01805928 182:-0.051304303 183:-0.026126914 184:-0.005817967 185:-0.017811283 186:-0.021910308 187:0.0097309919 188:0.032514196 189:-0.03176764 190:0.019759964 191:0.034861121 192:-0.02695041 193:-0.020007612 194:0.019361541 195:0.030534912 196:0.014589149 197:-0.02206677 198:-0.024011839 199:0.019306663 200:0.02295916 201:0.0093687614 202:-0.0105281 203:-0.020724194 204:-0.013647161 205:-0.0081540346 206:0.019124918 207:-0.016048305 208:-0.0049111987 209:-0.015128315 210:-0.018069867 211:-0.035053283 212:0.010760442 213:-0.029182363 214:-0.048640002 215:0.0062227305 216:0.04378248 217:0.031686485 218:-0.011690457 219:0.026579054 220:-0.020822141 221:0.011086592 222:-0.0080046281 223:-0.011136412 224:0.02016037 225:-0.01256284 226:0.018801024 227:-0.028342215 228:-0.031484514 229:-0.024926824 230:0.018559193 231:0.018696561 232:-0.024880592 233:0.022633076 234:-0.027445326 235:-0.014852298 236:0.019902313 237:0.020569935 238:0.024466189 239:0.024069251 240:-0.020948583 241:0.010153038 242:0.026912792 243:0.019648308 244:0.02767645 245:-0.018506277 246:-0.028414296 247:0.034700293 248:-0.032499928 249:0.036429416 250:-0.040436506 251:-0.027428526 252:0.038702037 253:-0.041844148 254:-0.025824711 255:0.035373714 256:0.032706141 257:-0.010250229 258:0.023672324 259:-0.015755378 260:-0.01969278 261:-0.0109214 262:0.0063143787 263:-0.017471556 264:0.022953281 265:0.0098549528 266:0.021803949 267:-0.011782131 268:0.0077844285 269:-0.02014973 270:0.025688514 271:0.015604196 272:-0.024577456 273:-0.016427258 274:0.0060576815 275:-0.013104795 276:-0.014742222 277:0.011040106 278:-0.017573932 279:0.01499012 280:-0.025531584 281:0.028319661 282:0.048391528 283:0.01088747 284:-0.022574311 285:0.013654611 286:0.038360033 287:-0.057984039 288:-0.010608686 289:-0.026104797 290:-0.024101058 291:0.048596386 292:-0.018927177 293:0.023907294 294:-0.026069753 295:0.022523645 296:-0.0066899452 297:-0.020535607 298:-0.0071268505 299:-0.0074345456 300:-0.0035972327 301:0.031415872 302:-0.027342664 303:0.01024626 304:-0.014673105 305:0.021477155 306:-0.010804361 307:0.0037808397 308:-0.014028957 309:-0.0091736997 310:0.015370911 311:-0.023449443 312:0.024633924 313:-0.012368327 314:-0.0086467415 315:0.014849606 316:0.021480588 317:0.037761915 318:-0.0371929 319:0.030789906 320:-0.009142302 321:-0.010087602 322:0.010385253 323:-0.028469065 324:-0.0049703578 325:0.020293256 326:-0.033029966 327:0.036558006 328:0.019936945 329:0.048813917 330:-0.035503656 331:-0.031135606 332:-0.012280227 333:-0.0083036572 334:-0.022603456 335:0.024171893 336:0.0063422932 337:-0.01220169 338:-0.020240517 339:0.024985053 340:0.023835057 341:-0.020772049 342:-0.0069053927 343:-0.010052649 344:0.024579499 345:0.020092586 346:-0.031114355 347:-0.0072578983 348:-0.010533297 349:0.0051924116 350:-0.030830845 351:0.031535305 352:0.038765702 353:-0.037860058 354:-0.029083062 355:0.007137957 356:0.051418677 357:0.030827841 358:-0.020224771 359:0.040607356 360:-0.014187363 361:0.023897527 362:0.02376556 363:0.01574195 364:0.011951809 365:-0.011582572 366:0.012090071 367:0.035086155 368:-0.018762672 369:0.021537652 370:-0.019513188 371:-0.023738056 372:-0.016742174 373:0.020337852 374:0.019026849 375:0.012671497 376:0.01949691 377:0.018726377 378:0.017413886 379:0.019249458 380:-0.026523551 381:0.015382423 382:-0.010019166 383:-0.011796228 384:-0.022657059 385:-0.014383915 386:-0.03326039 387:-0.024778076 388:-0.041551676 389:0.055710584 390:-0.031890504 391:-0.02377888 392:0.031820282 393:0.0070694946 394:0.042331997 395:-0.028690415 396:0.015096217 397:-0.012072979 398:-0.033997986 399:-0.018866457 400:0.029146852 401:0.024335722 402:0.036732841 403:-0.0076870071 404:-0.011629215 405:-0.027832069 406:0.0080637634 407:-0.00925384 408:0.025914336 409:-0.00088027789 410:-0.022503771 411:-0.0065431148 412:0.010832084 413:0.0056577595 414:0.013701569 415:-0.022733614 416:0.0096352426 417:0.0053718127 418:0.011299754 419:0.0069894814 420:0.0044363756 421:-0.010813121 422:0.035458975 423:-0.050616369 424:0.0054557095 425:0.015172455 426:-0.0067680897 427:0.016423792 428:0.038403288 429:-0.0095231337 430:-0.019754278 431:0.0082535055 432:-0.01595057 433:-0.010863238 434:-0.036448475 435:0.030576026 436:-0.011459104 437:-0.015990855 438:0.029177129 439:0.021586191 440:-0.037912894 441:0.040949255 442:-0.030850546 443:-0.017003395 444:0.034123398 445:-0.020471765 446:0.012096923 447:0.016518502 448:-0.023939863 449:0.0053916541 450:0.027138265 451:0.012868866 452:-0.0088886032 453:-0.017431958 454:0.013601602 455:-0.02634945 456:-0.038657472 457:0.051053874 458:-0.037035134 459:0.04281624 460:-0.04990064 461:0.043006681 462:0.027304642 463:-0.012204185 464:0.022429476 465:0.0068450468 466:0.051871236 467:-0.019164979 468:-0.0094878143 469:0.0084125279 470:-0.0081803026 471:0.011964902 472:0.020552469 473:0.010334944 474:0.014156649 475:-0.019632652 476:0.0101364 477:-0.0044767833 478:-0.015422431 479:-0.009715653 480:0.010270813 481:0.010340975 482:0.0063362578 483:0.011788817 484:-0.0026325569 485:0.019884745 486:-0.0075657559 487:0.022494553 488:0.004215471 489:-0.018631117 490:0.01375879 491:0.034450758 492:0.016829593 493:0.021147074 494:-0.0050628679 495:0.060966942 496:0.032468606 497:0.022338944 498:0.021804718 499:0.018818885 500:0.025728993 501:-0.011133311 502:-0.026030554 503:-0.034061413 504:0.01813728 505:-0.0097923577 506:0.024510019 507:-0.038137916 508:-0.024590235 509:0.024730574 510:0.028869776 511:0.038020719 512:0.0082965642 513:0.0060419035 514:-0.0032074691 515:0.0079452014 516:-0.02449288 517:0.0095673902 518:-0.032255124 519:0.017901419 520:-0.006009344 521:-0.015731329 522:0.023124235 523:0.00095596758 524:0.011158662 525:-0.013541967 526:0.018235695 527:0.035760682 528:0.042692106 529:0.036626022 530:-0.025409317 531:-0.025264418 532:0.0099490974 533:-0.038132291 534:-0.025052518 535:-0.014887455 536:-0.019192657 537:0.035581805 538:-0.026631502 539:0.027636642 540:-0.034188628 541:0.010748251 542:-0.029366337 543:-0.0045720031 544:0.020759156 545:-0.0063209538 546:-0.010371077 547:-0.032196812 548:0.019096419 549:0.017488327 550:0.024416899 551:-0.022170119 552:0.016884053 553:0.014338669 554:0.02627524 555:0.028918896 556:-0.011810007 557:-0.0076269559 558:-0.017276943 559:-0.01314902 560:0.014265307 561:0.013166474 562:0.030054243 563:-0.030148793 564:-0.028388241 565:-0.026010513 566:0.037954107 567:-0.015549693 568:0.023177486 569:0.020995909 570:0.035449937 571:-0.035439901 572:-0.024106486 573:0.023342434 574:0.026997305 575:-0.033239175 576:0.033334054 577:-0.020834586 578:-0.037811939 579:-0.032390229 580:-0.029528867 581:0.013966363 582:-0.020632936 583:-0.00088183268 584:0.015789945 585:-0.021898568 586:-0.011241277 587:0.022921683 588:-0.024751449 589:-0.01727475 590:0.001162227 591:-0.0042240778 592:0.009125811 593:-0.01842772 594:-0.010319621 595:-0.0064375978 596:0.015109165 597:-0.029646736 598:-0.039567165 599:0.034774106 600:-0.039985511 601:0.012218494 602:0.029209597 603:-0.024848357 604:0.014202279 605:-0.026406398 606:0.021703711 607:0.022376604 608:-0.034671646 609:-0.0075507602 610:0.037807435 611:0.015014872 612:0.032144453 613:0.0094115902 614:0.0045300191 615:-0.02926041 616:-0.016703911 617:-0.021627385 618:0.0066507696 619:0.026124168 620:-0.021531368 621:0.030386373 622:-0.014843028 623:-0.0073570232 624:0.023017494 625:-0.031768166 626:0.011447782 627:-0.021442695 628:-0.0039693946 629:-0.020959975 630:-0.019903526 631:-0.029018221 632:-0.012482923 633:-0.055938147 634:0.022929717 635:-0.023204826 636:-0.0080008646 637:-0.023743944 638:0.036728207 639:-0.040703397 640:0.037150428 641:-0.017189804 642:0.014878311 643:0.038818672 644:0.019569868 645:-0.027222503 646:0.014998605 647:-0.0043230001 648:-0.021515366 649:-0.026976135 650:-0.026623743 651:-0.026433555 652:-0.017811233 653:-0.022072636 654:-0.021487011 655:-0.019881565 656:-0.016182987 657:0.017345078 658:-0.018219152 659:0.006113268 660:-0.010334849 661:-0.0063684932 662:-0.014427023 663:-0.0058751428 664:-0.0042854645 665:-0.028349325 666:-0.030334255 667:0.038378701 668:0.014955748 669:-0.039272334 670:0.029430095 671:0.037984155 672:0.045258708 673:-0.01551763 674:-0.031744458 675:0.0285457 676:-0.010126418 677:-0.035313491 678:-0.020461902 679:0.023589471 680:-0.035277028 681:0.02058791 682:-0.024499666 683:-0.015830537 684:-0.023544472 685:-0.010441827 686:0.00894849 687:-0.020818852 688:0.022440717 689:-0.014265495 690:0.026175858 691:0.017534126 692:0.0090276841 693:0.013292434 694:-0.0096558379 695:-0.0015024908 696:-0.0080983462 697:0.018739387 698:-0.010739933 699:-0.01594325 700:0.02366071 701:-0.032134969 702:0.045611765 703:-0.03961185 704:0.024779679 705:-0.031183874 706:0.019137517 707:-0.03906773 708:0.0022309828 709:0.017527351 710:0.016093226 711:-0.031938877 712:-0.020648966 713:-0.026669754 714:-0.028832113 715:0.021132035 716:-0.014347438 717:0.009622504 718:-0.016457645 719:0.027459122 720:0.041034628 721:-0.006856441 722:-0.014203563 723:-0.021880148 724:0.016463317 725:0.021850375 726:-0.020408195 727:-0.011620086 728:0.016139729 729:-0.011304832 730:0.0084414883 731:-0.034775026 732:0.012629692 733:-0.016355945 734:0.016111076 735:0.021023037 736:0.014100765 737:0.036122385 738:-0.025759231 739:0.043500643 740:-0.019104704 741:0.031906448 742:-0.028642848 743:-0.044158358 744:0.01670195 745:0.015118845 746:-0.023458879 747:0.023211578 748:0.023069598 749:0.037734926 750:-0.020121871 751:-0.020181989 752:0.022360751 753:0.012589841 754:0.026714228 755:-0.011696859 756:0.011421461 757:0.015658475 758:-0.034430563 759:-0.011876848 760:-0.012831588 761:-0.024744812 762:-0.0014134785 763:-0.018565208 764:-0.03295292 765:0.026268343 766:-0.011776618 767:-0.025466833 768:0.02220392 769:-0.0033429384 770:0.004477073 771:0.044902053 772:0.011270676 773:-0.024784252 774:-0.029125204 775:-0.022733392 776:-0.017680399 777:0.043716375 778:0.018500587 779:-0.034051996 780:0.025390718 781:0.011187282 782:-0.027994711 783:-0.032056287 784:0.033741843 785:-0.020418637 786:0.0065897079 787:-0.01090565 788:0.015028807 789:-0.017242359 790:-0.029249279 791:0.01547729 792:0.015418444 793:0.018764617 794:0.030168969 795:0.022201482 796:0.013550599 797:-0.02112787 798:-0.02659118 799:0.020679142 800:0.013301397 801:-0.023657393 802:-0.0097478386 803:-0.02153345 804:-0.018981218 805:-0.028661957 806:-0.0097913733 807:0.05366822 808:-0.017678702 809:0.033842418 810:-0.039819539 811:0.024973281 812:0.039407216 813:0.040477097 814:-0.0096894046 815:-0.02812843 816:-0.034401119 817:-0.029580323 818:-0.023443313 819:0.021161228 820:-0.025476813 821:0.0023387019 822:-0.013746984 823:0.011454165 824:0.020393094 825:0.017540302 826:0.021829585 827:-0.035917643 828:0.026159026 829:0.020017888 830:0.0041698688 831:-0.017031735 832:0.0047895145 833:-0.011565068 834:-0.011960532 835:-0.014548403 836:0.0059621264 837:-0.0097012995 838:-0.011871318 839:-0.011960021 840:0.021027122 841:0.031478003 842:0.043760005 843:-0.050267957 844:0.021631356 845:-0.019152118 846:0.01917053 847:0.013702493 848:-0.031451326 849:-0.0071152169 850:0.030273283 851:0.03575604 852:-0.0081620635 853:0.01421525 854:-0.014272862 855:-0.024552876 856:-0.014385933 857:0.026850278 858:-0.033651125 859:-0.017122664 860:0.015440632 861:0.020912021 862:-0.031558987 863:0.020762943 864:-0.021335091 865:0.033348456 866:-0.018918101 867:-0.015116287 868:-0.01702068 869:0.033689957 870:0.016642876 871:-0.016457411 872:-0.0030140178 873:0.0075466377 874:0.010015702 875:-0.010883447 876:0.021453457 877:0.039357245 878:-0.035322092 879:0.053403765 880:-0.0035009331 881:-0.020734895 882:-0.012235661 883:0.016598199 884:-0.036218725 885:0.021159312 886:-0.024633566 887:-0.019148605 888:-0.016440509 889:0.035816256 890:-0.014881807 891:-0.026469331 892:-0.020607246 893:0.0087367082 894:0.019814163 895:-0.025956074 896:-0.013395352 897:-0.033871382 898:-0.020438362 899:-0.014900623 900:-0.0060843187 901:0.030601766 902:0.0063567269 903:0.0090271151 904:0.021083763 905:0.017787134 906:-0.017611777 907:0.030602627 908:0.024667431 909:0.0080995746 910:-0.022466082 911:0.032785069 912:0.034078944 913:0.030148499 914:-0.015391855 915:-0.018299632 916:-0.01523081 917:-0.046390034 918:0.034548704 919:0.041730426 920:0.021564269 921:-0.011940414 922:0.0047893589 923:-0.024746075 924:-0.042086322 925:-0.028907446 926:0.018021559 927:-0.024414014 928:0.014023909 929:-0.0096954471 930:-0.031317256 931:-0.019300301 932:0.02059014 933:-0.0060582147 934:-0.021839797 935:-0.016019424 936:-0.02012519 937:0.017299775 938:0.018795727 939:0.020720942 940:0.0086557856 941:0.033073228 942:0.0077651162 943:-0.0095334947 944:-0.018186407 945:0.014749652 946:-0.028511759 947:-0.0091672214 948:0.0083152717 949:-0.050691415 950:-0.041836351 951:-0.035670962 952:0.023194363 953:0.025493028 954:0.0222615 955:-0.018533925 956:-0.013795868 957:0.017715432 958:-0.041852355 959:-0.017848939 960:-0.0072236406 961:-0.012970545 962:-0.024963615 963:0.021976117 964:-0.018359683 965:0.011422338 966:0.036685809 967:0.023539871 968:0.018389873 969:-0.0080620944 970:0.021866281 971:0.0086557483 972:0.043024223 973:0.032256138 974:0.020214424 975:0.015651543 976:-0.011337867 977:0.007682099 978:-0.011222158 979:-0.0083680926 980:-0.016164634 981:0.040979087 982:-0.022665119 983:-0.031313319 984:0.024238152 985:-0.027701864 986:0.013239583 987:0.026583411 988:-0.04717236 989:0.024109066 990:-0.032085091 991:-0.03780476 992:0.028659407 993:-0.012022264 994:0.02055545 995:-0.017997123 996:-0.025856063 997:0.01080223 998:0.017969266 999:-0.0089526 1000:0.013765013 1001:0.028979402 1002:-0.016675297 1003:-0.019107498 1004:0.0067892526 1005:-0.017106555 1006:-0.014529198 1007:0.0056452979 1008:-0.016215568 1009:-0.029963048 1010:0.016792454 1011:-0.037455242 1012:-0.026364872 1013:0.0055379868 1014:-0.014327354 1015:-0.01982753 1016:-0.026836155 1017:-0.032233268 1018:0.02856824 1019:-0.022341475 1020:-0.038056508 1021:0.041566234 1022:0.024974896 1023:-0.028957492 1024:-0.028554913 1025:-0.027797615 1026:0.013679272 1027:-0.024343625 1028:0.026464777 1029:0.015179907 1030:0.015880665 1031:0.022597032 1032:-0.024861995 1033:0.025475008 1034:-0.036105465 1035:-0.017144972 1036:0.012148293 1037:-0.025363455 1038:-0.011282548 1039:-0.038714595 1040:0.00501261 1041:0.019269351 1042:-0.017743431 1043:-0.011168819 1044:-0.0096948994 1045:-0.010007822 1046:0.0098915594 1047:0.029112238 1048:0.01482498 1049:0.016427195 1050:-0.021885289 1051:0.043918822 1052:0.039537426 1053:-0.048433591 1054:0.010468458 1055:0.031325456 1056:0.015972015 1057:-0.029308226 1058:0.0089576524 1059:0.0096486798 1060:-0.017777503 1061:-0.032435037 1062:0.013556067 1063:0.018060187 1064:0.010175074 1065:-0.036945809 1066:0.023224952 1067:-0.015086499 1068:0.025243986 1069:-0.025151217 1070:-0.024005666 1071:-0.020482577 1072:0.0095669236 1073:0.016014753 1074:0.012201909 1075:0.015006998 1076:-0.0090928208 1077:-0.023215059 1078:0.030566355 1079:-0.031713709 1080:-0.031197963 1081:0.019972278 1082:-0.017896246 1083:-0.012942095 1084:0.010441388 1085:-0.01232391 1086:0.033940576 1087:0.028806688 1088:-0.022988405 1089:-0.019598225 1090:-0.035860755 1091:0.026028892 1092:-0.017172238 1093:-0.039233185 1094:-0.030457344 1095:0.0071077533 1096:-0.023264924 1097:0.036966313 1098:-0.030651808 1099:0.028195331 1100:-0.029008474 1101:0.0059195315 1102:0.032366637 1103:0.014115449 1104:-0.0089772828 1105:-0.020116052 1106:-0.013973637 1107:0.0086107329 1108:0.019335967 1109:0.03145358 1110:0.026473572 1111:-0.012751318 1112:0.018152181 1113:-0.016975453 1114:-0.022364005 1115:-0.01889809 1116:0.022412771 1117:0.023088152 1118:0.012065721 1119:0.025180787 1120:-0.017114431 1121:0.044494059 1122:0.043895766 1123:-0.019965185 1124:-0.043000285 1125:-0.028253431 1126:-0.016074983 1127:-0.033924632 1128:-0.048035901 1129:-0.041078169 1130:0.012843451 1131:0.0017019559 1132:-0.010828335 1133:0.034799427 1134:-0.029145181 1135:-0.016668735 1136:0.020769959 1137:-0.022486527 1138:0.010550638 1139:0.020663083 1140:0.029386859 1141:-0.0098181497 1142:-0.00478514 1143:-0.017620252 1144:-0.015564936 1145:0.003606268 1146:-0.01164901 1147:-0.012156561 1148:0.005751506 1149:-0.015112313 1150:0.010362626 1151:-0.023346497 1152:-0.013338282 1153:0.016837401 1154:-0.0144459 1155:0.011340166 1156:0.034129415 1157:0.029783772 1158:0.021655241 1159:-0.025723794 1160:0.032535724 1161:-0.030955337 1162:0.026341652 1163:-0.005660973 1164:-0.032449298 1165:-0.042720869 1166:-0.03812534 1167:0.018015534 1168:-0.032290764 1169:-0.0051387199 1170:-0.029887266 1171:0.017665574 1172:-0.0062505566 1173:-0.009469253 1174:0.027072582 1175:-0.0089309718 1176:-0.017048549 1177:0.024092734 1178:0.021839943 1179:0.018043779 1180:0.02622203 1181:0.023615232 1182:0.0033356077 1183:-0.03515356 1184:-0.023224277 1185:0.029934444 1186:0.015134521 1187:0.013286332 1188:0.00042084581 1189:0.008691784 1190:0.010961796 1191:0.03119361 1192:0.061017312 1193:0.011768436 1194:0.036119264 1195:-0.03057107 1196:0.021685323 1197:0.033729084 1198:0.025268914 1199:0.027771985 1200:0.021045335 1201:-0.027605496 1202:-0.018692993 1203:-0.013789129 1204:-0.027064832 1205:-0.023448018 1206:-0.022140162 1207:-0.0029704918 1208:-0.024452686 1209:-0.0061777504 1210:-0.0071847322 1211:0.028009774 1212:-0.026683742 1213:-0.0087948637 1214:-0.017193815 1215:-0.010807906 1216:0.014781828 1217:-0.021392638 1218:0.024933038 1219:0.019300047 1220:-0.0094307484 1221:0.019020209 1222:0.011950253 1223:0.025681475 1224:0.012595535 1225:-0.02503052 1226:-0.03648917 1227:0.033589661 1228:0.018893097 1229:0.027178876 1230:-0.028658403 1231:0.027947064 1232:-0.041824546 1233:-0.01978174 1234:0.021736847 1235:0.015099212 1236:-0.037613373 1237:0.021188207 1238:0.010539654 1239:-0.017727187 1240:-0.037819128 1241:0.015979772 1242:-0.016316529 1243:-0.027050631 1244:-0.03218209 1245:-0.02410177 1246:-0.031356316 1247:-0.027314862 1248:-0.024203083 1249:-0.012748458 1250:-0.007136879 1251:-0.019594112 1252:-0.018728184 1253:0.021366395 1254:-0.028883316 1255:0.0051203012 1256:0.019935319 1257:-0.0099744191 1258:-0.012164662 1259:-0.011149996 1260:-0.0079087634 1261:0.04673918 1262:0.057913717 1263:-0.035436634 1264:0.02788421 1265:-0.021066871 1266:-0.030269906 1267:-0.017271606 1268:0.024668977 1269:-0.0093465159 1270:0.018369408 1271:0.010045585 1272:0.031417724 1273:0.021993764 1274:0.023235079 1275:-0.020827072 1276:0.034717672 1277:0.0062034456 1278:-0.01229368 1279:-0.020896159 1280:-0.022621669 1281:0.022996144 1282:-0.029285703 1283:-0.021248618 1284:-0.015948959 1285:0.013977407 1286:-0.019351628 1287:0.011650859 1288:-0.023993785 1289:-0.012839769 1290:0.017251138 1291:0.012892929 1292:-0.00646711 1293:0.013703081 1294:-0.020991653 1295:-0.013235642 1296:0.019226776 1297:0.038157728 1298:-0.03525364 1299:0.046296477 1300:-0.0072899782 1301:0.017908605 1302:-0.030718207 1303:-0.035126589 1304:0.027311787 1305:-0.030485231 1306:0.046750452 1307:-0.0096369069 1308:-0.036063537 1309:0.022002932 1310:0.035807461 1311:-0.02339619 1312:0.0041271043 1313:-0.011054335 1314:-0.014817636 1315:-0.034142777 1316:0.016334279 1317:-0.02196091 1318:0.015996173 1319:0.013818222 1320:-0.021355031 1321:0.0041748877 1322:-0.014576155 1323:0.01313089 1324:0.006815441 1325:0.016923621 1326:-0.0013830408 1327:0.021572821 1328:-0.0089599127 1329:-0.011080919 1330:0.0093147447 1331:0.031417016 1332:0.038661227 1333:-0.04149444 1334:0.053081825 1335:-0.038144942 1336:0.025681389 1337:0.014373725 1338:-0.027179813 1339:-0.008933966 1340:0.013100885 1341:0.040823564 1342:0.032821428 1343:0.020182228 1344:-0.0034355803 1345:-0.019589636 1346:0.015679289 1347:0.026427886 1348:-0.0049888035 1349:0.0044699386 1350:-0.013144175 1351:0.010381167 1352:0.018029541 1353:0.029032735 1354:-0.010541279 1355:0.017318651 1356:0.0073441034 1357:0.021345267 1358:-0.0046544606 1359:0.018361654 1360:0.025067063 1361:0.012731924 1362:0.026306663 1363:0.0055610519 1364:-0.023999067 1365:0.01772891 1366:-0.03393754 1367:0.051041622 1368:0.031445898 1369:0.042347781 1370:-0.029271398 1371:-0.047972303 1372:0.020653784 1373:-0.015500503 1374:-0.034141053 1375:-0.021919677 1376:0.03026961 1377:0.026973497 1378:0.028986122 1379:-0.007201829 1380:-0.014866085 1381:-0.021365799 1382:-0.011465039 1383:-0.027730348 1384:-0.011756917 1385:-0.016676446 1386:-0.01602702 1387:-0.0020903128 1388:0.026873602 1389:-0.018771201 1390:0.0087102978 1391:0.016035173 1392:-0.018273452 1393:0.0077994815 1394:-0.0092854789 1395:0.018502899 1396:0.019774223 1397:0.014696806 1398:-0.010311255 1399:-0.015029434 1400:0.0053186361 1401:-0.023695514 1402:-0.011923154 1403:0.018123766 1404:-0.024345389 1405:-0.011062606 1406:0.025525123 1407:-0.017023757 1408:0.029328296 1409:-0.024570366 1410:0.032111708 1411:-0.038818423 1412:0.024750371 1413:-0.029534686 1414:0.036301553 1415:0.025784506 1416:0.012634689 1417:-0.012847559 1418:0.015801907 1419:-0.031003222 1420:-0.016255535 1421:-0.034110952 1422:-0.026335815 1423:0.03435947 1424:0.026250841 1425:0.0084321983 1426:-0.012983548 1427:0.018193578 1428:-0.015022719 1429:-0.025008589 1430:0.011479983 1431:-0.02522134 1432:0.012818645 1433:-0.029020997 1434:-0.018396812 1435:-0.027941817 1436:-0.03031414 1437:0.029302903 1438:-0.020799717 1439:0.020022025 1440:-0.042365342 1441:-0.014945995 1442:0.016357955 1443:0.016283819 1444:-0.016713884 1445:-0.033585068 1446:-0.020413816 1447:0.028582906 1448:-0.019552575 1449:0.020689307 1450:-0.022703419 1451:0.01276578 1452:-0.028951179 1453:-0.0068247411 1454:-0.039257012 1455:-0.031283159 1456:0.032630108 1457:-0.024961967 1458:0.012583022 1459:-0.02787571 1460:0.029553354 1461:-0.018965114 1462:-0.01949257 1463:-0.014117627 1464:0.012614988 1465:-0.012879604 1466:0.01383744 1467:0.0054561403 1468:-0.040008646 1469:0.019266797 1470:-0.018706711 1471:-0.026511129 1472:0.04452955 1473:-0.0310008 1474:0.03320891 1475:0.039577771 1476:0.031507403 1477:0.031944912 1478:-0.044234212 1479:0.015979018 1480:0.013961326 1481:0.033027563 1482:-0.027336929 1483:-0.0048668161 1484:0.019573979 1485:0.0058816494 1486:0.018825388 1487:0.011765509 1488:0.0038637435 1489:-0.014238245 1490:0.037754916 1491:-0.02102665 1492:-0.0013544762 1493:-0.025661463 1494:-0.016110944 1495:0.024169443 1496:0.022741947 1497:-0.0050001219 1498:0.016282236 1499:-0.016850473 1500:-0.010778607 1501:0.021244137 1502:-0.0070902235 1503:-0.030820796 1504:-0.014476239 1505:-0.0058099665 1506:-0.037143651 1507:-0.035506431 1508:-0.020295212 1509:-0.035513956 1510:0.026215162 1511:0.01912217 1512:0.028002812 1513:0.031669792 1514:0.039502006 1515:0.028721461 1516:-0.03945487 1517:0.016120581 1518:0.023966452 1519:-0.033837836 1520:-0.011071196 1521:-0.018375857 1522:0.0051941685 1523:-0.014099067 1524:0.01031541 1525:-0.01479813 1526:-0.036657285 1527:0.016610978 1528:-0.025659144 1529:-0.026664792 1530:0.0192606 1531:0.020536935 1532:-0.016743766 1533:0.02001586 1534:-0.0043895086 1535:0.003838114 1536:0.012672327 1537:-0.025897266 1538:-0.0094379243 1539:-0.02041053 1540:-0.0089489184 1541:-0.036998689 1542:-0.03760745 1543:-0.025697665 1544:-0.04173515 1545:0.017164988 1546:0.011239164 1547:-0.014496491 1548:0.022359474 1549:0.023972627 1550:0.011436495 1551:-0.020077223 1552:-0.016726321 1553:0.034362786 1554:-0.044021901 1555:0.016727524 1556:0.024474602 1557:-0.031386826 1558:0.028577538 1559:0.015832458 1560:0.021467328 1561:0.023709277 1562:-0.027643986 1563:0.026758464 1564:0.010330586 1565:0.030237053 1566:-0.025460301 1567:-0.0081758779 1568:-0.013176117 1569:0.008232899 1570:-0.0034226684 1571:-0.025112851 1572:0.018727683 1573:0.024754712 1574:-0.0089959651 1575:-0.008815499 1576:-0.026421763 1577:-0.040437285 1578:-0.017859951 1579:-0.021820283 1580:0.055271808 1581:-0.022404145 1582:0.020708878 1583:0.029576186 1584:-0.042601202 1585:-0.031498861 1586:0.014174085 1587:-0.0060923779 1588:0.012751421 1589:0.019735409 1590:-0.024226254 1591:0.0067569325 1592:-0.012801644 1593:-0.0293281 1594:0.048579842 1595:0.01499539 1596:0.0036892348 1597:0.028545257 1598:-0.011294845 1599:-0.011422902 1600:0.028552724 1601:-0.0019503613 1602:-0.011694357 1603:-0.013612959 1604:-0.014657046 1605:0.0048544849 1606:0.013710931 1607:-0.02074153 1608:0.013475657 1609:-0.015030787 1610:0.026091266 1611:-0.024551764 1612:-0.0057810424 1613:0.037236322 1614:0.013883404 1615:0.027632358 1616:-0.026106762 1617:0.028601091 1618:0.029163117 1619:0.021744937 1620:0.014951978 1621:-0.028959474 1622:0.0026884458 1623:0.063280299 1624:0.027403569 1625:-0.022868207 1626:0.0053833048 1627:0.019565821 1628:-0.023864422 1629:0.018351616 1630:-0.023703557 1631:0.025507072 1632:0.022303848 1633:-0.017779259 1634:-0.032054387 1635:0.023143528 1636:0.0076100663 1637:0.015496016 1638:0.019516475 1639:0.0092816977 1640:-0.013741149 1641:0.0167004 1642:0.026164969 1643:-0.019073481 1644:0.020760298 1645:0.015194221 1646:-0.036435798 1647:0.010081073 1648:-0.02591034 1649:-0.010545926 1650:-0.040858738 1651:-0.054323025 1652:-0.009281205 1653:-0.026182324 1654:-0.021554735 1655:0.024955422 1656:-0.01900108 1657:-0.027462045 1658:0.030123975 1659:0.010647866 1660:-0.01288372 1661:-0.01519471 1662:-0.011989086 1663:0.017587021 1664:0.016863655 1665:-0.020228188 1666:0.02749957 1667:-0.027973525 1668:0.0097637298 1669:-0.018157629 1670:0.023814488 1671:-0.014566413 1672:-0.027201721 1673:0.024878988 1674:-0.016303569 1675:-0.013039632 1676:-0.01996378 1677:-0.035756655 1678:-0.024188003 1679:0.026202204 1680:0.011947974 1681:-0.021117169 1682:-0.025127476 1683:-0.023248978 1684:0.056488026 1685:-0.028329266 1686:-0.044569395 1687:0.0053254524 1688:-0.024480658 1689:0.016957525 1690:-0.023768682 1691:-0.024229884 1692:0.018473201 1693:0.028904973 1694:-0.028595414 1695:0.014345464 1696:-0.025893714 1697:-0.036185 1698:-0.025024023 1699:-0.032156721 1700:-0.015738375 1701:0.013018106 1702:-0.0083125895 1703:-0.023743412 1704:0.0046226168 1705:-0.01214628 1706:-0.01008316 1707:-0.022375075 1708:-0.0085695162 1709:-0.011129154 1710:-0.028438551 1711:-0.00928583 1712:-0.032046262 1713:0.021194989 1714:0.0075065792 1715:-0.0069748876 1716:-0.025990689 1717:0.0058244085 1718:-0.038560178 1719:0.040297087 1720:0.020687383 1721:-0.014061118 1722:-0.015024532 1723:-0.022954913 1724:0.011443532 1725:0.0082435105 1726:0.0094710914 1727:-0.010674804 1728:-0.032804739 1729:0.037596114 1730:0.036238391 1731:-0.0091788238 1732:0.028063031 1733:0.023908416 1734:-0.013252854 1735:-0.027659658 1736:-0.026355505 1737:-0.037147589 1738:-0.020346981 1739:0.035992626 1740:-0.024020582 1741:0.033297259 1742:0.02308191 1743:-0.0067437147 1744:0.024318252 1745:0.016322171 1746:0.016746074 1747:-0.017721636 1748:0.0069691711 1749:-0.012817794 1750:-0.022335423 
0.3836758724763014 0.3418915898679912 0.5634944630071551 0.3781721141879526 1:0.026368866 2:0.041682228 3:0.0021146266 4:-0.036425158 5:-0.034798659 6:-0.026154893 7:0.022901654 8:0.018716574 9:0.041844349 10:0.029959846 11:-0.0084326258 12:0.032124691 13:-0.019152328 14:-0.036344372 15:-0.023765761 16:-0.030742461 17:0.01016866 18:-0.025362851 19:-0.01216924 20:-0.028197872 21:-0.015460692 22:-0.024050146 23:-0.016471624 24:0.014638021 25:-0.018626476 26:-0.014322123 27:0.020997666 28:0.0083030201 29:-0.032171126 30:-0.016004035 31:-0.017173724 32:-0.0049445624 33:-0.015826423 34:-0.013742832 35:-0.02030389 36:-0.022462821 37:-0.014065281 38:0.026920481 39:0.040338021 40:0.013564981 41:-0.031778369 42:0.03882695 43:-0.012867035 44:0.014349638 45:0.021703759 46:-0.01053197 47:0.019481394 48:0.028206427 49:0.039771676 50:-0.028060965 51:0.031990796 52:-0.03091906 53:-0.020736735 54:0.013504872 55:0.014928573 56:0.020276271 57:-0.027896764 58:0.018122051 59:0.0193143 60:-0.0091408268 61:-0.037835605 62:0.0079799686 63:0.011170697 64:-0.018270494 65:0.012616234 66:-0.025723575 67:-0.024693256 68:-0.010525511 69:-0.023884105 70:0.029863862 71:0.054086756 72:0.018888518 73:-0.025783967 74:0.055429503 75:-0.029795574 76:0.026501786 77:-0.013556438 78:-0.017890491 79:0.026153481 80:0.025915064 81:0.016659549 82:0.017080938 83:-0.015602269 84:-0.02661263 85:-0.041925251 86:0.021249469 87:-0.011967313 88:-0.019503595 89:-0.018728292 90:0.013729421 91:0.026541393 92:0.012642147 93:0.011908271 94:0.020169269 95:0.008972819 96:0.020753527 97:-0.017770389 98:0.014993265 99:-0.0020386954 100:0.015383583 101:-0.018792791 102:0.021530341 103:0.03023863 104:0.012650125 105:0.011889107 106:0.03910422 107:-0.015875919 108:-0.046211191 109:0.021848563 110:0.025447626 111:0.043746244 112:0.019536704 113:0.018477051 114:0.020332567 115:-0.018494055 116:-0.031948932 117:-0.021846274 118:0.008823704 119:0.019888319 120:0.0015125639 121:-0.02208966 122:-0.026139868 123:-0.022737708 124:0.027784869 125:0.015047139 126:0.012137307 127:-0.015766809 128:0.035896745 129:0.012494041 130:-0.0059008314 131:0.0086884759 132:-0.023557771 133:0.011010665 134:-0.020540947 135:0.028260121 136:-0.024359467 137:-0.033952944 138:0.01621303 139:-0.026536323 140:0.018571733 141:0.02792781 142:0.033363495 143:-0.053589903 144:0.04190984 145:0.0087699918 146:0.03816903 147:0.038745608 148:0.042876936 149:0.042588949 150:-0.026577024 151:-0.0024195556 152:-0.0092321439 153:0.0087857256 154:-0.0090582212 155:-0.020495877 156:-0.029420326 157:0.0056352364 158:0.012673692 159:0.0045819804 160:-0.0046615959 161:0.023571918 162:0.016981158 163:0.010757868 164:-0.029302642 165:0.012701803 166:-0.020164592 167:-0.017700216 168:-0.0052242465 169:-0.014256591 170:-0.0077395011 171:-0.021472029 172:0.0083958283 173:0.019153409 174:-0.016040914 175:0.012968421 176:-0.032801826 177:0.028752493 178:0.024863165 179:-0.044215195 180:-0.032214642 181:-0.029254988 182:-0.034562085 183:0.027254721 184:-0.033200387 185:0.012028933 186:-0.031153377 187:-0.016201191 188:0.027470069 189:-0.03597698 190:-0.029894577 191:0.011695764 192:-0.024464266 193:0.0047057895 194:0.016799945 195:-0.02250798 196:0.018653288 197:-0.02136369 198:0.0060731852 199:0.01924336 200:-0.004968266 201:0.023790991 202:-0.010974293 203:-0.0089970846 204:0.014179486 205:-0.0085580591 206:-0.024933279 207:0.025555529 208:-0.024475496 209:0.01190254 210:0.020758154 211:-0.019563291 212:0.044757657 213:-0.048503201 214:-0.034550399 215:0.030016342 216:0.025359444 217:0.02829228 218:-0.0042623361 219:0.037498072 220:-0.020483013 221:-0.0089771785 222:-0.009134924 223:-0.0097466484 224:0.020582467 225:-0.029973697 226:-0.02435289 227:-0.015073187 228:-0.022868561 229:0.018596515 230:0.0068202782 231:0.019066583 232:-0.028445207 233:0.016013488 234:-0.033801258 235:0.015178978 236:0.026195804 237:0.011765075 238:0.017936949 239:0.014643782 240:-0.020018233 241:-0.012878642 242:0.022114318 243:-0.014748304 244:0.010407276 245:-0.03191267 246:0.03135132 247:-0.025959862 248:0.042950463 249:0.03162444 250:-0.019380925 251:0.029295435 252:0.035720389 253:-0.032723773 254:-0.021795996 255:-0.013827233 256:0.026459971 257:-0.0061531351 258:0.028433815 259:-0.027195068 260:-0.034874942 261:0.01871483 262:0.02695119 263:-0.021241235 264:0.028618637 265:-0.024882521 266:0.017089907 267:0.023864031 268:-0.0063981148 269:0.021049717 270:0.0091024963 271:0.023922104 272:0.022049757 273:-0.0075901784 274:-0.01922857 275:0.01737557 276:-0.02005465 277:0.01581122 278:0.017376961 279:-0.021957261 280:0.011434648 281:0.043307953 282:-0.030135926 283:0.021515276 284:0.030999891 285:-0.017709795 286:0.016918093 287:0.029172052 288:-0.023651062 289:0.022838788 290:-0.018456094 291:-0.038766265 292:0.013019919 293:0.037743215 294:-0.019663569 295:-0.018403558 296:0.039542627 297:0.01263485 298:-0.0029848055 299:0.031574871 300:0.013122851 301:-0.0073372237 302:0.011682552 303:0.026647586 304:-0.015050748 305:0.018767044 306:-0.022077871 307:-0.0219271 308:0.025782403 309:0.021786546 310:0.020112308 311:-0.016405946 312:0.016991878 313:0.029508252 314:0.019914474 315:-0.0194891 316:0.058783796 317:-0.030135369 318:-0.030238282 319:-0.045222718 320:0.0071226372 321:-0.0099690519 322:0.010306961 323:-0.006836806 324:-0.023435321 325:0.011066123 326:-0.0099532939 327:-0.018734062 328:0.024091849 329:0.037816379 330:-0.025621045 331:-0.0073716161 332:-0.015762484 333:-0.016152631 334:0.033530243 335:0.0085356198 336:-0.019279728 337:0.021834569 338:-0.011615184 339:-0.02863181 340:0.03543463 341:-0.029032977 342:-0.013226128 343:-0.013873153 344:-0.011581337 345:-0.015662763 346:0.021052582 347:-0.013208348 348:0.021841893 349:0.019528627 350:0.026451591 351:0.048535835 352:0.033695064 353:-0.0098340083 354:-0.045999758 355:0.029701723 356:-0.018187763 357:0.025936602 358:-0.01884559 359:0.036509499 360:-0.020801444 361:0.010614828 362:-0.0076325862 363:-0.03286314 364:0.019645415 365:-0.027331037 366:0.013458716 367:-0.011492882 368:0.010373881 369:-0.018737383 370:-0.029440857 371:-0.015727773 372:-0.027346205 373:-0.014648183 374:0.025424657 375:-0.024347607 376:-0.015297079 377:-0.025386536 378:-0.011515065 379:-0.014929743 380:-0.028250888 381:0.024221355 382:-0.0059903604 383:0.029809762 384:-0.011219382 385:0.01221056 386:-0.055237021 387:0.042785473 388:-0.025664466 389:0.0045104069 390:0.029623466 391:0.018547259 392:-0.016168788 393:-0.0043404982 394:-0.0099223442 395:0.021500269 396:0.018874103 397:-0.012021545 398:0.012453356 399:0.021234091 400:0.034828223 401:-0.026678508 402:0.030639237 403:-0.021307632 404:-0.012450375 405:-0.024019999 406:0.035702098 407:-0.040896863 408:-0.0058531603 409:-0.020772491 410:-0.010027361 411:0.028996095 412:0.017761949 413:0.017874097 414:-0.023090389 415:0.009094662 416:0.020023592 417:0.021916781 418:-0.010048074 419:0.020775309 420:0.014196168 421:0.027066605 422:-0.021410337 423:0.035342224 424:-0.031557262 425:-0.032663077 426:0.040463533 427:-0.0412076 428:-0.017797055 429:0.011058361 430:0.015446183 431:0.038452871 432:0.018718459 433:0.034240652 434:0.014461225 435:-0.034894783 436:0.028979188 437:-0.014162353 438:-0.024125524 439:-0.0086057987 440:0.026266083 441:-0.020191597 442:0.019146036 443:0.022567736 444:-0.017258778 445:-0.0053703212 446:-0.020826297 447:-0.018935448 448:0.019755054 449:0.0023061328 450:-0.0075506931 451:-0.028535986 452:-0.014705347 453:0.013586511 454:-0.0081893727 455:0.023071269 456:0.039224211 457:-0.025368296 458:-0.024851743 459:0.055973038 460:0.015027718 461:-0.063454546 462:0.027513454 463:0.002177116 464:0.030247718 465:0.013568085 466:0.0030485941 467:-0.044464841 468:0.027456678 469:0.014492559 470:-0.020064488 471:-0.018462932 472:-0.012105675 473:-0.025459234 474:-0.0055897259 475:0.022461887 476:0.012882802 477:0.0062511787 478:0.013088821 479:0.0063459813 480:0.014406656 481:0.017016351 482:0.0098583829 483:0.030232392 484:0.0023058762 485:0.0035331068 486:0.0054411027 487:-0.0088311629 488:-0.02134677 489:0.014901519 490:0.01421005 491:0.042257819 492:-0.03285715 493:-0.019282565 494:-0.010937383 495:-0.019662319 496:0.025349418 497:-0.010917976 498:0.036394794 499:-0.035531621 500:-0.026175687 501:-0.015625134 502:-0.015624929 503:-0.037903834 504:-0.018481266 505:-0.038808007 506:0.022450864 507:-0.022460055 508:0.036995269 509:0.013373436 510:0.015915032 511:0.027017763 512:-0.017288601 513:0.018167736 514:0.010269145 515:-0.020345708 516:-0.012543106 517:-0.034801796 518:-0.017883597 519:0.0019771508 520:0.0050453199 521:-0.025671219 522:0.0021123902 523:-0.014078959 524:-0.020579208 525:-0.027559344 526:0.037319757 527:0.01565164 528:-0.016771559 529:-0.031122135 530:0.032696437 531:0.031888943 532:0.016285809 533:-0.013328266 534:0.034424659 535:0.011467097 536:-0.014505819 537:-0.030410362 538:0.045696896 539:0.020482104 540:0.0046422021 541:0.024285555 542:-0.025986128 543:-0.033989586 544:0.039843112 545:-0.015132988 546:-0.020657577 547:0.015540407 548:0.007174341 549:-0.019321093 550:0.026925607 551:-0.020699086 552:0.020924086 553:0.010249145 554:-0.01373605 555:-0.0081411861 556:0.020171262 557:-0.016944027 558:0.020898862 559:0.022430411 560:0.026221206 561:0.052162144 562:0.038401507 563:-0.017690107 564:-0.024321457 565:0.028959485 566:-0.011098922 567:0.02374588 568:0.038127426 569:0.044671316 570:0.025353795 571:0.015366814 572:0.021719392 573:-0.030051019 574:0.018247632 575:-0.0046842517 576:0.015203743 577:-0.022660263 578:0.001962021 579:0.022485612 580:0.0079385815 581:0.020723006 582:-0.01823386 583:0.012583779 584:-0.033392191 585:0.021012155 586:0.022357374 587:0.010701915 588:0.019203121 589:-0.012203951 590:-0.01694038 591:-0.016973935 592:0.02668095 593:0.010698155 594:-0.019988837 595:-0.024277337 596:-0.026492964 597:0.042210449 598:0.030950194 599:-0.010640019 600:-0.0059827962 601:0.033409759 602:0.026927995 603:0.033455759 604:-0.019039091 605:0.035743006 606:0.029308056 607:0.018509557 608:0.043004323 609:0.020835927 610:-0.03545998 611:-0.02423609 612:-0.032709397 613:-0.012608466 614:-0.018640785 615:0.027070332 616:0.022155931 617:0.021383144 618:-0.018304689 619:0.0088726776 620:0.016759461 621:0.019413922 622:-0.01693931 623:0.012718068 624:-0.011574269 625:0.016296975 626:-0.0094544794 627:-0.016960572 628:0.019203944 629:0.016415557 630:0.016927592 631:0.04770669 632:0.056900624 633:0.01418891 634:0.039469905 635:-0.030848553 636:-0.0093806703 637:0.021887079 638:0.022524364 639:0.012677745 640:-0.021062747 641:-0.026942167 642:0.015762633 643:-0.035260152 644:-0.0048429635 645:-0.042873792 646:-0.0065273666 647:0.0089830905 648:-0.013131609 649:0.028447509 650:-0.010374895 651:0.029546577 652:-0.020131892 653:0.014235272 654:-0.0078412788 655:-0.019754153 656:0.030002043 657:-0.0052271406 658:-0.021486487 659:0.014279181 660:-0.011685271 661:-0.02233888 662:-0.010051556 663:-0.021468466 664:0.0058596777 665:0.0068873446 666:0.046504997 667:0.017724341 668:0.0034891781 669:-0.0049100663 670:-0.010476177 671:-0.023744194 672:-0.02839382 673:-0.037809812 674:0.036633577 675:-0.020773284 676:-0.01774724 677:0.031134764 678:-0.036423862 679:0.029784845 680:-0.017334322 681:0.036352832 682:0.0066288379 683:-0.033280764 684:0.021806953 685:0.028256893 686:0.021546207 687:-0.022177059 688:-0.028991694 689:-0.010709069 690:-0.015684724 691:0.029459806 692:0.013766228 693:-0.022896953 694:0.022183292 695:0.0064912052 696:-0.011255544 697:-0.0094580743 698:0.01628739 699:0.002160046 700:0.022338241 701:0.055645559 702:0.036433186 703:-0.038379293 704:0.013135816 705:0.03591622 706:-0.03152357 707:0.019004781 708:0.027121156 709:-0.026891559 710:0.023721645 711:-0.015044769 712:0.013772422 713:0.01551086 714:0.010603367 715:-0.028818332 716:0.036615904 717:-0.021394962 718:0.016767234 719:0.015915189 720:-0.0096473014 721:-0.0062118066 722:0.028886149 723:0.01804973 724:0.012979676 725:0.02108505 726:-0.007837886 727:0.0024107664 728:0.023360172 729:0.012917888 730:0.017831882 731:-0.016799256 732:0.020884408 733:0.030759461 734:0.019872803 735:-0.016424689 736:-0.025156284 737:0.0095739458 738:-0.036985032 739:-0.033608813 740:-0.027653666 741:-0.021585457 742:-0.036303304 743:-0.028411854 744:-0.02736304 745:-0.026922643 746:-0.029967958 747:0.023790365 748:0.028487017 749:0.016074227 750:0.024260106 751:0.020875987 752:0.025615016 753:0.02223753 754:0.022665396 755:0.01604447 756:0.025198169 757:-0.020907488 758:-0.025728511 759:0.025555946 760:-0.007502296 761:-0.020649416 762:0.028126789 763:0.019281169 764:-0.028402887 765:-0.014085636 766:0.011381909 767:0.022175876 768:0.017412001 769:-0.0060359128 770:-0.021675678 771:0.048680801 772:-0.027106838 773:0.023577536 774:-0.037468024 775:-0.031032911 776:-0.019286525 777:0.028721971 778:-0.04230291 779:0.01221509 780:0.01560969 781:0.0021464187 782:0.018219132 783:-0.036837038 784:-0.013834571 785:0.02002223 786:0.033359751 787:0.0011646723 788:-0.025050815 789:-0.021698251 790:-0.027801599 791:-0.021186946 792:-0.00803487 793:-0.005023988 794:0.021210959 795:0.023810703 796:-0.020812891 797:-0.024211472 798:-0.0150494 799:-0.02606678 800:-0.021338437 801:0.013683331 802:-0.022599896 803:0.013488837 804:-0.014400202 805:0.017276075 806:0.042611271 807:0.048783407 808:-0.018737603 809:0.042222463 810:-0.017166061 811:-0.032866497 812:0.012843747 813:-0.0242212 814:0.012527318 815:-0.024260228 816:0.0257174 817:0.029835822 818:0.020437539 819:0.032921847 820:-0.022536257 821:0.032952771 822:-0.012214064 823:0.022914143 824:0.023231154 825:-0.019776663 826:0.013015229 827:0.021451592 828:-0.014508284 829:0.0033906929 830:-0.027146935 831:-0.018581964 832:-0.026870046 833:0.020020854 834:-0.010094096 835:0.015673475 836:0.018012902 837:-0.017704289 838:-0.012693485 839:0.0052015604 840:0.017788935 841:0.049428467 842:0.038046788 843:0.045734756 844:-0.0040421183 845:-0.031639941 846:-0.033577241 847:0.033576149 848:-0.033995759 849:0.014221041 850:-0.023415193 851:0.033555791 852:-0.0074288403 853:-0.0099556455 854:-0.01410645 855:-0.0079856496 856:-0.014479583 857:0.026820675 858:0.037039708 859:0.022444438 860:-0.0047236946 861:-0.015465387 862:0.011041218 863:0.035196502 864:-0.013049328 865:0.0077990806 866:-0.015597697 867:-0.015060295 868:-0.027864462 869:-0.013589169 870:-0.0032090719 871:-0.017688053 872:0.013577927 873:0.012518287 874:-0.021195862 875:-0.009665696 876:0.043354839 877:0.021339543 878:0.038406324 879:0.036368184 880:0.045165349 881:-0.024415774 882:-0.036777761 883:-0.021552369 884:-0.02627274 885:-0.019121757 886:-0.021743478 887:0.014102689 888:-0.014602427 889:0.036236461 890:-0.03199124 891:-0.0058144145 892:-0.023818357 893:0.0016968332 894:0.02783891 895:-0.0043461369 896:0.023484508 897:-0.02496637 898:0.016245412 899:-0.0078041092 900:0.019550929 901:-0.015864167 902:-0.0058680126 903:-0.01668187 904:0.0082387617 905:0.010291207 906:-0.019801786 907:0.017727958 908:-0.023507867 909:-0.014723478 910:-0.025358923 911:0.050566219 912:0.042570781 913:-0.039923806 914:-0.035752457 915:0.032647815 916:0.026850367 917:0.027659664 918:0.0040730904 919:0.056973957 920:0.012124549 921:0.015237488 922:0.016762545 923:0.015332628 924:-0.018032452 925:-0.0207508 926:-0.030272234 927:0.020276232 928:-0.015277035 929:0.023858752 930:-0.02191982 931:0.021105552 932:-0.0091511346 933:0.014457745 934:0.017434871 935:-0.0040468876 936:0.012352193 937:-0.0088315867 938:-0.012585934 939:-0.0027029945 940:-0.0080266465 941:-0.014191397 942:0.0042956555 943:0.020840468 944:0.018672979 945:0.01266283 946:0.034712333 947:-0.010968615 948:-0.039875265 949:-0.022275139 950:-0.040845666 951:-0.023293246 952:0.016055958 953:-0.032823525 954:0.017450409 955:0.035682525 956:0.020062113 957:-0.038685098 958:0.02311792 959:0.009873501 960:-0.021318465 961:0.015194449 962:-0.024324125 963:-0.0075178668 964:0.040206794 965:-0.020250646 966:-0.022259738 967:0.021631094 968:0.0041512703 969:-0.0095680784 970:0.035669778 971:-0.027857 972:0.013555525 973:-0.011212 974:-0.019692872 975:-0.0052796192 976:0.019708239 977:-0.012616637 978:0.022198921 979:0.015473803 980:0.021165958 981:0.033750918 982:-0.015332093 983:-0.04137088 984:0.018250018 985:-0.035553131 986:0.034220289 987:-0.0060248873 988:0.024933796 989:0.013571953 990:-0.031054014 991:-0.032230746 992:0.04550305 993:0.02641982 994:-0.0081611536 995:-0.03084478 996:-0.026913781 997:-0.018946694 998:-0.012451014 999:-0.033089999 1000:0.021738486 1001:0.014808665 1002:-0.0049334164 1003:0.011792238 1004:0.013642123 1005:0.025538461 1006:-0.018118463 1007:-0.0098832035 1008:-0.021684023 1009:-0.032084964 1010:0.02218481 1011:0.010006219 1012:-0.008437423 1013:-0.021028481 1014:-0.020234335 1015:-0.0068306746 1016:0.012448901 1017:0.038801324 1018:-0.041867632 1019:0.04850046 1020:0.044112865 1021:-0.0082742637 1022:0.037522949 1023:0.024009237 1024:-0.03472257 1025:-0.038088217 1026:0.016053144 1027:-0.020393396 1028:0.026981434 1029:-0.006963938 1030:-0.024926037 1031:-0.0061085299 1032:0.0080945781 1033:0.018985104 1034:-0.030540902 1035:-0.013482113 1036:0.014229581 1037:0.017336098 1038:-0.023028255 1039:0.018917756 1040:0.0048905108 1041:-0.014796392 1042:0.018823391 1043:0.0053734975 1044:0.018332381 1045:0.018783744 1046:0.0052644829 1047:-0.013431666 1048:-0.0064761443 1049:0.017850753 1050:-0.025594022 1051:0.037568193 1052:0.046974719 1053:-0.050192975 1054:0.0096579408 1055:0.034358133 1056:0.032387763 1057:-0.014699224 1058:0.020745557 1059:0.01694756 1060:0.033936292 1061:-0.028132306 1062:-0.024937915 1063:0.017474754 1064:0.02325934 1065:-0.025881216 1066:0.016483534 1067:-0.02178489 1068:0.020031042 1069:0.020278316 1070:0.012407994 1071:0.014635043 1072:-0.0097964844 1073:-0.014544465 1074:-0.014426234 1075:0.014838404 1076:-0.011176932 1077:0.016552819 1078:0.031231537 1079:-0.027173448 1080:-0.027198208 1081:0.014832951 1082:-0.018752499 1083:0.011006714 1084:-0.016015077 1085:-0.0077862334 1086:0.050809033 1087:0.030077107 1088:0.041782662 1089:-0.039008502 1090:-0.035636924 1091:-0.026798829 1092:-0.01375854 1093:0.033663902 1094:-0.017064543 1095:0.027718401 1096:0.021661293 1097:-0.0077007981 1098:0.020804167 1099:-0.030786727 1100:-0.0373138 1101:-0.0067182495 1102:-0.022676034 1103:0.015965516 1104:-0.017911909 1105:-0.0076682642 1106:0.0090592084 1107:0.018532801 1108:-0.021312214 1109:0.0079532852 1110:0.026079873 1111:-0.018897893 1112:-0.023267083 1113:-0.026005443 1114:-0.019002119 1115:-0.01629306 1116:-0.0083502671 1117:-0.0089650825 1118:-0.018918661 1119:-0.0047491561 1120:-0.0050735404 1121:0.054218605 1122:0.046508614 1123:-0.031356435 1124:0.021654915 1125:-0.04425732 1126:-0.029721651 1127:-0.015859768 1128:-0.025183987 1129:-0.042419277 1130:-0.023110468 1131:-0.043075826 1132:-0.01939973 1133:0.011054364 1134:-0.029238515 1135:-0.02222218 1136:0.0018673223 1137:0.020093342 1138:0.023713265 1139:-0.0091467919 1140:-0.012203142 1141:-0.014692597 1142:0.019328777 1143:-0.0061349953 1144:0.01743703 1145:-0.0070074662 1146:-0.016963629 1147:-0.0075767674 1148:-0.012677385 1149:-0.0091031604 1150:0.016268697 1151:-0.012721896 1152:-0.013278254 1153:-0.011088484 1154:0.0084695229 1155:-0.010598582 1156:0.051769707 1157:0.031749576 1158:0.041329086 1159:0.045672111 1160:-0.018763041 1161:0.010815019 1162:0.047360316 1163:0.0044145635 1164:-0.016573124 1165:-0.029241841 1166:0.0231317 1167:-0.014221012 1168:0.021058926 1169:-0.005185084 1170:0.011165914 1171:0.020972414 1172:-0.017060015 1173:-0.021071047 1174:0.036570817 1175:0.018874148 1176:0.029667156 1177:-0.022350995 1178:-0.0078051384 1179:0.025492582 1180:-0.01401998 1181:-0.019007228 1182:0.0057243351 1183:0.012037221 1184:0.010823183 1185:-0.0098470068 1186:-0.022120835 1187:0.021624755 1188:-0.0061895684 1189:-0.015458407 1190:-0.013466549 1191:0.021024035 1192:-0.034011588 1193:0.032040849 1194:0.036620382 1195:0.028849935 1196:-0.017151756 1197:0.028519096 1198:-0.059089951 1199:-0.028669165 1200:-0.026786955 1201:0.017425008 1202:0.0087587032 1203:0.014389642 1204:-0.0037955083 1205:-0.025731912 1206:-0.026139818 1207:-0.013840072 1208:-0.020902939 1209:0.02842536 1210:-0.029223457 1211:0.022923004 1212:0.0071295546 1213:-0.014570333 1214:-0.0093116658 1215:-0.0090866676 1216:0.012741209 1217:0.015654104 1218:0.022238854 1219:0.010895807 1220:-0.017609857 1221:-0.037301563 1222:0.023331255 1223:-0.018578615 1224:0.011408741 1225:0.011187649 1226:-0.012415584 1227:-0.012369698 1228:-0.016424401 1229:0.03426772 1230:0.0068305861 1231:0.023023853 1232:0.020837048 1233:0.038781423 1234:-0.011188051 1235:0.012853266 1236:-0.0146827 1237:0.014345126 1238:0.047780968 1239:-0.045908678 1240:0.028109781 1241:0.028466893 1242:-0.028364584 1243:-0.017170316 1244:0.022475518 1245:0.022818027 1246:-0.022357328 1247:-0.023287252 1248:-0.010685495 1249:0.026398815 1250:-0.0099544358 1251:-0.037407055 1252:-0.0056830682 1253:-0.018751901 1254:-0.01490388 1255:0.0081037963 1256:0.029134393 1257:-0.010578679 1258:0.020383539 1259:-0.025819255 1260:-0.028976295 1261:0.016899692 1262:-0.016184952 1263:0.034972232 1264:0.015548869 1265:0.039759547 1266:-0.033748742 1267:-0.024650505 1268:-0.021358944 1269:0.025862176 1270:-0.036044929 1271:0.027127968 1272:0.033938099 1273:-0.01073056 1274:0.0028504755 1275:-0.024602257 1276:0.025469329 1277:-0.009125486 1278:0.029765477 1279:0.021866323 1280:0.015366454 1281:0.020425769 1282:-0.027276723 1283:0.0096846642 1284:-0.022406748 1285:-0.036677569 1286:0.010000459 1287:-0.032488197 1288:0.017453568 1289:-0.036132339 1290:-0.0036049495 1291:-0.0067377156 1292:0.017188288 1293:0.01462926 1294:0.020625889 1295:-0.020643396 1296:0.027156303 1297:0.032833226 1298:0.037439317 1299:0.0093507981 1300:-0.035985835 1301:-0.036970142 1302:-0.049418289 1303:0.028369281 1304:-0.020320829 1305:0.030326996 1306:-0.020008264 1307:-0.026458731 1308:0.043656379 1309:-0.020501958 1310:-0.023476513 1311:-0.0075757373 1312:-0.018720701 1313:0.017649902 1314:-0.014673468 1315:0.03316053 1316:0.023603966 1317:0.02519499 1318:0.012909309 1319:-0.0094593065 1320:0.011098174 1321:-0.016645728 1322:0.005546438 1323:-0.015886091 1324:-0.016256111 1325:0.021297108 1326:-0.017171107 1327:0.0074909963 1328:-0.012450311 1329:0.0067302911 1330:-0.0064311023 1331:0.037987795 1332:0.051655635 1333:0.036464896 1334:-0.023666928 1335:0.027850587 1336:-0.035770163 1337:0.023093026 1338:-0.015421928 1339:0.0039865342 1340:-0.013515027 1341:-0.0089231078 1342:0.038752384 1343:-0.025893154 1344:0.016065255 1345:-0.0097736754 1346:-0.017558439 1347:-0.013899956 1348:-0.010311598 1349:0.024688546 1350:-0.012850594 1351:0.025492722 1352:-0.021076968 1353:-0.028613605 1354:-0.0024015999 1355:-0.021463534 1356:-0.02292766 1357:-0.031937007 1358:0.016367 1359:0.012113847 1360:-0.030493775 1361:0.01929082 1362:0.021597816 1363:-0.018977839 1364:0.016511677 1365:0.015658801 1366:0.049472392 1367:0.039412413 1368:0.028464777 1369:0.03113739 1370:-0.014561125 1371:-0.018841311 1372:0.043232482 1373:-0.01025869 1374:0.009924246 1375:-0.020878239 1376:0.036153141 1377:0.021021979 1378:-0.010421915 1379:0.0095861526 1380:-0.041814089 1381:-0.0064614303 1382:0.016070938 1383:-0.026514517 1384:0.034102809 1385:-0.024002535 1386:0.01702426 1387:-0.032260712 1388:-0.015976304 1389:-0.027109867 1390:-0.0015218161 1391:-0.0084158285 1392:0.011746374 1393:-0.027261142 1394:0.017378762 1395:-0.010949551 1396:-0.010446821 1397:0.0084521594 1398:-0.016695248 1399:-0.01762303 1400:0.015386691 1401:-0.03088543 1402:0.036436018 1403:-0.025053121 1404:-0.023902034 1405:-0.016108461 1406:0.0066345464 1407:0.028890764 1408:-0.031035835 1409:0.017218418 1410:-0.030204775 1411:-0.01219 1412:0.025087239 1413:0.03397315 1414:-0.019792173 1415:0.025116839 1416:0.03358819 1417:-0.029225018 1418:-0.0279609 1419:0.029604357 1420:-0.027967146 1421:0.013627646 1422:0.027786596 1423:-0.013956694 1424:-0.0060331258 1425:-0.013126927 1426:0.014280125 1427:0.020749254 1428:-0.022169827 1429:0.02136085 1430:0.0052147987 1431:-0.022740746 1432:0.015862506 1433:0.034145698 1434:0.025517054 1435:0.016595235 1436:0.044602003 1437:0.023537125 1438:-0.03607399 1439:-0.038595617 1440:-0.031153956 1441:0.01700443 1442:0.042623095 1443:0.045908324 1444:0.019041907 1445:-0.027095875 1446:-0.023565535 1447:0.012404112 1448:0.027914271 1449:-0.026430447 1450:0.012726738 1451:0.032640044 1452:-0.024409767 1453:-0.0092854211 1454:0.026736179 1455:0.018185124 1456:-0.012165205 1457:-0.018619517 1458:0.01017626 1459:-0.016904417 1460:-0.0029534781 1461:0.024257436 1462:0.014564494 1463:0.007640963 1464:0.0099659376 1465:0.017517803 1466:0.020599889 1467:-0.013004313 1468:-0.018792229 1469:-0.0019694662 1470:0.011605287 1471:0.050638799 1472:-0.028112706 1473:-0.033650938 1474:-0.026632318 1475:0.036716625 1476:-0.0089725172 1477:-0.0308247 1478:-0.01699484 1479:-0.044779215 1480:0.030226402 1481:0.012468977 1482:0.022485722 1483:0.018608993 1484:0.023329645 1485:-0.027804617 1486:0.019951481 1487:-0.031026933 1488:-0.010298471 1489:-0.035609532 1490:0.028806707 1491:0.0046549677 1492:0.0150553 1493:0.015566464 1494:0.012129455 1495:-0.018908717 1496:0.022512574 1497:0.0060335333 1498:0.016442487 1499:0.011106045 1500:0.023472959 1501:0.013686899 1502:0.010291418 1503:-0.010815944 1504:-0.011816426 1505:-0.017171111 1506:0.033921268 1507:0.033674646 1508:-0.045739967 1509:-0.053567309 1510:0.026079647 1511:0.0059724208 1512:-0.011361164 1513:-0.020179484 1514:0.033402886 1515:-0.023334429 1516:-0.039376281 1517:-0.0210225 1518:-0.0070854109 1519:0.011325737 1520:-0.041889396 1521:0.0049718469 1522:0.010851536 1523:0.0067608575 1524:0.018931551 1525:-0.017296163 1526:0.019205745 1527:-0.025627067 1528:-0.022556739 1529:0.021754 1530:-0.024772726 1531:0.0080332775 1532:0.0018903887 1533:-0.015238771 1534:-0.01957099 1535:-0.015219782 1536:0.025942596 1537:-0.0065932712 1538:0.026298029 1539:0.0093758879 1540:0.0061415816 1541:0.057305105 1542:-0.053357814 1543:0.045049377 1544:-0.035402279 1545:-0.0090031717 1546:0.030284896 1547:-0.012954337 1548:-0.029282652 1549:-0.0068179052 1550:-0.021840012 1551:0.003536647 1552:0.011022316 1553:-0.0096953595 1554:0.010819413 1555:-0.024901152 1556:0.031806134 1557:-0.025960062 1558:0.026648995 1559:0.019387258 1560:0.0046199048 1561:0.023599764 1562:-0.02240693 1563:0.016989639 1564:-0.031621698 1565:0.018585173 1566:0.0056721503 1567:-0.012296644 1568:-0.010214086 1569:-0.0089849448 1570:0.013918001 1571:-0.010710409 1572:-0.013213803 1573:-0.017299214 1574:-0.013325293 1575:0.016123282 1576:0.051019032 1577:-0.033772558 1578:0.020596966 1579:0.01622227 1580:0.036927056 1581:-0.010737989 1582:0.034109805 1583:0.012687861 1584:-0.033382878 1585:-0.051097166 1586:0.01259332 1587:0.01559758 1588:0.0071746027 1589:0.030161614 1590:-0.029409198 1591:0.019662172 1592:0.012825732 1593:-0.01520988 1594:0.043396678 1595:0.014276813 1596:0.023197666 1597:0.0094867125 1598:-0.0032587843 1599:0.029813601 1600:0.0030192127 1601:-0.018257944 1602:0.012819866 1603:0.011142731 1604:-0.012284997 1605:0.017511085 1606:-0.012731991 1607:-0.012834187 1608:0.0085487748 1609:-0.012089451 1610:0.027940368 1611:0.01517099 1612:0.049430441 1613:0.023624185 1614:0.043272324 1615:-0.036815837 1616:0.025280641 1617:0.037515849 1618:0.029020807 1619:0.0053384239 1620:0.024564847 1621:0.0026802225 1622:0.0075962264 1623:0.037205759 1624:0.024301484 1625:0.0086276177 1626:-0.028007003 1627:-0.015009755 1628:0.013703991 1629:0.016647333 1630:0.014933808 1631:0.024709906 1632:-0.026948189 1633:0.024750214 1634:0.012748204 1635:0.021396479 1636:-0.021865742 1637:-0.016254429 1638:-0.019912099 1639:0.022459064 1640:-0.016115759 1641:-0.030298725 1642:0.012056276 1643:0.010495713 1644:-0.0056370599 1645:0.023023419 1646:0.043298837 1647:-0.033334881 1648:0.034968719 1649:-0.0032327736 1650:-0.02934015 1651:0.03477364 1652:0.025740668 1653:-0.022088191 1654:-0.019704519 1655:0.013427684 1656:0.0499334 1657:-0.022483779 1658:0.038654 1659:0.023126047 1660:-0.030693369 1661:-0.019234026 1662:-0.013668807 1663:0.019416019 1664:-0.027556282 1665:-0.011243273 1666:0.021284927 1667:0.01132679 1668:0.015931062 1669:-0.018895337 1670:0.0047178059 1671:-0.015866231 1672:0.013291358 1673:0.020193852 1674:0.022228554 1675:0.018883273 1676:0.01662289 1677:0.015111047 1678:0.0099544274 1679:-0.023695158 1680:0.011648999 1681:0.050821211 1682:0.020484935 1683:-0.022508169 1684:0.03346841 1685:0.047279183 1686:0.021033723 1687:-0.029752038 1688:-0.019544426 1689:-0.029843191 1690:-0.022513211 1691:-0.043981511 1692:-0.022561306 1693:0.031612877 1694:0.018195268 1695:-0.023509003 1696:-0.012956151 1697:-0.020071739 1698:0.017290756 1699:-0.020681826 1700:-0.010135273 1701:0.012316771 1702:-0.015507865 1703:-0.030712713 1704:-0.014023542 1705:-0.0061718975 1706:-0.014528268 1707:0.022861674 1708:0.0093625737 1709:-0.030810967 1710:-0.010523322 1711:0.0099652279 1712:0.013008249 1713:0.010207539 1714:-0.010558034 1715:-0.019129526 1716:0.030043399 1717:-0.024594422 1718:-0.038520236 1719:-0.035893749 1720:-0.031806093 1721:-0.023588937 1722:-0.030712081 1723:-0.035998709 1724:-0.023211828 1725:0.022306155 1726:-0.0235957 1727:0.015419634 1728:0.037877627 1729:0.032890469 1730:-0.028506909 1731:-0.014676923 1732:-0.012750597 1733:0.0098970812 1734:-0.036690187 1735:0.026139732 1736:0.0045792009 1737:0.022440733 1738:-0.022087395 1739:0.013342223 1740:-0.02677533 1741:-0.022535598 1742:0.017805556 1743:0.016315734 1744:-0.011934638 1745:0.018736919 1746:-0.0076830704 1747:0.02179029 1748:-0.002919717 1749:0.0075780717 1750:-0.012489157 
0.6547246659295153 0.7590958834660064 0.5385380984770474 0.5382363983891424 1:-0.036490422 2:0.013158864 3:-0.034492582 4:0.030452179 5:-0.048572861 6:0.027103011 7:-0.042918675 8:-0.033770259 9:0.031538751 10:0.012579633 11:0.020485027 12:-0.035704881 13:-0.026642416 14:0.026004424 15:-0.026090475 16:0.015169494 17:-0.016424546 18:0.0068176482 19:-0.0016893899 20:0.027462952 21:0.028894976 22:-0.0088959802 23:0.0085895974 24:0.0079887798 25:-0.020355763 26:0.016122533 27:0.0080648139 28:0.0084453588 29:0.018512605 30:0.012773585 31:-0.027486553 32:-0.011223597 33:0.019992946 34:0.015426297 35:-0.014032427 36:-0.020384001 37:-0.035994254 38:-0.027381174 39:0.020794028 40:0.03119879 41:-0.018142706 42:0.024874821 43:-0.035316192 44:0.042812619 45:0.044033214 46:-0.013185422 47:0.021298086 48:0.020099668 49:0.045061104 50:0.033652965 51:-0.0210885 52:-0.01860971 53:-0.010410163 54:0.008874543 55:-0.023564221 56:0.019038443 57:0.028046034 58:0.0043152655 59:0.0067204684 60:-0.017172014 61:0.02896736 62:-0.012422543 63:0.012477336 64:0.018371807 65:-0.0072851535 66:0.004833438 67:0.023665136 68:0.0054023596 69:-0.017072504 70:-0.022068629 71:-0.020384079 72:0.054855071 73:-0.015877524 74:-0.022493953 75:-0.038815334 76:0.0085154949 77:-0.032779634 78:-0.016369374 79:0.030853841 80:-0.010553462 81:-0.016273411 82:-0.0086050956 83:-0.03285379 84:0.024890009 85:0.015581855 86:-0.022518981 87:0.011286985 88:0.0051116049 89:-0.034992043 90:-0.024388991 91:0.046410836 92:-0.022334157 93:0.017922631 94:-0.037585847 95:-0.014760776 96:0.01620001 97:-0.020305237 98:0.012041491 99:0.01853135 100:-0.022120019 101:0.018356027 102:0.0022841743 103:0.019648943 104:0.0078344271 105:0.0050305026 106:0.050439276 107:0.023144796 108:-0.02726011 109:0.037195124 110:-0.028580496 111:0.024979344 112:0.0081966827 113:0.010969087 114:0.042118255 115:-0.015798079 116:-0.036738072 117:-0.021803943 118:-0.041573301 119:0.022767438 120:-0.036243085 121:-0.01135048 122:-0.029209146 123:-0.028954154 124:0.012671257 125:-0.011418465 126:-0.011048865 127:0.015633104 128:0.027265256 129:-0.012773819 130:-0.0078167655 131:-0.0069837226 132:-0.013509797 133:0.0098911952 134:-0.013365766 135:0.024733204 136:-0.015032578 137:-0.010556276 138:0.015799608 139:0.014508167 140:0.019848114 141:-0.035120785 142:0.042923823 143:-0.046838999 144:0.039651971 145:-0.024485068 146:-0.01605597 147:0.0063254163 148:0.040233053 149:0.02536474 150:-0.032905664 151:0.01468681 152:-0.0061167944 153:-0.026161084 154:-0.020394986 155:0.022915805 156:-0.018256141 157:0.0082157608 158:0.0046837307 159:-0.01818414 160:0.020556409 161:0.0090733701 162:-0.025796959 163:0.0073485947 164:-0.036610279 165:0.018090494 166:0.026843788 167:0.0097214235 168:-0.010071741 169:0.0040677991 170:-0.010756299 171:0.023158271 172:-0.01609469 173:0.019528443 174:0.024970029 175:0.023297831 176:-0.031007323 177:0.02966846 178:-0.043747079 179:0.050237868 180:0.024583111 181:-0.019432016 182:-0.017545411 183:-0.042652134 184:0.032769561 185:-0.024544438 186:-0.017990962 187:0.0024883505 188:-0.039119318 189:0.035527069 190:0.014137454 191:0.0045620603 192:0.013815313 193:0.016370503 194:-0.01138351 195:-0.03053809 196:-0.024144454 197:0.011402899 198:-0.017911125 199:0.022911659 200:-0.013481429 201:-0.016141333 202:0.013097147 203:0.010307121 204:0.018091902 205:-0.0077865878 206:0.011333616 207:0.014844306 208:-0.02510513 209:-0.014784018 210:-0.014386987 211:0.029092729 212:0.046588589 213:0.019447349 214:-0.016633777 215:-0.0066236812 216:-0.02252375 217:-0.050305437 218:-0.019203857 219:0.024148729 220:0.013798307 221:-0.013604708 222:0.013466706 223:0.013867291 224:0.028344236 225:0.019876186 226:0.036379267 227:-0.022399334 228:0.019496432 229:0.0095426291 230:-0.041184358 231:0.022530487 232:-0.018763574 233:-0.004466848 234:-0.026303988 235:0.039351828 236:0.034416281 237:0.0021981231 238:0.012184002 239:0.0075734602 240:0.014973021 241:-0.010449803 242:-0.013046844 243:0.012263867 244:-0.019275727 245:-0.028522952 246:0.049976051 247:-0.014224595 248:-0.011205439 249:0.028681103 250:-0.052564494 251:0.006859614 252:0.041009147 253:0.010243551 254:0.013653543 255:0.031429559 256:-0.017789964 257:0.01256074 258:0.037018251 259:0.031218 260:0.034969993 261:-0.022216324 262:0.013991472 263:-0.016047306 264:0.026344081 265:0.030762665 266:0.01341867 267:-0.012301984 268:0.016385509 269:-0.030986782 270:-0.020819796 271:0.031893197 272:-0.011737904 273:0.01682537 274:0.0042178375 275:-0.009148404 276:0.0052827895 277:-0.016828703 278:0.0089593828 279:0.003216801 280:-0.0041030506 281:0.018473607 282:-0.023974238 283:-0.034727219 284:-0.028053559 285:-0.038843945 286:-0.022746915 287:0.044481374 288:-0.030371532 289:0.033878848 290:-0.014521966 291:-0.06170658 292:0.016726783 293:-0.019831093 294:-0.031532995 295:0.021850044 296:0.025128094 297:-0.018179769 298:0.0058734776 299:0.013927253 300:0.019802252 301:0.013682457 302:-0.027727949 303:0.0027858277 304:-0.002071877 305:-0.0076911333 306:0.013382713 307:0.010985912 308:0.021893574 309:0.012793349 310:-0.013931418 311:-0.026638875 312:0.0010546873 313:-0.016573023 314:-0.0078662653 315:0.0076532341 316:0.024384359 317:0.032544106 318:-0.030737873 319:-0.036274247 320:-0.033882655 321:0.02555389 322:-0.028083723 323:-0.037984125 324:-0.019448467 325:-0.029010776 326:-0.010596442 327:0.024093013 328:-0.0078300443 329:0.0022190274 330:0.021931857 331:-0.035433855 332:0.023314936 333:-0.0035465087 334:-0.02695387 335:0.029462244 336:0.035251055 337:-0.010779663 338:0.0081715072 339:-0.0025707802 340:-0.02544434 341:0.034112897 342:-0.0141341 343:0.0056371475 344:-0.0088427281 345:-0.017752584 346:0.021860614 347:-0.0095925136 348:0.024279008 349:-0.002259708 350:0.033974901 351:0.051712047 352:0.040354259 353:0.038351703 354:0.01399792 355:-0.034174997 356:0.004754547 357:0.033756886 358:0.039032329 359:0.041949555 360:0.019610144 361:0.018692916 362:0.0054509956 363:-0.030653862 364:0.022232477 365:-0.025146756 366:0.018333653 367:0.014042325 368:0.015577208 369:0.017397009 370:-0.018827377 371:-0.0076610222 372:-0.016671907 373:-0.015406118 374:-0.022004303 375:0.012216297 376:-0.030590093 377:-0.0093240701 378:-0.012070879 379:-0.00457094 380:-0.023657411 381:0.019477967 382:-0.019533163 383:-0.010772877 384:0.012322818 385:0.01299779 386:0.043098569 387:-0.038683388 388:0.040456489 389:-0.031703763 390:-0.040837996 391:-0.033075824 392:-0.039833587 393:0.028503766 394:-0.022919545 395:0.023144398 396:-0.023603333 397:-0.024824435 398:0.032707904 399:0.017759155 400:-0.032990798 401:-0.020088151 402:0.0032489931 403:-0.0086781252 404:-0.01262141 405:0.031905334 406:0.01569722 407:0.021063888 408:-0.0059769503 409:0.0082510812 410:0.012307524 411:0.021873465 412:0.005411332 413:0.0029223987 414:-0.018023027 415:-0.006105477 416:0.013156128 417:-0.013481978 418:-0.013630077 419:0.0029683365 420:0.0097756572 421:0.042600986 422:0.03778873 423:0.026288243 424:0.028868787 425:-0.033059288 426:0.0076499535 427:-0.025756972 428:0.042733308 429:0.017613528 430:-0.013564983 431:-0.011964886 432:0.015718842 433:-0.01678114 434:0.051381726 435:0.036828138 436:-0.034124266 437:0.021235781 438:0.0060426448 439:0.0084132282 440:0.0074840235 441:0.021552417 442:-0.016646493 443:-0.02041892 444:0.030101324 445:-0.016316004 446:-0.0092407828 447:0.012154503 448:0.0045217052 449:0.01189088 450:-0.02330954 451:-0.0069229985 452:0.013112496 453:0.012610365 454:-0.01478453 455:-0.027997585 456:-0.033897933 457:-0.029119896 458:0.028829077 459:0.020610766 460:-0.036238752 461:0.028972832 462:0.027621515 463:0.027295215 464:0.037198685 465:0.024740081 466:-0.041138031 467:-0.029168103 468:-0.036987502 469:-0.012720547 470:0.020453591 471:0.019236535 472:0.030364724 473:0.023738258 474:0.017468117 475:-0.022036877 476:0.019972306 477:-0.021678563 478:-0.016057724 479:0.016904432 480:-0.011820524 481:-0.0047977027 482:-0.0062820506 483:-0.028842263 484:0.012461373 485:-0.01132322 486:-0.0060895979 487:-0.027096922 488:-0.0031112649 489:0.017581817 490:0.011520897 491:-0.018540177 492:0.031550359 493:0.025000526 494:0.037400868 495:0.021022104 496:-0.012468786 497:0.0029363371 498:-0.034656897 499:0.028301885 500:-0.025261078 501:0.014384408 502:-0.012477932 503:-0.0075999824 504:0.031347658 505:-0.036469448 506:0.028896853 507:-0.025972888 508:0.015495142 509:-0.03520016 510:-0.030090852 511:0.0099555021 512:-0.032628376 513:0.016986331 514:-0.024760913 515:0.014471624 516:0.036740754 517:0.0039864299 518:0.013589718 519:0.020344162 520:0.016486913 521:0.0075149834 522:0.018358877 523:0.026756993 524:-0.020039782 525:-0.027229555 526:-0.032828569 527:-0.029977215 528:0.02008036 529:0.031618182 530:0.039014272 531:0.016629616 532:-0.047856469 533:0.015647708 534:0.036343053 535:0.02506871 536:0.01318396 537:0.014630181 538:0.018133674 539:0.02741948 540:0.03128143 541:0.035568047 542:-0.01989563 543:-0.019072007 544:0.039437179 545:0.017254818 546:0.023565954 547:-0.030293254 548:0.0066620647 549:0.018039474 550:-0.018121701 551:0.017368175 552:0.0092793712 553:0.011190219 554:0.021487199 555:-0.0039597675 556:0.013362965 557:0.015764903 558:0.01466008 559:-0.0042376118 560:0.01383515 561:0.037442781 562:0.047594476 563:-0.028784586 564:-0.027001498 565:0.043371577 566:-0.022731379 567:-0.02916836 568:0.030692857 569:0.042329226 570:-0.025763843 571:0.019414108 572:0.024087818 573:0.026346924 574:0.006146051 575:0.017540989 576:-0.030774286 577:0.01786424 578:0.0059489454 579:-0.023065999 580:-0.024566192 581:0.015057825 582:0.012618825 583:-0.007170618 584:-0.0018725267 585:0.026627144 586:0.026608601 587:0.012255024 588:0.011766363 589:-0.0086611509 590:0.014971769 591:0.011741975 592:-0.01284372 593:-0.003656856 594:-0.018073399 595:-0.024627896 596:-0.020541299 597:0.013272906 598:0.038049534 599:0.055253293 600:-0.024891978 601:-0.0094199646 602:0.031313755 603:0.038032778 604:0.04085679 605:0.03481622 606:-0.020717354 607:0.012701656 608:-0.025429746 609:0.030388979 610:-0.031567622 611:-0.013218201 612:0.013956058 613:0.018943358 614:-0.016059408 615:-0.017202636 616:-0.022224581 617:0.017432569 618:0.017334133 619:-0.021660585 620:0.011349865 621:0.0096785063 622:0.0099848965 623:-0.014084095 624:0.0060092681 625:-0.013958897 626:0.02458269 627:-0.016316269 628:0.021867791 629:0.013711715 630:0.024273969 631:-0.0067159319 632:0.056801349 633:-0.045941059 634:0.018964993 635:0.016418992 636:-0.023206744 637:-0.026972195 638:0.034108493 639:0.034425396 640:-0.0017820661 641:-0.012531159 642:0.01939228 643:-0.031961698 644:-0.031024791 645:-0.022683751 646:-0.013014064 647:0.0097896894 648:-0.017611112 649:0.012544591 650:-0.032669965 651:0.041605167 652:0.017728187 653:0.0084180068 654:-0.014619693 655:-0.03049599 656:0.018293405 657:0.012477006 658:-0.0048748199 659:0.0082214018 660:-0.013481797 661:-0.022694094 662:-0.0062701697 663:-0.022662742 664:0.0026563723 665:-0.020996386 666:-0.020867465 667:0.041694783 668:-0.034816626 669:0.0092809871 670:0.03034969 671:-0.014724312 672:-0.012284942 673:-0.047952112 674:-0.026227441 675:0.047182057 676:-0.0026996743 677:0.019421196 678:-0.039872516 679:0.018757775 680:-0.012049261 681:-0.036200576 682:0.016173389 683:0.01293876 684:-0.022050755 685:0.037003104 686:0.025609087 687:0.027482539 688:0.0048381886 689:0.01218092 690:0.0071486477 691:0.013088824 692:0.013694691 693:0.0088580372 694:-0.0080323368 695:-0.0066598803 696:0.017567419 697:-0.017179936 698:0.016532235 699:0.013741178 700:0.026704563 701:0.012795706 702:0.021077424 703:-0.023687452 704:0.05800572 705:0.031020133 706:-0.020137487 707:-0.04400121 708:0.037979204 709:-0.044900514 710:0.025105188 711:0.021603484 712:0.0065408745 713:-0.01702283 714:-0.028473645 715:-0.0078565236 716:-0.022606451 717:-0.0058080624 718:-0.014509564 719:0.025356745 720:-0.027393786 721:0.016124621 722:-0.015595899 723:0.020029958 724:0.021556474 725:0.0069129476 726:0.027742743 727:0.018357342 728:0.009228983 729:0.011130995 730:0.0072987084 731:-0.02609732 732:0.01820958 733:0.017544935 734:-0.0092064934 735:-0.0078768469 736:-0.0085095121 737:0.011759742 738:-0.012773203 739:-0.052485015 740:0.012207678 741:-0.042084575 742:-0.033372756 743:0.028661484 744:-0.029266015 745:-0.027005395 746:-0.026282823 747:-0.033522002 748:-0.027591696 749:0.014496397 750:0.022367293 751:0.027171481 752:-0.021765595 753:0.0087917866 754:0.019294918 755:-0.019629646 756:0.013879509 757:0.020927904 758:-0.017924692 759:0.013075126 760:0.025306223 761:-0.028098546 762:0.028123226 763:0.036214516 764:-0.010800091 765:-0.0067958962 766:-0.0052499073 767:-0.016472038 768:0.013626778 769:0.025106778 770:-0.012812029 771:0.034631468 772:-0.018037679 773:0.0077218842 774:-0.019895116 775:-0.031568211 776:0.015122008 777:-0.057120439 778:-0.035869632 779:0.041323587 780:0.024698123 781:0.0042074961 782:-0.012609353 783:0.022656273 784:-0.037393007 785:0.017878141 786:0.019270428 787:-0.012333601 788:-0.0074028764 789:-0.014404909 790:-0.0092559028 791:0.036663339 792:0.029079601 793:-0.0039793602 794:-0.0071407761 795:0.015695337 796:-0.035920206 797:-0.0059977695 798:-0.019804105 799:0.010442417 800:0.0124783 801:0.029973315 802:-0.0093609374 803:0.024640385 804:-0.0079606092 805:0.022485118 806:0.01432778 807:0.061978336 808:-0.0060758553 809:0.05455365 810:-0.037470993 811:0.027520575 812:0.0094657112 813:-0.0065685287 814:-0.038108278 815:-0.035846263 816:-0.021105452 817:-0.02387142 818:-0.0016807625 819:0.030479277 820:0.014192545 821:0.021882767 822:0.010551496 823:0.026972909 824:-0.02108849 825:0.011841175 826:0.012887123 827:0.023588335 828:-0.014752681 829:0.019843431 830:-0.012390907 831:-0.0164047 832:-0.020546457 833:0.0080822371 834:-0.0073907776 835:-0.012260491 836:0.019222844 837:0.013692215 838:0.010651755 839:0.011345579 840:0.024691226 841:0.021335211 842:0.029032279 843:0.025195779 844:0.029233675 845:-0.042656168 846:0.028471177 847:0.030834075 848:-0.044177387 849:-0.019133301 850:-0.019279186 851:0.036311064 852:-0.038740754 853:-0.023151625 854:-0.0094118174 855:-0.022828912 856:0.01003947 857:0.029633287 858:-0.015015109 859:0.017972114 860:0.023831366 861:-0.0091552427 862:-0.02014122 863:0.0082073659 864:-0.026360288 865:-0.018691383 866:0.016859479 867:-0.025934635 868:0.025376329 869:0.0054252082 870:-0.010183794 871:-0.027710674 872:-0.0060470849 873:0.02383171 874:0.0065093082 875:-0.011489393 876:0.03221827 877:0.034528907 878:-0.022273397 879:0.047191337 880:-0.033439659 881:-0.023023853 882:-0.030282054 883:-0.0028217793 884:0.026379889 885:-0.02343549 886:-0.0079684984 887:-0.012493108 888:-0.035594389 889:0.040368028 890:-0.016004661 891:0.039994001 892:-0.011009989 893:-0.008340124 894:0.026351126 895:-0.031143088 896:-0.014154619 897:0.022283502 898:-0.02393443 899:0.030433197 900:-0.0069534727 901:-0.032602262 902:-0.0090935715 903:0.013690075 904:0.0018750868 905:0.0017074969 906:0.01251656 907:0.011495855 908:0.010665252 909:-0.017585201 910:-0.010287551 911:0.048303828 912:0.053295325 913:0.016521128 914:-0.0093190465 915:0.023529159 916:0.018175108 917:0.048662759 918:-0.01861468 919:0.035997041 920:-0.02255585 921:0.016835654 922:0.01362189 923:0.024081286 924:0.025966233 925:0.033363782 926:0.027448883 927:0.013994201 928:-0.015910856 929:-0.012376044 930:-0.027698936 931:0.0097639998 932:0.014437865 933:0.014703443 934:-0.023915501 935:0.031509493 936:-0.010982203 937:0.0095869889 938:0.0043322351 939:0.0085421307 940:-0.0076504387 941:-0.027584726 942:0.010868781 943:-0.023340728 944:0.0096604759 945:0.01181656 946:-0.00956388 947:-0.029865099 948:0.014842439 949:-0.017686779 950:0.051753845 951:0.01962192 952:-0.02947918 953:-0.041881189 954:0.058501314 955:0.040224232 956:0.016118318 957:-0.01921447 958:0.016524812 959:0.027524019 960:0.017450664 961:0.017125642 962:0.0041288971 963:-0.016725045 964:0.034057159 965:0.018528381 966:-0.014272799 967:-0.0058414941 968:-0.016080694 969:-0.0071945619 970:-0.027581047 971:0.016998881 972:-0.018867414 973:-0.025724236 974:0.021811342 975:0.01319328 976:-0.013836989 977:-0.0033133649 978:0.0027125794 979:0.014759814 980:-0.0024726919 981:0.026217457 982:-0.042813439 983:-0.018997887 984:0.037292786 985:0.046928886 986:0.017527664 987:-0.0262035 988:-0.015331556 989:0.049807668 990:-0.033730868 991:-0.019564947 992:-0.027365632 993:-0.017018586 994:0.026415037 995:-0.013059308 996:0.023933599 997:-0.024138995 998:0.0099061709 999:0.02199381 1000:-0.013743394 1001:-0.027986242 1002:-0.012173763 1003:-0.0050849998 1004:-0.016823672 1005:0.014529124 1006:0.014007606 1007:0.013571688 1008:0.016929448 1009:0.015503878 1010:0.011673689 1011:0.01668465 1012:0.022750888 1013:0.023166291 1014:0.011449394 1015:0.022439318 1016:0.03319085 1017:0.046660837 1018:-0.028956614 1019:0.030655263 1020:-0.041874137 1021:-0.022596776 1022:-0.034239169 1023:0.045358017 1024:0.014367125 1025:-0.015657857 1026:-0.0067295069 1027:0.0045605721 1028:-0.029284675 1029:-0.0099193705 1030:-0.013155179 1031:0.008269418 1032:-0.019528469 1033:0.028707372 1034:-0.040985599 1035:0.020367352 1036:0.0077762068 1037:-0.024697706 1038:0.0082989531 1039:-0.019943859 1040:0.024536822 1041:0.035809476 1042:0.01420019 1043:-0.003616468 1044:-0.00612135 1045:0.0080041299 1046:-0.016585374 1047:-0.009637434 1048:0.014708956 1049:-0.0090339547 1050:0.020744242 1051:-0.033883549 1052:0.027301919 1053:-0.034786437 1054:0.050422527 1055:0.030100817 1056:0.048036821 1057:-0.006429072 1058:-0.01741761 1059:-0.031067131 1060:-0.028058933 1061:0.01771152 1062:-0.017657144 1063:0.0056133387 1064:-0.011811904 1065:-0.034692053 1066:-0.024357386 1067:-0.036060449 1068:-0.019163307 1069:-0.019347301 1070:-0.010077151 1071:-0.019447388 1072:0.012098348 1073:-0.014611789 1074:-0.009077115 1075:0.0061104195 1076:0.016540721 1077:-0.012330935 1078:0.027687395 1079:0.024480902 1080:-0.015671562 1081:0.022222284 1082:0.011596332 1083:-0.013863767 1084:0.015416928 1085:-0.018795703 1086:0.047241848 1087:-0.04034742 1088:-0.032369029 1089:0.042482615 1090:0.043460071 1091:-0.0097932769 1092:-0.0070187589 1093:-0.022047676 1094:0.06855765 1095:-0.023966009 1096:0.016640438 1097:-0.012027251 1098:0.014927706 1099:-0.010964355 1100:-0.011949486 1101:-0.022227317 1102:0.011581259 1103:0.0025433286 1104:-0.012908238 1105:0.020358607 1106:-0.025999852 1107:-0.030665752 1108:-0.004362551 1109:-0.011185351 1110:-0.01576744 1111:-0.018964099 1112:0.0018403773 1113:-0.0091687599 1114:0.0043601077 1115:-0.011974109 1116:-0.0094212843 1117:0.0089428974 1118:-0.0090890732 1119:-0.0018041121 1120:0.022289742 1121:-0.017673461 1122:-0.041013211 1123:0.043183714 1124:0.011190731 1125:0.031534016 1126:-0.027040921 1127:0.010309085 1128:-0.035799079 1129:0.031085856 1130:0.034616709 1131:-0.032753978 1132:-0.016642349 1133:-0.032765921 1134:0.0339779 1135:-0.011351663 1136:-0.018342836 1137:-0.0066107064 1138:-0.012849391 1139:0.034025632 1140:-0.03372578 1141:0.023117865 1142:0.020853464 1143:0.0075212549 1144:-0.028881814 1145:0.020026715 1146:0.0090621505 1147:0.0069756173 1148:0.012408903 1149:-0.0057347296 1150:0.014975036 1151:-0.01948016 1152:-0.016443327 1153:-0.014498902 1154:-0.0066821724 1155:0.021965213 1156:0.020120507 1157:0.027632039 1158:0.035398047 1159:0.014264379 1160:-0.011566542 1161:0.023954351 1162:-0.05140144 1163:-0.017723903 1164:0.043320924 1165:-0.024774894 1166:0.020163754 1167:0.015476881 1168:-0.0390836 1169:0.025210451 1170:-0.025230257 1171:-0.015534641 1172:0.021028994 1173:0.027915746 1174:-0.036228132 1175:0.005448862 1176:0.0012627525 1177:-0.029878715 1178:-0.015635973 1179:0.022170002 1180:-0.023566814 1181:-0.03359241 1182:0.015811428 1183:-0.007261896 1184:0.013519872 1185:0.0084176268 1186:-0.021684997 1187:-0.0064074085 1188:0.015930666 1189:0.0074920384 1190:-0.01668139 1191:-0.037521102 1192:0.034673169 1193:0.025825553 1194:0.038731948 1195:-0.034147862 1196:0.01518081 1197:0.032809921 1198:-0.041149039 1199:-0.022056082 1200:-0.019442772 1201:-0.017038718 1202:-0.016782979 1203:-0.03958074 1204:0.0099941427 1205:0.019147953 1206:-0.024161993 1207:0.012501469 1208:-0.0081880856 1209:-0.010219542 1210:0.023174552 1211:-0.018405942 1212:0.031703625 1213:0.017406393 1214:0.024579311 1215:-0.033753309 1216:0.018038232 1217:0.018091977 1218:-0.019557942 1219:-0.0044776052 1220:-0.013989762 1221:-0.019599216 1222:0.015659876 1223:-0.024356149 1224:0.0073974147 1225:0.014821866 1226:-0.054101881 1227:0.029146021 1228:-0.04191798 1229:-0.016389772 1230:-0.047857806 1231:-0.0046384116 1232:0.024766449 1233:0.029602658 1234:-0.043932732 1235:-0.022041874 1236:-0.009391644 1237:0.00077903521 1238:0.034343265 1239:-0.033801384 1240:0.0088664526 1241:0.011506341 1242:-0.012359615 1243:-0.022502217 1244:0.020892527 1245:0.015021278 1246:0.02577834 1247:-0.011346494 1248:0.01199293 1249:-0.012762398 1250:-0.021939512 1251:0.012918053 1252:0.001863195 1253:0.011649077 1254:-0.004366592 1255:0.017577514 1256:0.021258712 1257:0.01414065 1258:-0.025445931 1259:-0.0051459605 1260:-0.022269184 1261:0.046978798 1262:0.056927234 1263:-0.01314111 1264:0.034130618 1265:0.042799927 1266:0.019372156 1267:-0.032957938 1268:0.019398818 1269:-0.013687548 1270:-0.023731465 1271:-0.024212981 1272:-0.020339625 1273:-0.020305043 1274:0.017368695 1275:-0.0072232052 1276:-0.026111376 1277:0.015286691 1278:0.021196323 1279:0.011531901 1280:-0.0096260235 1281:0.019123375 1282:-0.015776778 1283:0.014440686 1284:0.027660666 1285:0.032319292 1286:-0.014096558 1287:-0.0219111 1288:0.023090171 1289:-0.0046552308 1290:0.011531643 1291:-0.017032385 1292:0.013028198 1293:0.011637156 1294:-0.00058640755 1295:0.029033881 1296:-0.0073720901 1297:-0.028161533 1298:-0.0065248464 1299:-0.046798173 1300:0.041572079 1301:0.009894928 1302:-0.033508237 1303:0.022591757 1304:-0.029420158 1305:-0.031821415 1306:-0.027492499 1307:0.017891219 1308:-0.032656267 1309:0.024344439 1310:0.036896344 1311:0.022175087 1312:0.011661589 1313:-0.014977647 1314:0.017618416 1315:-0.03271481 1316:0.028077232 1317:-0.022181351 1318:0.012252648 1319:-0.016743613 1320:0.017032228 1321:-0.031628128 1322:-0.0171944 1323:-0.020242082 1324:0.0099324184 1325:-0.01174821 1326:0.0058161351 1327:-0.012702474 1328:0.027315374 1329:-0.0128126 1330:-0.014303225 1331:0.046649877 1332:0.045093406 1333:0.032977737 1334:0.035135269 1335:-0.0125749 1336:-0.036774304 1337:0.022935333 1338:0.028690146 1339:0.023733662 1340:0.021809772 1341:0.028572481 1342:0.034644481 1343:-0.020295525 1344:0.018780509 1345:-0.029044216 1346:0.016617371 1347:0.028926352 1348:-0.019564757 1349:0.020670377 1350:-0.012062963 1351:0.014349365 1352:-0.01599201 1353:0.0086719822 1354:0.018992992 1355:-0.010146936 1356:-0.0099053206 1357:-0.029206479 1358:-0.019423563 1359:0.0093733408 1360:-0.024590258 1361:0.0092838472 1362:-0.0107345 1363:0.013937445 1364:0.018662104 1365:0.010539947 1366:0.029919418 1367:0.036564514 1368:-0.039700914 1369:0.044660684 1370:0.025135227 1371:-0.040584713 1372:-0.021740302 1373:-0.035207301 1374:-0.035017606 1375:0.020664709 1376:0.0072479267 1377:0.022984199 1378:-0.030094218 1379:0.027765736 1380:-0.031517927 1381:0.024662131 1382:-0.0094259698 1383:0.019393643 1384:0.025761476 1385:0.0011832507 1386:0.023804773 1387:-0.016263602 1388:-0.019227752 1389:0.015547611 1390:-0.022237444 1391:0.012126514 1392:0.0030429594 1393:0.017774459 1394:-0.013318956 1395:-0.017409984 1396:0.00956083 1397:0.0084397402 1398:-0.009712738 1399:0.013011706 1400:-0.015735799 1401:0.02455244 1402:0.010190764 1403:-0.017487628 1404:0.02515737 1405:-0.040833503 1406:-0.0054486445 1407:-0.035093237 1408:0.02902402 1409:0.014273129 1410:0.03240544 1411:0.028655346 1412:-0.021840395 1413:-0.032227676 1414:0.012489535 1415:-0.032386895 1416:-0.031829748 1417:0.012572079 1418:-0.0091679068 1419:-0.015107824 1420:-0.034296758 1421:-0.029168963 1422:0.013772981 1423:-0.0032355883 1424:0.026985722 1425:0.032734364 1426:0.027707126 1427:0.017186347 1428:0.0063523431 1429:-0.016186262 1430:0.018737521 1431:-0.024803106 1432:0.020716622 1433:0.036314588 1434:-0.0094361361 1435:0.01043836 1436:-0.037932761 1437:-0.015856439 1438:-0.0058872704 1439:0.044405099 1440:-0.037121836 1441:-0.015734028 1442:0.027658645 1443:0.028345812 1444:-0.03346435 1445:0.024080655 1446:0.010384219 1447:-0.01370471 1448:-0.015402014 1449:0.012501881 1450:0.031200491 1451:0.018400759 1452:0.020143526 1453:0.016757308 1454:-0.036123093 1455:0.022867369 1456:0.034548949 1457:0.039154392 1458:0.015490761 1459:-0.0085928598 1460:-0.026277231 1461:0.022492409 1462:0.011749411 1463:0.012133938 1464:-0.014209792 1465:0.012048605 1466:0.031900078 1467:-0.02121284 1468:-0.0077486606 1469:0.0091371955 1470:0.020332165 1471:-0.020930916 1472:0.031921633 1473:0.027820222 1474:0.043617725 1475:-0.034708563 1476:-0.024425305 1477:-0.030715739 1478:0.028729856 1479:0.015076524 1480:0.025574654 1481:0.012241438 1482:-0.01617305 1483:-0.032960892 1484:0.029999319 1485:-0.02424019 1486:0.036732912 1487:-0.023677738 1488:0.029582318 1489:0.023573253 1490:-0.015203301 1491:-0.0016694425 1492:-0.023936186 1493:-0.012225416 1494:-0.017543849 1495:-0.012747889 1496:0.012367594 1497:-0.0099020544 1498:0.017910447 1499:-0.017001648 1500:0.022654625 1501:-0.021486182 1502:-0.0092972824 1503:0.028844476 1504:-0.017725959 1505:-0.024367554 1506:-0.022067355 1507:0.026705215 1508:0.029697862 1509:-0.027550861 1510:0.037732724 1511:0.016647674 1512:0.038288031 1513:-0.035836663 1514:0.030480055 1515:0.034544848 1516:-0.018139806 1517:-0.005845936 1518:0.028709259 1519:-0.0085580191 1520:0.027490405 1521:0.030546369 1522:-0.016119557 1523:0.0081922701 1524:-0.018418394 1525:-0.011019267 1526:-0.031928964 1527:0.038304921 1528:0.0059160581 1529:0.017000182 1530:-0.011267239 1531:-0.0061570648 1532:-0.0069270269 1533:0.0079635335 1534:0.0068203853 1535:0.0050050206 1536:0.038417097 1537:-0.018650474 1538:-0.037117165 1539:-0.0044417647 1540:-0.021645686 1541:0.037786145 1542:-0.04241275 1543:-0.024895834 1544:-0.025066031 1545:-0.024189493 1546:-0.017553957 1547:0.048104905 1548:-0.036437117 1549:0.011333658 1550:-0.01246777 1551:-0.034664061 1552:-0.015185256 1553:-0.032785472 1554:-0.027458554 1555:0.03386556 1556:-0.016014569 1557:0.018779814 1558:0.0047419914 1559:0.0096455533 1560:0.01873675 1561:0.019025212 1562:-0.029350549 1563:-0.023834091 1564:0.011214389 1565:-0.0073923673 1566:0.024680564 1567:0.013472845 1568:-0.021979745 1569:0.016303448 1570:0.0071901227 1571:-0.032500897 1572:0.013559256 1573:-0.016429687 1574:-0.011374895 1575:0.0044774753 1576:0.035490621 1577:0.02786427 1578:-0.041378621 1579:0.026104668 1580:-0.046316329 1581:-0.0085161738 1582:-0.01255509 1583:-0.057646383 1584:0.033121958 1585:0.025043674 1586:-0.012880772 1587:-0.0065073278 1588:-0.022880327 1589:0.016903253 1590:-0.021565489 1591:-0.02729555 1592:-0.0089971488 1593:-0.011696007 1594:0.012020957 1595:0.016543714 1596:0.022400426 1597:0.017789951 1598:-0.014548419 1599:-0.011601662 1600:-0.024237396 1601:-0.03102923 1602:0.013105687 1603:-0.0055170688 1604:0.014900411 1605:-0.012901359 1606:-0.029450966 1607:0.018532129 1608:0.018827833 1609:-0.013682475 1610:-0.015038267 1611:-0.0090002902 1612:0.058105003 1613:-0.036053009 1614:0.042136937 1615:-0.014713094 1616:-0.01658817 1617:0.0254531 1618:-0.044544999 1619:-0.0099080689 1620:0.010609239 1621:-0.0068677929 1622:0.0045576049 1623:-0.0098795518 1624:0.037071973 1625:0.024511984 1626:-0.042391639 1627:0.026961964 1628:-0.020130483 1629:-0.025305264 1630:0.024673782 1631:-0.011237198 1632:0.021726634 1633:0.010897571 1634:-0.024509666 1635:0.014203417 1636:0.029461704 1637:0.002378775 1638:0.010042848 1639:0.0096817408 1640:-0.0062762327 1641:0.019974804 1642:0.008261689 1643:-0.017172057 1644:0.0032107644 1645:0.020353554 1646:0.02861803 1647:-0.0078244889 1648:0.035051994 1649:0.020127498 1650:0.025193537 1651:0.051303811 1652:0.040186353 1653:0.025325285 1654:-0.02687593 1655:0.032105327 1656:0.026908327 1657:0.026992157 1658:0.014561105 1659:0.022425739 1660:-0.028150333 1661:0.015537501 1662:0.035269219 1663:-0.01937953 1664:-0.0042699245 1665:0.015949572 1666:0.017494969 1667:0.018813411 1668:0.0046889312 1669:0.018967682 1670:0.0032085807 1671:-0.017301654 1672:0.032061867 1673:-0.013839868 1674:-0.025450271 1675:0.022497602 1676:-0.0064943479 1677:-0.019998798 1678:0.023845227 1679:0.011723629 1680:-0.015600181 1681:0.04524155 1682:0.030422132 1683:-0.028682295 1684:-0.0073801558 1685:-0.03480649 1686:0.035002939 1687:-0.0354263 1688:0.014714437 1689:0.0091923038 1690:-0.024274904 1691:-0.025009291 1692:0.022317611 1693:0.014166447 1694:0.027121248 1695:-0.042909823 1696:0.017289013 1697:-0.043056328 1698:-0.026781134 1699:-0.022277094 1700:-0.017968906 1701:-0.0049386155 1702:0.025637457 1703:-0.010616529 1704:0.011308364 1705:0.0052543622 1706:0.024472984 1707:-0.029256549 1708:-0.019216843 1709:-0.010195642 1710:0.011150345 1711:-0.0053262548 1712:0.021953927 1713:-0.0056306347 1714:-0.015093932 1715:0.01435916 1716:0.021840999 1717:-0.0046848832 1718:0.030998817 1719:-0.030218245 1720:0.039750829 1721:0.01282042 1722:-0.041633025 1723:-0.024435923 1724:-0.022159863 1725:0.025106501 1726:-0.027563822 1727:0.015007315 1728:-0.01913215 1729:0.0043611922 1730:0.027765233 1731:0.015425284 1732:0.0056585972 1733:0.010634773 1734:0.0080243191 1735:-0.025176261 1736:0.048730623 1737:0.026168507 1738:-0.018551448 1739:-0.034173235 1740:0.022464583 1741:-0.034821697 1742:0.0036474122 1743:0.0020363571 1744:-0.011624089 1745:0.02095753 1746:-0.015852919 1747:-0.0066389358 1748:0.032651573 1749:0.018526752 1750:0.024964267 
