svm_type c_svc
kernel_type linear
nr_class 5
total_sv 86
rho -1.07982 -1.45839 -0.582692 -1.24381 -0.129756 2.12303 0.834446 1.20084 0.899416 -0.473345
label 0 1 2 3 4
probA -2.04888 -1.9747 -2.18842 -2.14326 -1.41306 -1.61892 -1.57207 -2.07413 -2.1225 -1.87128
probB -0.389294 -0.319343 0.223593 0.0803245 0.215978 0.429434 -0.104405 0.373803 0.402674 0.0834845
nr_sv 19 12 16 19 20
SV
0 0 788.318886843676 0 1:0.0094751902 2:0.0032591966 3:0.0083327917 4:0.01024799 5:0.010617589 6:0.020294379 7:0.012196788 8:0.024124775 9:0.0047375951 10:0.0043343953 11:0.0095423898 12:0.023721576 13:0.0047039953 14:0.0060143936 15:0.018043181 16:0.012263987 17:0.011591988 18:0.011491188 19:0.0074255923 20:0.0087695913 21:0.01871518 22:0.012566387 23:0.0091727907 24:0.0087023908 25:0.010483189 26:0.005879994 27:0.0074591921 28:0.0072239926 29:0.0063839932 30:0.0057791942 31:0.026443172 32:0.013305586 33:0.0067535932 34:0.0034271965 35:0.010785589 36:0.010852789 37:0.0095087904 38:0.0056783943 39:0.0029231969 40:0.0075935922 41:0.0093407901 42:0.0090383906 43:0.01004639 44:0.0041999957 45:0.0074927923 46:0.008971191 47:0.0069215926 48:0.015556784 49:0.0049391948 50:0.004972795 
84.09386761311927 0 0 0 1:0.030767981 2:0.0025100193 3:0.00744909 4:0.024047606 5:0.0023480826 6:0.022509206 7:0.014979148 8:0.031658631 9:0.0057487544 10:0.0080158683 11:0.019837251 12:0.012469129 13:0.0053439122 14:0.015222053 15:0.0092303939 16:0.019027567 17:0.011578477 18:0.012954939 19:0.0063155326 20:0.016598515 21:0.012550097 22:0.014655274 23:0.01489818 24:0.0068823113 25:0.010606856 26:0.012550097 27:0.02040403 28:0.0098781409 29:0.019999187 30:0.0073681218 31:0.029877327 32:0.011983318 33:0.0051010074 34:0.0010525888 35:0.013278812 36:0.015141085 37:0.0069632796 38:0.0024290511 39:0.0012954939 40:0.02234727 41:0.0060726278 42:0.001538399 43:0.020484997 44:0.007287153 45:0.0021861459 46:0.0078539317 47:0.0073681218 48:0.031253789 49:0.017003357 50:0.0034816398 
0 0 164.0692230563777 0 1:0.011897897 2:0.0022412317 3:0.0022412317 4:0.012091584 5:0.0088265799 6:0.0048421677 7:0.0034033521 8:0.018095871 9:0.0010237725 10:0.0017985194 11:0.0035970388 12:0.018787609 13:8.3008585e-005 14:0.0047038198 15:0.018704601 16:0.015550275 17:0.0079688244 18:0.0033480129 19:0.0048144981 20:0.0032650044 21:0.033203434 22:0.019673035 23:0.0013834764 24:0.0082455194 25:0.0062809829 26:0.0068620429 27:0.0071110688 28:0.0054508969 29:0.0022965709 30:0.0010791116 31:0.011289167 32:0.0085775536 33:0.00063639914 34:0.00080241635 35:0.008549884 36:0.0014388155 37:0.0072770859 38:0.0093246307 39:0.0035693692 40:0.0051465323 41:0.010348404 42:0.0040397514 43:0.0098780217 44:0.0055615753 45:0.0044271247 46:0.0084115369 47:0.0041780989 48:0.011925567 49:0.0032096654 50:0.003292674 
0 144.385389433314 0 0 1:0.010721374 2:0.003903413 3:0.0077027348 4:0.017695472 5:0.0077027348 6:0.02420116 7:0.010461147 8:0.012074557 9:0.0080150077 10:0.0064015971 11:0.0092641003 12:0.0077027348 13:0.0024981843 14:0.0076506892 15:0.0098366002 16:0.013687968 17:0.015301378 18:0.017643426 19:0.0074425074 20:0.0085354624 21:0.0034350033 22:0.0092641003 23:0.010565237 24:0.0080670537 25:0.014520696 26:0.004111595 27:0.021390703 28:0.012699103 29:0.008951827 30:0.0065056882 31:0.039918903 32:0.011918421 33:0.0049963687 34:0.0017695472 35:0.012282739 36:0.0039554583 37:0.015145242 38:0.0086915996 39:0.0017695472 40:0.0027063664 41:0.0079629626 42:0.0037993218 43:0.023784796 44:0.0067659155 45:0.0033309124 46:0.0083272811 47:0.0064536426 48:0.020974338 49:0.0022379567 50:0.0054127327 
1.649068204494185 0 0 0 1:0.014967049 2:0.018800074 3:0.006875108 4:0.019408491 5:0.0082744658 6:0.019895224 7:0.016853141 8:0.013202641 9:0.0013385166 10:0.012959274 11:0.013689375 12:0.012046649 13:0.0012168332 14:0.012107491 15:0.0094304578 16:0.015757991 17:0.022511415 18:0.014845366 19:0.013628533 20:0.011985808 21:0.022268049 22:0.027682956 23:0.014784524 24:0.011438233 25:0.014662841 26:0.013628533 27:0.0094304578 28:0.0096738245 29:0.010464766 30:0.0018860915 31:0.017765766 32:0.02372825 33:0.0035288164 34:0.00085178332 35:0.020138592 36:0.0093696164 37:0.0077877329 38:0.0094304578 39:0.0077268914 40:0.016244724 41:0.015453783 42:0.0014601999 43:0.019286808 44:0.015879674 45:0.0027378749 46:0.015332099 47:0.02050364 48:0.020625323 49:0.009308775 50:0.0053540664 
0 0 713.673873672231 0 1:0.015054754 2:0.010411242 3:0.0047901487 4:0.011730976 5:0.0071363444 6:0.0064520375 7:0.0088959904 8:0.0065009166 9:0.0042524789 10:0.0051323022 11:0.0084560793 12:0.0091403862 13:0.016374489 14:0.0040080836 15:0.0081628049 16:0.014956996 17:0.012904075 18:0.010704516 19:0.0070385863 20:0.0040569627 21:0.005034544 22:0.0079184091 23:0.0055722138 24:0.01627673 25:0.013490624 26:0.0063054003 27:0.017205432 28:0.020822484 29:0.0054255766 30:0.0041058417 31:0.0072341026 32:0.0085538374 33:0.0083583212 34:0.0027861069 35:0.010117968 36:0.013832777 37:0.016227851 38:0.005034544 39:0.012659679 40:0.00684307 41:0.010460121 42:0.0012219767 43:0.018867321 44:0.0030305022 45:0.0041547208 46:0.0088471118 47:0.015396907 48:0.042573672 49:0.0090915067 50:0.0047412696 
0 377.8606706857712 0 0 1:0.019477062 2:0.0073225782 3:0.0079701534 4:0.019477062 5:0.009663811 6:0.023462139 7:0.015691239 8:0.012752245 9:0.0032876881 10:0.0059776148 11:0.011407281 12:0.0062764958 13:0.0025902998 14:0.0099128783 15:0.0069240704 16:0.016089747 17:0.012802059 18:0.014894224 19:0.010859334 20:0.013798328 21:0.0061768689 22:0.016089747 23:0.012702432 24:0.01902874 25:0.031482104 26:0.008468288 27:0.014296462 28:0.010909148 29:0.0070236977 30:0.0037360094 31:0.0188793 32:0.024956543 33:0.0039850767 34:0.0022914191 35:0.0067746304 36:0.0041843303 37:0.018181913 38:0.0099626919 39:0.011606536 40:0.01339982 41:0.010161946 42:0.0032876881 43:0.0076712724 44:0.0075716455 45:0.0041843303 46:0.020224264 47:0.008617728 48:0.012204297 49:0.0066251899 50:0.004234144 
0 0 1.498307765365097 0 1:0.0059963353 2:0.0014177887 3:0.0021982228 4:0.011121186 5:0.0025364109 6:0.0076482543 7:0.0072190156 8:0.0063215164 9:0.0021982228 10:0.0031737655 11:0.0099505354 12:0.0054370244 13:0.0017429695 14:0.0029136208 15:0.0035899968 16:0.0064515886 17:0.0023933314 18:0.011082164 19:0.0018600347 20:0.0036030042 21:0.0078433631 22:0.0040582572 23:0.0028615918 24:0.0021461938 25:0.0061654295 26:0.002328295 27:0.0098854983 28:0.0056061186 29:0.0028095627 30:0.0018600347 31:0.0059052845 32:0.0042403587 33:0.0024193458 34:0.0014438031 35:0.0069978926 36:0.0058402484 37:0.0042403587 38:0.0018470275 39:0.0019250708 40:0.0020421359 41:0.0032778233 42:0.0013657596 43:0.0074271313 44:0.0018860491 45:0.0015998899 46:0.0024193458 47:0.0019510853 48:0.031022256 49:0.0035119534 50:0.001274709 
0 0 161.5026750018847 182.2059816754556 1:0.0065933787 2:0.0096789505 3:0.013544034 4:0.0052292314 5:0.0073404121 6:0.015362898 7:0.013966271 8:0.016564647 9:0.0036702061 10:0.017181762 11:0.015882572 12:0.0054565892 13:0.0069181756 14:0.0047745155 15:0.0053591505 16:0.0029881322 17:0.031830106 18:0.0084772017 19:0.011367895 20:0.017603997 21:0.014323547 22:0.010945658 23:0.010555902 24:0.0069831354 25:0.014843223 26:0.011627732 27:0.0039950032 28:0.015915053 29:0.0032479698 30:0.0055865082 31:0.010068706 32:0.013316677 33:0.0076976884 34:0.0020462209 35:0.01084822 36:0.0076976884 37:0.0060412241 38:0.0056839474 39:0.0040274826 40:0.0081524048 41:0.013479075 42:0.0016564647 43:0.0014940661 44:0.0028906933 45:0.0025658961 46:0.0067557772 47:0.019292941 48:0.0085421605 49:0.0060412241 50:0.0022410993 
212.8123155262386 0 0 0 1:0.0083902497 2:0.0063294866 3:0.012099623 4:0.0080075366 5:0.0034149787 6:0.024640838 7:0.0054463022 8:0.018046396 9:0.0019724446 10:0.0094500706 11:0.0062706075 12:0.0067416392 13:0.0013542158 14:0.0096267071 15:0.0060645314 16:0.0047691944 17:0.014601978 18:0.0051519074 19:0.005181347 20:0.0086846445 21:0.015956193 22:0.020430993 23:0.013512718 24:0.018311352 25:0.010362694 26:0.0074481866 27:0.0062411684 28:0.0054168631 29:0.0065061236 30:0.0023257183 31:0.016456665 32:0.016456665 33:0.0066238814 34:0.0011775789 35:0.0057995762 36:0.0078014601 37:0.0098033445 38:0.0020607631 39:0.0070065944 40:0.014101507 41:0.01395431 42:0.0012364578 43:0.0076248231 44:0.013865991 45:0.0034444183 46:0.023639897 47:0.0059467736 48:0.0054168631 49:0.0070654736 50:0.0032677813 
7.068376498464649 0 0 0 1:0.015480824 2:0.0020083231 3:0.0035982456 4:0.014058261 5:0.0030961647 6:0.021924194 7:0.0092048142 8:0.035396695 9:0.00033472051 10:0.0076985718 11:0.0041840062 12:0.010543696 13:0.00058576092 14:0.026945001 15:0.0086190533 16:0.02677764 17:0.018158589 18:0.0025104037 19:0.012217299 20:0.016736025 21:0.021254752 22:0.020668991 23:0.0087027336 24:0.021338433 25:0.010627376 26:0.010878417 27:0.020752672 28:0.0044350466 29:0.017823867 30:8.3680126e-005 31:0.020166911 32:0.027781803 33:0.0016736025 34:0.0015899225 35:0.012468339 36:0.0030124846 37:0.0097068949 38:0.0081169726 39:0.010041615 40:0.021422112 41:0.02560612 42:0.0016736025 43:0.020836351 44:0.0092048142 45:0.0012552019 46:0.022091554 47:0.0069454508 48:0.014392982 49:0.014644022 50:0.00041840062 
0 0 456.0311532990781 1000 1:0.0080902427 2:0.0093816435 3:0.011280761 4:0.012762073 5:0.0063430546 6:0.020662405 7:0.016940134 8:0.021725912 9:0.012496197 10:0.008508049 11:0.0084700668 12:0.012762073 13:0.0091537489 14:0.0090018194 15:0.01367365 16:0.012686109 17:0.0097994497 18:0.011470674 19:0.0096095372 20:0.013939527 21:0.010976902 22:0.017130045 23:0.015230928 24:0.0081282258 25:0.012420232 26:0.006305072 27:0.01606654 28:0.014395315 29:0.0056973542 30:0.008508049 31:0.022409594 32:0.007330596 33:0.018117586 34:0.0090777846 35:0.0075205076 36:0.023625029 37:0.0077104196 38:0.006494984 39:0.0091537489 40:0.0083561195 41:0.010483132 42:0.003570342 43:0.011622603 44:0.0086979605 45:0.0058872662 46:0.014053474 47:0.0063810367 48:0.017281976 49:0.0083561195 50:0.0046338481 
138.7418348541513 216.0475284858792 0 441.4365631245457 1:0.01575774 2:0.0044198539 3:0.025366118 4:0.010761383 5:0.0090318751 6:0.062262289 7:0.012490891 8:0.020754097 9:0.0048041889 10:0.011337886 11:0.016334243 12:0.0032668484 13:0.0099927131 14:0.026711291 15:0.0015373405 16:0.0073023671 17:0.040739521 18:0.012106556 19:0.0099927131 20:0.025366118 21:0.00019216756 22:0.0048041889 23:0.028056463 24:0.012490891 25:0.025173951 26:0.0061493618 27:0.015181237 28:0.013836064 29:0.031515479 30:0.0082632052 31:0.037088338 32:0.02209927 33:0.027672129 34:0.0040355185 35:0.01652641 36:0.011722221 37:0.013259562 38:0.0028825135 39:0.0069180322 40:0.0092240432 41:0.020177593 42:0.0011530054 43:0.0099927131 44:0.0096083777 45:0.0019216756 46:0.012106556 47:0.0067258645 48:0.0044198539 49:0.0088397078 50:0.0013451729 
0 0 992.5152936747343 179.8780069802217 1:0.0059812116 2:0.0017781981 3:0.0049466239 4:0.0053345943 5:0.012350394 6:0.015745135 7:0.012188739 8:0.01441957 9:0.0063368515 10:0.0033300801 11:0.0075654248 12:0.018396268 13:0.0055285795 14:0.0073714391 15:0.014775209 16:0.009408284 17:0.011768438 18:0.0067894836 19:0.0069834688 20:0.012124077 21:0.032557189 22:0.018978223 23:0.0084060272 24:0.0092142988 25:0.0061751972 26:0.005399256 27:0.0067894836 28:0.0076300865 29:0.012447387 30:0.0061428659 31:0.021338377 32:0.016909048 33:0.0083090346 34:0.006110535 35:0.0044616605 36:0.007985726 37:0.0043000062 38:0.0070481305 39:0.0032977492 40:0.010669189 41:0.0093436223 42:0.0070481305 43:0.0029097786 44:0.0065308367 45:0.012447387 46:0.0098285861 47:0.010669189 48:0.0043323371 49:0.0071451231 50:0.0067571527 
46.20638307743764 0 660.2089703092796 514.2408848496195 1:0.0069342102 2:0.0063299844 3:0.0051790783 4:0.013350513 5:0.0059559401 6:0.0073658004 7:0.0028197204 8:0.016170233 9:0.0037979907 10:0.0052653961 11:0.0058696219 12:0.0077686175 13:0.0012084516 14:0.0063587571 15:0.0079700258 16:0.0094374316 17:0.0068478924 18:0.0065601659 19:0.011019927 20:0.0050352151 21:0.037807271 22:0.011624154 23:0.0056106681 24:0.0090058418 25:0.0051503056 26:0.0067903469 27:0.013177877 28:0.0065889386 29:0.014156148 30:0.0032225377 31:0.010127976 32:0.012055743 33:0.0030211289 34:0.0022730399 35:0.0029923564 36:0.0064450754 37:0.0065601659 38:0.003855536 39:0.0086893421 40:0.01191188 41:0.007998799 42:0.0030786744 43:0.007883708 44:0.0060134856 45:0.004689943 46:0.0064163026 47:0.013379286 48:0.0077973902 49:0.0095812948 50:0.0026183119 
0 0 1000 347.80811026472 1:0.0029984114 2:0.0020740891 3:0.0070789563 4:0.0089501459 5:0.003629656 6:0.013977557 7:0.01039299 8:0.027594404 9:0.0071916785 10:0.0036522006 11:0.012196546 12:0.015397858 13:0.010167546 14:0.0052077672 15:0.019027514 16:0.01246708 17:0.0059517343 18:0.0079807341 19:0.005027412 20:0.0075298455 21:0.011407491 22:0.013053235 23:0.0075974786 24:0.0033591227 25:0.0045314338 26:0.0025926114 27:0.014180457 28:0.011114413 29:0.0090403231 30:0.0048696008 31:0.012760157 32:0.0041932673 33:0.011835835 34:0.0043510785 35:0.0058615562 36:0.013594301 37:0.0058841007 38:0.0034943894 39:0.0035620227 40:0.0065829786 41:0.0048245117 42:0.0057713785 43:0.0073720342 44:0.0085443454 45:0.0065604341 46:0.004328534 47:0.0026377004 48:0.01693088 49:0.0092206793 50:0.0071916785 
0 210.9423632799756 0 0 1:0.020610675 2:0.0022206788 3:0.005759886 4:0.012768904 5:0.0015267167 6:0.03608603 7:0.010062451 8:0.029354598 9:0.0034004145 10:0.0066620368 11:0.011727961 12:0.0058986782 13:0.00062456593 14:0.014642601 15:0.0070090177 16:0.011450375 17:0.016446903 18:0.0070784139 19:0.012074942 20:0.0090215076 21:0.0065232441 22:0.019777922 23:0.011311583 24:0.014503809 25:0.018389996 26:0.0098542627 27:0.012699507 28:0.011450375 29:0.011519772 30:0.0020124903 31:0.03865369 32:0.019222751 33:0.0027758486 34:0.0018736979 35:0.015128375 36:0.0046495465 37:0.017834827 38:0.0015267167 39:0.0027064523 40:0.0070090177 41:0.015058978 42:0.0016655092 43:0.014365016 44:0.0089521119 45:0.0044413577 46:0.0093684886 47:0.0024982637 48:0.0091603007 49:0.0060374709 50:0.005759886 
44.29494539489338 0 0 0 1:0.020286689 2:0.0051685832 3:0.021708049 4:0.015118105 5:0.024421554 6:0.033983435 7:0.018994542 8:0.029331708 9:0.011500097 10:0.024033912 11:0.018219255 12:0.015376534 13:0.0073652309 14:0.016151821 15:0.010337166 16:0.017056324 17:0.036955368 18:0.0095618786 19:0.01524732 20:0.02739349 21:0.019252973 22:0.011241668 23:0.020932762 24:0.026488988 25:0.011241668 26:0.019769831 27:0.017314753 28:0.010207952 29:0.010207952 30:0.0059438706 31:0.030882284 32:0.017443968 33:0.011629312 34:0.0047809393 35:0.013438316 36:0.016022608 37:0.011629312 38:0.020545118 39:0.0085281618 40:0.031399142 41:0.017314753 42:0.0074944454 43:0.0096910931 44:0.0063315141 45:0.0062022996 46:0.013050673 47:0.019252973 48:0.01692711 49:0.018219255 50:0.0047809393 
51.20215908483657 0 529.0293727549205 0 1:0.014811458 2:0.0056865416 3:0.003306129 4:0.020938817 5:0.0026008214 6:0.020718409 7:0.0091689974 8:0.023936374 9:0.0046285805 10:0.0047167442 11:0.013136352 12:0.015296357 13:0.0022040859 14:0.011593492 15:0.01357717 16:0.0085518537 17:0.0055102147 18:0.01154941 19:0.01974861 20:0.0079787914 21:0.027815565 22:0.016486563 23:0.0047608255 24:0.0081992 25:0.011461247 26:0.017059626 27:0.01282778 28:0.0076702191 29:0.015472683 30:0.0036147009 31:0.020498 32:0.012122473 33:0.0078906277 34:0.0031738838 35:0.010535531 36:0.0085959351 37:0.0096979784 38:0.0031738838 39:0.014943703 40:0.0053779697 41:0.013400842 42:0.0026889849 43:0.019175548 44:0.010447367 45:0.0040555182 46:0.0086840987 47:0.0033942924 48:0.019087384 49:0.0033942924 50:0.0037910279 
-138.8005266181415 264.2222462190731 2.645917626273724 375.6140871887004 1:0.010225813 2:0.0077468283 3:0.035635408 4:0.0088313846 5:0.0015493657 6:0.022465803 7:0.010535686 8:0.0077468283 9:0 10:0.039663762 11:0.012239989 12:0.0018592387 13:0.0015493657 14:0.039044015 15:0.00046480968 16:0.010690623 17:0.0077468283 18:0.0074369549 19:0.0086764479 20:0.013324545 21:0.0027888583 22:0.013479481 23:0.024944786 24:0.011000496 25:0.016733149 26:0.019367071 27:0.002169112 28:0.0027888583 29:0.040748317 30:0.001084556 31:0.012085052 32:0.01533872 33:0.013324545 34:0.00092961936 35:0.0044931602 36:0.018127577 37:0.014254164 38:0.00015493657 39:0.023860231 40:0.044001985 41:0.026958963 42:0.0020141753 43:0.0054227798 44:0.026958963 45:0.001084556 46:0.0055777165 47:0.0088313846 48:0.001084556 49:0.025874406 50:0.00046480968 
-50.65359610821422 0 278.4816831095651 541.3722373955227 1:0.0011428886 2:0.027221527 3:0.0047793523 4:0.0067534326 5:0 6:0.0073768264 7:0.019844702 8:0.028468315 9:0 10:0.0058183419 11:0.016312137 12:0.0013506865 13:0.0068573314 14:0.019429106 15:0.00072729273 16:0.018182319 17:0.0012467875 18:0.0094548054 19:0.034390558 20:0.0085197147 21:0.017558925 22:0.02690983 23:0.012675673 24:0.010805492 25:0.0017662824 26:0.042702474 27:0.0014545855 28:0.014234157 29:0.01797452 30:0.00062339375 31:0.012675673 32:0.0036364635 33:0.01496145 34:0.00041559583 35:0.00010389896 36:0.018286217 37:0.0017662824 38:0.00010389896 39:0.017143328 40:0.031273589 41:0.008623614 42:0.00010389896 43:0.0059222407 44:0.01392246 45:0.00010389896 46:0.0036364635 47:0.00062339375 48:0.0017662824 49:0.03179308 50:0 
-164.6321954925995 600.0877541994607 52.48027224223991 32.70196682916374 1:0.02770333 2:0.012985935 3:0.017747445 4:0.018613175 5:0.00043286453 6:0.073154107 7:0.0402564 8:0.028136194 9:0 10:0.0134188 11:0.022076091 12:0.0034629162 13:0.00043286453 14:0.033330567 15:0.0021643227 16:0.0095230192 17:0.0047615096 18:0.014284529 19:0.033763431 20:0.0082244258 21:0.0060601034 22:0.022508955 23:0.023374684 24:0.020344632 25:0.020777497 26:0.034629162 27:0.024240414 28:0.018180311 29:0.04328645 30:0.00043286453 31:0.067959733 32:0.017314581 33:0.018613175 34:0.0012985936 35:0.015150258 36:0.019911768 37:0.011254477 38:0 39:0.02294182 40:0.034196299 41:0.015150258 42:0.0017314581 43:0.016015988 44:0.021210361 45:0 46:0.027270464 47:0.0012985936 48:0.0038957808 49:0.038957808 50:0.00043286453 
-0 7.502913741201001 0 0 1:0.05291884 2:0.030637223 3:0.011140808 4:0.011140808 5:0 6:0.077985659 7:0.09748207 8:0.033422425 9:0 10:0 11:0.064059645 12:0 13:0.0055704042 14:0.091911666 15:0 16:0 17:0 18:0.027852021 19:0.0027852021 20:0.044563234 21:0 22:0.0083556063 23:0.030637223 24:0.0027852021 25:0.080770858 26:0.013926011 27:0.058489244 28:0.025066819 29:0.061274447 30:0 31:0.11419328 32:0.0027852021 33:0.019496415 34:0 35:0.080770858 36:0.025066819 37:0.0027852021 38:0 39:0.075200453 40:0.061274447 41:0.033422425 42:0 43:0.013926011 44:0.10305247 45:0 46:0.0055704042 47:0 48:0 49:0.069630049 50:0 
-0 0 0 66.45247117428789 1:0.012398297 2:0.04073726 3:0.05136437 4:0.038966075 5:0 6:0.035423703 7:0.076160967 8:0.077932149 9:0 10:0.017711852 11:0.046050817 12:0 13:0.021254223 14:0.056677926 15:0 16:0.014169482 17:0.074389778 18:0.021254223 19:0.077932149 20:0.038966075 21:0.019483037 22:0.054906741 23:0.038966075 24:0.042508446 25:0.023025408 26:0.033652518 27:0.019483037 28:0.037194889 29:0.031881332 30:0 31:0.053135555 32:0.049593188 33:0.053135555 34:0 35:0.0088559259 36:0.070847407 37:0.019483037 38:0 39:0.037194889 40:0.060220297 41:0.019483037 42:0 43:0.035423703 44:0.058449112 45:0 46:0.035423703 47:0.092101634 48:0.0088559259 49:0.030110149 50:0 
-0 3.733506021714712 611.7743417007133 479.7447975866746 1:0.0058276746 2:0.055474982 3:0.0077328761 4:0.0059397453 5:0 6:0.013112268 7:0.0031379787 8:0.0039224732 9:0.002353484 10:0.0070604519 11:0.004370756 12:0.0016810601 13:0.0029138373 14:0.025440041 15:0.0024655547 16:0.0020172719 17:0.0026896959 18:0.0044828267 19:0.020957215 20:0.0050431802 21:0.0088535827 22:0.006051816 23:0.0042586853 24:0.0021293426 25:0.0025776254 26:0.018715801 27:0.0031379787 28:0.003698332 29:0.029250445 30:0.0034741906 31:0.015241611 32:0.004370756 33:0.015241611 34:0.0054914625 35:0.0049311095 36:0.019612366 37:0.00022414133 38:0 39:0.03339706 40:0.035526402 41:0.0039224732 42:0.0032500494 43:0.003025908 44:0.0063880282 45:0.00067242398 46:0.0024655547 47:0.00056035334 48:0.00022414133 49:0.015914034 50:0.0016810601 
-0 117.0711367774339 0 0 1:0.060003001 2:0.1500075 3:0.060003001 4:0.030001501 5:0 6:0.27001351 7:0.030001501 8:0.030001501 9:0 10:0.030001501 11:0.090004504 12:0 13:0 14:0.090004504 15:0 16:0.030001501 17:0 18:0 19:0.1500075 20:0.030001501 21:0.030001501 22:0 23:0.120006 24:0.030001501 25:0.21001051 26:0.18000901 27:0.090004504 28:0.090004504 29:0.090004504 30:0 31:0.090004504 32:0.030001501 33:0.060003001 34:0 35:0.18000901 36:0.060003001 37:0.030001501 38:0 39:0.18000901 40:0.090004504 41:0 42:0 43:0.060003001 44:0 45:0 46:0 47:0 48:0 49:0.21001051 50:0 
-0 0 0 238.0355183491825 1:0.016855072 2:0.05999263 3:0.015712356 4:0.0039995089 5:0.00085703761 6:0.051422253 7:0.015998036 8:0.023425695 9:0.0062849424 10:0.0062849424 11:0.0077133384 12:0.0057135839 13:0.0094274133 14:0.016855072 15:0.0048565464 16:0.0079990178 17:0.0022854335 18:0.01057013 19:0.033424467 20:0.013712602 21:0.020854581 22:0.014569639 23:0.035709899 24:0.01428396 25:0.002856792 26:0.02828224 27:0.018569147 28:0.012284205 29:0.044565953 30:0.0045708669 31:0.034567181 32:0.014569639 33:0.018569147 34:0.0022854335 35:0.014569639 36:0.038852371 37:0.012855563 38:0.00057135837 39:0.028853599 40:0.038281012 41:0.0085703759 42:0.0034281504 43:0.0031424712 44:0.0022854335 45:0.0011427167 46:0.0051422254 47:0 48:0 49:0.035709899 50:0.00057135837 
-231.9826320346804 0 775.9598924448397 210.3993200070886 1:0.0040512411 2:0.043256801 3:0.0094093345 4:0.00032671299 5:0.00026137038 6:0.007514399 7:0.0045739817 8:0.013852631 9:6.5342596e-005 10:0.011761668 11:0.0015028798 12:0.0022216483 13:0.0045086392 14:0.021301687 15:0.0011108242 16:0.0015028798 17:0.0010454815 18:0.001306852 19:0.014702084 20:0.0062075467 21:0.0071223434 22:0.0050313799 23:0.019472094 24:0.007514399 25:0.0016335649 26:0.020974973 27:0.0013721946 28:0.0080371397 29:0.017119762 30:0.0015028798 31:0.0052274079 32:0.0042472691 33:0.0096053621 34:0.00091479637 35:0.00032671299 36:0.0082331672 37:0.0003920556 38:0.00013068519 39:0.033063356 40:0.029469512 41:0.0020256205 42:0.00071876857 43:0.0012415093 44:0.0094093345 45:0.00032671299 46:0.0023523336 47:0.00084945379 48:0.00052274077 49:0.020125519 50:0.0018295927 
-0 139.2749740070578 0 0 1:0.098967507 2:0.029323706 3:0.10263298 4:0.054981951 5:0 6:0.065978341 7:0.0036654633 8:0.036654633 9:0 10:0.065978341 11:0.029323706 12:0 13:0 14:0.036654633 15:0 16:0.0073309266 17:0.01099639 18:0.02199278 19:0.073309265 20:0.018327316 21:0 22:0.0036654633 23:0.047651023 24:0.029323706 25:0.084305659 26:0.051316489 27:0.15028399 28:0.03298917 29:0.0073309266 30:0 31:0.065978341 32:0.043985561 33:0.02199278 34:0 35:0.069643803 36:0.01099639 37:0.080640197 38:0 39:0.029323706 40:0.043985561 41:0.040320098 42:0 43:0.018327316 44:0.054981951 45:0 46:0.025658244 47:0.0036654633 48:0 49:0.10263298 50:0 
-0 129.5784877753228 0 0 1:0.041467011 2:0.045613714 3:0.070493922 4:0.03317361 5:0 6:0.045613714 7:0.03317361 8:0.045613714 9:0 10:0.03317361 11:0.029026909 12:0.012440104 13:0.012440104 14:0.058053818 15:0.0082934024 16:0.049760416 17:0.020733505 18:0.0082934024 19:0.087080725 20:0.058053818 21:0.016586805 22:0.045613714 23:0.070493922 24:0.024880208 25:0.11196093 26:0.087080725 27:0.070493922 28:0.016586805 29:0.099520832 30:0 31:0.078787319 32:0.037320312 33:0.012440104 34:0 35:0.091227427 36:0.020733505 37:0.041467011 38:0 39:0.049760416 40:0.12440103 41:0.020733505 42:0 43:0.041467011 44:0.12025434 45:0 46:0.049760416 47:0 48:0.012440104 49:0.066347219 50:0 
-0 0 0 165.3653498800884 1:0.0069945175 2:0.045697514 3:0.011191228 4:0.0021760722 5:0 6:0.019895516 7:0.010724926 8:0.0085488549 9:0.00046630116 10:0.0063727824 11:0.011812963 12:0.00062173489 13:0.021449853 14:0.020672685 15:0.0012434698 16:0.0018652047 17:0.0023315058 18:0.0021760722 19:0.038547564 20:0.013056433 21:0.0031086744 22:0.0076162522 23:0.020517251 24:0.010258625 25:0.01461077 26:0.021294421 27:0.0027978071 28:0.010569493 29:0.03512802 30:0.00046630116 31:0.0088597219 32:0.0097923242 33:0.023159625 34:0.0043521444 35:0.0032641082 36:0.024247661 37:0.0029532406 38:0 39:0.045697514 40:0.03590519 41:0.0032641082 42:0.00031086744 43:0.0048184455 44:0.025646564 45:0.00015543372 46:0.0012434698 47:0.00077716861 48:0.0010880361 49:0.027667202 50:0.00031086744 
-483.5978024176022 -0 300.5969869530739 242.3296223602328 1:0.014970355 2:0.011262102 3:0.014970355 4:0.018541265 5:0.00054937083 6:0.042850923 7:0.01469567 8:0.010987416 9:0.0020601405 10:0.009751332 11:0.021425461 12:0.0021974833 13:0.0012360844 14:0.018403921 15:0.0037082529 16:0.027331198 17:0.0046696519 18:0.0089272754 19:0.018541265 20:0.0057683936 21:0.012086158 22:0.0059057362 23:0.0090646185 24:0.0082405619 25:0.045048408 26:0.012772871 27:0.021562804 28:0.018129237 29:0.010850074 30:0.0037082529 31:0.047383234 32:0.0081032198 33:0.0035709103 34:0.002746854 35:0.011262102 36:0.0060430788 37:0.028017912 38:0.00041202811 39:0.010300702 40:0.018266579 41:0.0072791632 42:0.00054937083 43:0.013596928 44:0.0074165058 45:0.001373427 46:0.0086525902 47:0.00054937083 48:0.010438045 49:0.021150777 50:0.0063177645 
-0 -36.80951808698564 0 0 1:0.019887201 2:0.035796963 3:0.071593925 4:0.035796963 5:0 6:0.071593925 7:0.039774403 8:0.099436007 9:0 10:0.027842082 11:0.083526246 12:0.0079548806 13:0.10341345 14:0.031819522 15:0 16:0.039774403 17:0.011932321 18:0.079548806 19:0.043751843 20:0.031819522 21:0.079548806 22:0.059661604 23:0.071593925 24:0.039774403 25:0.095458567 26:0.039774403 27:0.051706724 28:0.031819522 29:0.075571366 30:0 31:0.051706724 32:0.015909761 33:0.087503687 34:0 35:0.071593925 36:0.095458567 37:0.011932321 38:0 39:0.071593925 40:0.083526246 41:0.035796963 42:0 43:0.051706724 44:0.059661604 45:0 46:0.047729284 47:0 48:0.035796963 49:0.079548806 50:0 
-341.3442680210191 -0 313.1611678340431 173.2242429963692 1:0.005417984 2:0.010315008 3:0.0060431361 4:0.011252736 5:0.001354496 6:0.031361792 7:0.019483903 8:0.002188032 9:0.00093772798 10:0.0041676797 11:0.015524608 12:0.00083353597 13:0.004897024 14:0.002188032 15:0.00072934397 16:0.010315008 17:0.0075018238 18:0.017087488 19:0.010523392 20:0.0046886401 21:0.00312576 22:0.007085056 23:0.024797695 24:0.010523392 25:0.048761856 26:0.0104192 27:0.0025006079 28:0.010627584 29:0.013336576 30:0.00062515197 31:0.017921023 32:0.0038551039 33:0.0075018238 34:0.00156288 35:0.045531902 36:0.012815616 37:0.020630015 38:0.00031257598 39:0.010627584 40:0.010106624 41:0.00072934397 42:0.00052095996 43:0.014274304 44:0.0069808639 45:0.00020838399 46:0.007085056 47:0.00312576 48:0.004897024 49:0.014691072 50:0.0019796479 
-0 -51.80803353957719 0 0 1:0.012705198 2:0.010699115 3:0.014042588 4:0.020060841 5:0.00066869467 6:0.051489491 7:0.026079092 8:0.0040121679 9:0 10:0.0033434734 11:0.028753871 12:0.00066869467 13:0.012705198 14:0.038784292 15:0.0013373893 16:0.029422566 17:0.0066869468 18:0.024073008 19:0.033434734 20:0.01136781 21:0.015379977 22:0.019392146 23:0.034772124 24:0.02273562 25:0.074893802 26:0.038115598 27:0.02273562 28:0.038784292 29:0.047477324 30:0.0026747787 31:0.054832965 32:0.01003042 33:0.030091261 34:0 35:0.0628573 36:0.015379977 37:0.033434734 38:0 39:0.036109515 40:0.037446901 41:0.0040121679 42:0 43:0.039452985 44:0.029422566 45:0.00066869467 46:0.015379977 47:0.0033434734 48:0.012705198 49:0.062188607 50:0.0033434734 
-0 -0 0 18.69065769094839 1:0.012562292 2:0.034546301 3:0.056530312 4:0.0062811458 5:0 6:0.069092602 7:0.053389739 8:0.097357757 9:0 10:0.0062811458 11:0.087936044 12:0 13:0.12562291 14:0.015702864 15:0 16:0.047108594 17:0.0094217192 18:0.034546301 19:0.025124583 20:0.015702864 21:0.069092602 22:0.065952033 23:0.053389739 24:0.012562292 25:0.087936044 26:0.031405728 27:0.012562292 28:0.0062811458 29:0.056530312 30:0 31:0.025124583 32:0.028265156 33:0.056530312 34:0 35:0.062811457 36:0.091076612 37:0.015702864 38:0 39:0.084795468 40:0.084795468 41:0.0094217192 42:0 43:0.028265156 44:0.050249167 45:0 46:0.031405728 47:0.0031405729 48:0.028265156 49:0.047108594 50:0 
-0 -42.73592779534855 0 0 1:0.029407492 2:0.023375187 3:0.061077099 4:0.0052782679 5:0.0015080766 6:0.068617485 7:0.04901249 8:0.0075403829 9:0 10:0.04901249 11:0.018096918 12:0.0022621148 13:0 14:0.03091557 15:0.00075403828 16:0.0098024979 17:0.012064612 18:0.02639134 19:0.033931721 20:0.025637301 21:0.0030161531 22:0.0052782679 23:0.036947876 24:0.031669609 25:0.057306908 26:0.049766526 27:0.039209992 28:0.025637301 29:0.025637301 30:0 31:0.046750374 32:0.044488259 33:0.0037701915 34:0.0030161531 35:0.064847291 36:0.0045242296 37:0.050520565 38:0.00075403828 39:0.028653454 40:0.036947876 41:0.011310574 42:0.00075403828 43:0.016588842 44:0.027899416 45:0 46:0.0098024979 47:0 48:0.010556536 49:0.044488259 50:0.0022621148 
-0 -71.63012619706983 0 0 1:0.020116562 2:0.038796227 3:0.022990357 4:0.030174842 5:0 6:0.086213835 7:0.033048637 8:0.063223481 9:0 10:0.010058281 11:0.024427254 12:0 13:0.010058281 14:0.034485534 15:0 16:0.014368973 17:0.041670021 18:0.01580587 19:0.033048637 20:0.03592243 21:0.043106917 22:0.03592243 23:0.043106917 24:0.027301049 25:0.079029351 26:0.051728301 27:0.021553459 28:0.0057475893 29:0.070407964 30:0 31:0.063223481 32:0.057475891 33:0.012932075 34:0 35:0.068971068 36:0.0071844864 37:0.02586415 38:0 39:0.0014368973 40:0.028737945 41:0.0086213835 42:0 43:0.010058281 44:0.080466248 45:0 46:0.066097274 47:0.0043106917 48:0.024427254 49:0.03592243 50:0 
-0 -79.5515311800212 0 0 1:0.015295376 2:0.066279963 3:0.056083046 4:0.020393835 5:0 6:0.061181504 7:0.040787671 8:0.040787671 9:0 10:0.035689209 11:0.066279963 12:0 13:0 14:0.045886129 15:0 16:0.11216609 17:0.010196918 18:0.015295376 19:0.14275683 20:0.035689209 21:0.11216609 22:0.035689209 23:0.010196918 24:0.030590752 25:0.071378417 26:0.13765839 27:0.035689209 28:0.076476879 29:0.020393835 30:0 31:0.061181504 32:0.071378417 33:0.020393835 34:0 35:0.015295376 36:0 37:0.015295376 38:0 39:0.076476879 40:0.12236301 41:0 42:0 43:0.066279963 44:0.015295376 45:0 46:0.050984588 47:0 48:0.015295376 49:0.061181504 50:0 
-0 -60.30797430123991 0 0 1:0.0431307 2:0.09488754 3:0.11213982 4:0.060382981 5:0 6:0.069009118 7:0.0086261397 8:0 9:0 10:0.02587842 11:0.0086261397 12:0 13:0 14:0.034504559 15:0 16:0.02587842 17:0.017252279 18:0.09488754 19:0.017252279 20:0.0431307 21:0.02587842 22:0.02587842 23:0 24:0.05175684 25:0.09488754 26:0.077635258 27:0.060382981 28:0.0086261397 29:0.060382981 30:0 31:0.077635258 32:0.02587842 33:0.0086261397 34:0 35:0 36:0.034504559 37:0.05175684 38:0 39:0.14664438 40:0.1725228 41:0.069009118 42:0 43:0.0431307 44:0.069009118 45:0 46:0.034504559 47:0 48:0 49:0.19840123 50:0 
-0 -366.6230540217449 0 96.99268749890281 1:0.020460924 2:0.012572375 3:0.031061163 4:0.012818892 5:0.0019721373 6:0.071243457 7:0.010600238 8:0.010353721 9:0.00024651716 10:0.025884302 11:0.014544512 12:0.0012325859 13:0.0064094462 14:0.0069024805 15:0.0027116889 16:0.0081350664 17:0.013558444 18:0.015284064 19:0.017749235 20:0.015037547 21:0.0007395515 22:0.0051768604 23:0.015777098 24:0.016023615 25:0.035251953 26:0.014051478 27:0.011832824 28:0.022926096 29:0.019228339 30:0.001479103 31:0.040182296 32:0.011586307 33:0.010353721 34:0.0022186544 35:0.038949713 36:0.016763167 37:0.015530582 38:0 39:0.024898233 40:0.015284064 41:0.014297996 42:0 43:0.0051768604 44:0.022186544 45:0 46:0.0066559636 47:0.007888549 48:0.0049303435 49:0.03549847 50:0.0039442745 
-0 -110.3671944329315 0 0 1:0.017254846 2:0.017721193 3:0.034976039 4:0.032644302 5:0.0051298188 6:0.063889563 7:0.017721193 8:0.0093269432 9:0.00093269435 10:0.027048137 11:0.016788498 12:0.007927902 13:0 14:0.025649095 15:0 16:0.030312566 17:0.016788498 18:0.015389456 19:0.041971248 20:0.0083942488 21:0.0097932909 22:0.0060625132 23:0.0060625132 24:0.023317359 25:0.0247164 26:0.032644302 27:0.057360701 28:0.029846219 29:0.0088605965 30:0.002798083 31:0.06715399 32:0.027514484 33:0.0074615548 34:0.0032644302 35:0.034509692 36:0.005596166 37:0.044302981 38:0.00093269435 39:0.020052928 40:0.024250053 41:0.014456763 42:0.0037307774 43:0.026115442 44:0.015389456 45:0.002798083 46:0.019586582 47:0.0018653887 48:0.029379873 49:0.03824047 50:0 
-0 -73.36727450162408 0 0 1:0.025787674 2:0.012893837 3:0.012893837 4:0.064469181 5:0 6:0.077363022 7:0.051575348 8:0.038681511 9:0 10:0.012893837 11:0 12:0 13:0 14:0.15472604 15:0.012893837 16:0.038681511 17:0 18:0.038681511 19:0.1031507 20:0 21:0.025787674 22:0 23:0.12893836 24:0 25:0.21919522 26:0.038681511 27:0.077363022 28:0 29:0.090256855 30:0 31:0.12893836 32:0 33:0.012893837 34:0 35:0.15472604 36:0 37:0.012893837 38:0 39:0.11604453 40:0.15472604 41:0.051575348 42:0.012893837 43:0.090256855 44:0.051575348 45:0 46:0.064469181 47:0 48:0 49:0.11604453 50:0.012893837 
-0 -134.3393221031141 0 0 1:0.048401538 2:0.022394741 3:0.018782686 4:0.012280988 5:0 6:0.088856556 7:0.020227509 8:0.031786084 9:0 10:0.046956714 11:0.040455017 12:0.0014448221 13:0.00072241103 14:0.019505097 15:0.00072241103 16:0.022394741 17:0.022394741 18:0.0057792882 19:0.015170631 20:0.01444822 21:0 22:0.0028896441 23:0.037565373 24:0.025284385 25:0.059960116 26:0.010836165 27:0.031786084 28:0.031786084 29:0.034675729 30:0 31:0.070073865 32:0.02817403 33:0.003612055 34:0.00072241103 35:0.034675729 36:0.020227509 37:0.025284385 38:0 39:0.0028896441 40:0.017337864 41:0.021672331 42:0 43:0.018782686 44:0.035398141 45:0 46:0.027451618 47:0.003612055 48:0.003612055 49:0.050568771 50:0.00072241103 
-0 -183.1187279822364 0 0 1:0.049362365 2:0.029941106 3:0.051790021 4:0.042888612 5:0.0016184382 6:0.082540348 7:0.024276573 8:0.01780282 9:0.0024276574 10:0.018612038 11:0.01780282 12:0.0040460955 13:0.0040460955 14:0.011329067 15:0.0064737527 16:0 17:0.01780282 18:0.015375162 19:0.033987202 20:0.013756725 21:0.0064737527 22:0.0072829719 23:0.022658134 24:0.037224077 25:0.060691431 26:0.064737529 27:0.038033299 28:0.019421259 29:0.040460955 30:0.0064737527 31:0.073638938 32:0.021039696 33:0.0040460955 34:0 35:0.045316268 36:0.013756725 37:0.033987202 38:0.0040460955 39:0.0089014098 40:0.022658134 41:0.039651737 42:0.0048553147 43:0.013756725 44:0.012947505 45:0.0048553147 46:0.025085792 47:0.011329067 48:0.018612038 49:0.029131887 50:0.0064737527 
-124.2938814463188 -0 52.16587470117456 48.86902804075697 1:0.014848246 2:0.0097685829 3:0.043372508 4:0.0097685829 5:0.00078148663 6:0.072287515 7:0.020318652 8:0.0097685829 9:0 10:0.041028049 11:0.0066426364 12:0.00117223 13:0 14:0.015629733 15:0.00078148663 16:0.015238989 17:0.01992791 18:0.018364936 19:0.013676016 20:0.018364936 21:0.00078148663 22:0.00039074331 23:0.028915005 24:0.032431696 25:0.021881625 26:0.021881625 27:0.016801963 28:0.022272369 29:0.017583448 30:0 31:0.064472646 32:0.036339127 33:0.010159326 34:0.0019537166 35:0.020318652 36:0.014457502 37:0.035166897 38:0.00039074331 39:0.011722299 40:0.027742775 41:0.012113043 42:0.00117223 43:0.025789058 44:0.022272369 45:0.00078148663 46:0.017192706 47:0.00117223 48:0.011331556 49:0.037120614 50:0.00117223 
-0 -50.81233459937076 0 0 1:0.13809533 2:0.13809533 3:0.034523834 4:0 5:0 6:0.17261918 7:0.20714301 8:0 9:0 10:0.20714301 11:0.034523834 12:0 13:0 14:0.069047667 15:0 16:0.069047667 17:0 18:0.034523834 19:0.17261918 20:0.069047667 21:0 22:0 23:0.13809533 24:0 25:0.13809533 26:0.1035715 27:0.034523834 28:0.069047667 29:0.17261918 30:0 31:0.13809533 32:0.034523834 33:0.034523834 34:0 35:0.17261918 36:0.13809533 37:0.1035715 38:0 39:0.17261918 40:0.17261918 41:0 42:0 43:0.034523834 44:0.034523834 45:0 46:0 47:0 48:0 49:0.20714301 50:0 
-934.6769907720228 -0 -0 0 1:0.0069215302 2:0.0049027503 3:0.0033165666 4:0.010814891 5:0.015381178 6:0.013650795 7:0.0079309195 8:0.017592221 9:0.012401075 10:0.002932037 11:0.01547731 12:0.027974518 13:0.0068253977 14:0.0066331332 15:0.026965128 16:0.0056237434 17:0.0050469488 18:0.0067292652 19:0.0063447361 20:0.0041336915 21:0.015381178 22:0.019611001 23:0.0077867215 24:0.0086038467 25:0.018409347 26:0.0051430813 27:0.013314332 28:0.0068253977 29:0.0074502579 30:0.013650795 31:0.028262915 32:0.0072579933 33:0.0068253977 34:0.0042778901 35:0.013794994 36:0.0053353463 37:0.0075944564 38:0.02090879 39:0.0044701546 40:0.009949699 41:0.010478428 42:0.012449141 43:0.01057456 44:0.014804384 45:0.016150236 46:0.014323722 47:0.010190031 48:0.011872347 49:0.006056339 50:0.013314332 
-0 -95.79706653648347 -0 104.500041080192 1:0.0085701114 2:0.045187861 3:0.013556358 4:0.0038955051 5:0.0054537072 6:0.018542605 7:0.01449128 8:0.0087259319 9:0.016516943 10:0.028047638 11:0.014179639 12:0.006856089 13:0.056718554 14:0.013867998 15:0.010439954 16:0.0034280445 17:0.0063886284 18:0.0073235496 19:0.011842336 20:0.013088898 21:0.014179639 22:0.012309796 23:0.012933077 24:0.012777257 25:0.006856089 26:0.004518786 27:0.0024931233 28:0.023528852 29:0.0084142908 30:0.023373032 31:0.016205302 32:0.0071677295 33:0.029294198 34:0.027424356 35:0.0026489436 36:0.032566424 37:0.0070119095 38:0.0049862466 39:0.01511456 40:0.01480292 41:0.0071677295 42:0.011998156 43:0.0060769883 44:0.0088817514 45:0.0098166727 46:0.0095050326 47:0.0074793701 48:0.010439954 49:0.010439954 50:0.013244717 
-226.9951346626527 -0 -0 1000 1:0.0099936938 2:0.010831875 3:0.010638448 4:0.0055448883 5:0.01018712 6:0.016441239 7:0.012121384 8:0.020890044 9:0.012185859 10:0.01160558 11:0.013991171 12:0.0073502008 13:0.0098002674 14:0.034171987 15:0.0098647429 16:0.0063830693 17:0.0074146762 18:0.0058027902 19:0.01089635 20:0.01160558 21:0.012508237 22:0.026821785 23:0.013539843 24:0.0036106249 25:0.0073502008 26:0.009606841 27:0.017666273 28:0.0019342634 29:0.035268068 30:0.0083818082 31:0.0077370536 32:0.0049001337 33:0.013281941 34:0.0090910383 35:0.0012895089 36:0.014184598 37:0.0056738392 38:0.0054804129 39:0.010573973 40:0.021921651 41:0.011347678 42:0.014893828 43:0.015345156 44:0.021212421 45:0.014120122 46:0.014893828 47:0.005222511 48:0.0049646092 49:0.0098647429 50:0.011541105 
-0 -0 -46.3850039658832 0 1:0.0082685081 2:0.015681654 3:0.011632936 4:0.0083255321 5:0.0026801371 6:0.033416178 7:0.018646911 8:0.0096941134 9:0.016879162 10:0.013400686 11:0.016822137 12:0.017791549 13:0.01168996 14:0.012659371 15:0.018133694 16:0.0069569517 17:0.0068429033 18:0.010777573 19:0.011062694 20:0.0070710001 21:0.011861033 22:0.014484146 23:0.0092949439 24:0.0066148066 25:0.011804008 26:0.0084395809 27:0.0092379199 28:0.0090098232 29:0.018703936 30:0.01100567 31:0.027143518 32:0.0045049116 33:0.018989056 34:0.015111412 35:0.0069569517 36:0.020642759 37:0.0030222824 38:0.005816468 39:0.0087817255 40:0.01482629 41:0.0080974353 42:0.016594041 43:0.015852727 44:0.018019646 45:0.014655218 46:0.010435428 47:0.0038776451 48:0.0076412419 49:0.013001516 50:0.017221307 
-0 -0 -0 194.0804888045946 1:0.016502704 2:0.0075012292 3:0.027004424 4:0.010601738 5:0.010201672 6:0.0091014914 7:0.0079012951 8:0.0055009015 9:0.027504507 10:0.011701917 11:0.027804555 12:0.0093015246 13:0.047307752 14:0.0097015901 15:0.0081013273 16:0.0089014582 17:0.0076012458 18:0.0057009342 19:0.0056009176 20:0.011301852 21:0.0067010983 22:0.0079012951 23:0.011701917 24:0.017702902 25:0.011601902 26:0.0095015569 27:0.0066010817 28:0.011701917 29:0.0073011965 30:0.02160354 31:0.012902115 32:0.0086014094 33:0.034405638 34:0.012302016 35:0.012702081 36:0.023503851 37:0.0080013108 38:0.0098016057 39:0.012702081 40:0.017402852 41:0.011301852 42:0.011701917 43:0.0028004588 44:0.010901786 45:0.013802262 46:0.0089014582 47:0.0029004754 48:0.016402688 49:0.020503359 50:0.01330218 
-0 -1000 -0 693.5652517457578 1:0.0062343115 2:0.027119255 3:0.0036159006 4:0.0037405868 5:0.00087280362 6:0.018328875 7:0.0044887043 8:0.014338916 9:0.0076682032 10:0.0007481174 11:0.006982429 12:0.010972388 13:0.0044263611 14:0.031607959 15:0.0078552328 16:0.0056108804 17:0.00049874489 18:0.0035535574 19:0.021882433 20:0.0076682032 21:0.010473643 22:0.014588289 23:0.0076682032 24:0.0064213406 25:0.0062343115 26:0.023877412 27:0.0069200858 28:0.0022443521 29:0.026682854 30:0.0075435168 31:0.019513395 32:0.0044887043 33:0.0083539775 34:0.0061096251 35:0.0058602528 36:0.016396239 37:0.0020573228 38:0.00081046048 39:0.022381179 40:0.032169048 41:0.010535986 42:0.010161928 43:0.005486194 44:0.012842681 45:0.0075435168 46:0.0051121353 47:0 48:0.00043640181 49:0.021508375 50:0.006546027 
-270.8820621720525 -0 -0 1000 1:0.014049974 2:0.031207154 3:0.008646138 4:0.011077864 5:0.011618248 6:0.0072951787 7:0.0027019181 8:0.033098496 9:0.011618248 10:0.029856196 11:0.010402384 12:0.018102851 13:0.0494451 14:0.0074302745 15:0.014049974 16:0.0089163296 17:0.012699015 18:0.0087812338 19:0.0082408497 20:0.012428823 21:0.041744635 22:0.012293727 23:0.0063495073 24:0.0091865212 25:0.0062144115 26:0.012563919 27:0.0066196993 28:0.010132193 29:0.012293727 30:0.01580622 31:0.0048634526 32:0.016211508 33:0.03201773 34:0.0060793157 35:0.0066196993 36:0.028099949 37:0.004323069 38:0.0037826854 39:0.015941316 40:0.0075653708 41:0.0077004666 42:0.011077864 43:0.0067547951 44:0.0067547951 45:0.0041879732 46:0.0041879732 47:0.021074962 48:0.0075653708 49:0.012158631 50:0.0059442199 
-0 -0 -0 857.511433274788 1:0.0025456517 2:0.025556346 3:0.0093839709 4:0.0010482095 5:0.00034940318 6:0.0072376374 7:0.0038933498 8:0.0044424119 9:0.016372034 10:0.001547357 11:0.001547357 12:0.0031945433 13:0.045522243 14:0.013227406 15:0.0031945433 16:9.9829478e-005 17:0.0010482095 18:0.0012977832 19:0.0049415594 20:0.0056902803 21:0.0016471865 22:0.0055405363 23:0.0023959076 24:0.00044923267 25:0.0002495737 26:0.0051412182 27:0.0009982948 28:0.0016471865 29:0.00968346 30:0.012179197 31:0.0074372962 32:0.0004991474 33:0.020614788 34:0.016272206 35:0.00019965896 36:0.017070841 37:0.00014974423 38:0.00039931791 39:0.013676639 40:0.00673849 41:0.00064889161 42:0.0092342272 43:0.0027453108 44:0.013526895 45:0.011081073 46:0.00089846534 47:4.9914739e-005 48:0.00019965896 49:0.0080861878 50:0.0067884047 
-981.6504124185225 -0 -334.287116964216 249.926995718206 1:0.026992125 2:0.0055145202 3:0.026005317 4:0.019329846 5:0.0099261366 6:0.011841707 7:0.0076042335 8:0.0059789009 9:0.0056306156 10:0.019852273 11:0.017356228 12:0.0052242824 13:0.00087071373 14:0.0069076624 15:0.0049340446 16:0.0078944713 17:0.021303464 18:0.030649124 19:0.0044116164 20:0.011551469 21:0.0055145202 22:0.0035989501 23:0.0094037084 24:0.017936703 25:0.019213749 26:0.008358852 27:0.007488138 28:0.0072559477 29:0.0047599017 30:0.0048179496 31:0.013873372 32:0.0077203284 33:0.0025540937 34:0.0044116164 35:0.014860181 36:0.0069657099 37:0.02954622 38:0.007488138 39:0.0069076624 40:0.013873372 41:0.014627991 42:0.0031345694 43:0.0056306156 44:0.002089713 45:0.0031926171 46:0.011377326 47:0.01056466 48:0.023160987 49:0.0099841841 50:0.0031926171 
-326.9561121571828 -0 -0 444.0064923145446 1:0.0012560394 2:0.013383317 3:0.0026853257 4:0.0042445469 5:4.3311706e-005 6:0.0046343524 7:0.0014725979 8:0.020010008 9:0.0069298726 10:0.0016891565 11:0.0027286373 12:0.0092687048 13:0.0087056523 14:0.014292862 15:0.012300524 16:0.0032916896 17:0.00030318194 18:0.00025987023 19:0.027113127 20:0.00056305213 21:0.038850598 22:0.014076304 23:0.0013859746 24:0.0025553906 25:0.00038980533 26:0.021959035 27:0.003378313 28:0.0043311706 29:0.012213901 30:0.0048942226 31:0.0065833791 32:0.0015159097 33:0.013166758 34:0.008575717 35:0.0013859746 36:0.0036814949 37:0.00090954581 38:0.00056305213 39:0.016458448 40:0.016241889 41:0.00064967555 42:0.0056305216 43:0.0027719492 44:0.010568056 45:0.0093986401 46:0.0018190916 47:0.00021655852 48:0.001602533 49:0.015462278 50:0.0072330548 
-0 -0 -189.641774251566 0 1:0.001849669 2:0.0085547194 3:0.0097107626 4:0.009132741 5:0.0054334025 6:0.026357783 7:0.01664702 8:0.02520174 9:0.01849669 10:0.0043929638 11:0.019421525 12:0.013178892 13:0.0040461509 14:0.035837337 15:0.012138453 16:0.0021964819 17:0.010635597 18:0.0073986761 19:0.013872517 20:0.010057575 21:0.0032369208 22:0.014450539 23:0.031097561 24:0.010404388 25:0.01768746 26:0.012947683 27:0.0097107626 28:0.0071674674 29:0.029363496 30:0.012832079 31:0.036068548 32:0.0085547194 33:0.011907244 34:0.010751201 35:0.014334935 36:0.022080423 37:0.0019652734 38:0.0027745035 39:0.013063287 40:0.024970531 41:0.0085547194 42:0.01930592 43:0.01583779 44:0.018612294 45:0.021618007 46:0.026820201 47:0.0036993381 48:0.0040461509 49:0.027629431 50:0.023005258 
-383.7759754164843 -0 -95.61013430662632 0 1:0.0041040587 2:0.021128301 3:0.0080941152 4:0.0088921273 5:0.0027740395 6:0.019722281 7:0.007372105 8:0.0087401243 9:0.0071061011 10:0.006384091 11:0.0088541266 12:0.013756196 13:0.0051680738 14:0.0094241342 15:0.013186188 16:0.0069920998 17:0.0020900299 18:0.0049400707 19:0.023446335 20:0.0030020429 21:0.026220374 22:0.0093481336 23:0.0048260689 24:0.0022040315 25:0.0044840639 26:0.026448376 27:0.0089301271 28:0.012730181 29:0.0099561419 30:0.0083601195 31:0.024396349 32:0.0028500406 33:0.012958185 34:0.006460092 35:0.001748025 36:0.0093101328 37:0.0034960499 38:0.0033820483 39:0.020102287 40:0.0073341047 41:0.0033060471 42:0.0076381089 43:0.0047880681 44:0.0043700621 45:0.010868155 46:0.0025080359 47:0.00034200487 48:0.0069160988 49:0.010678153 50:0.012046172 
-594.8291886883067 -0 -0 0 1:0.0055562803 2:0.0034487254 3:0.0045504016 4:0.010825166 5:0.0072806426 6:0.018345304 7:0.0073764408 8:0.013220115 9:0.0070411479 10:0.0045504016 11:0.0095797936 12:0.025146957 13:0.0025386452 14:0.0088134101 15:0.025578048 16:0.0052688862 17:0.0031134328 18:0.020452859 19:0.0065621585 20:0.0016285649 21:0.012070539 22:0.016477244 23:0.0055083809 24:0.0025386452 25:0.011208358 26:0.0078554302 27:0.014417589 28:0.006849552 29:0.0085739149 30:0.0093881972 31:0.036738507 32:0.0049335933 33:0.0035445234 34:0.0041672098 35:0.012549529 36:0.0063705626 37:0.0035924225 38:0.0055083809 39:0.0048377956 40:0.0062268656 41:0.0051251892 42:0.011064661 43:0.015806658 44:0.012884822 45:0.01896799 46:0.008238622 47:0.00081428245 48:0.01714783 49:0.0080949254 50:0.013411711 
-521.9350379574722 -0 -0 45.82259298360982 1:0.0093685817 2:0.008587867 3:0.019361736 4:0.0089782244 5:0.0059334352 6:0.0017175734 7:0.0091343671 8:0.00015614304 9:0.0089782244 10:0.0084317243 11:0.0076510087 12:0.0011710727 13:0.0089782244 14:0.0010930012 15:0.0011710727 16:0.0045281481 17:0.0064018643 18:0.03396111 19:0.00023421456 20:0.0060895784 21:0.00023421456 22:0.00070264365 23:0.0042158621 24:0.0030447892 25:0.0049965773 26:0.00093685824 27:0.006323793 28:0.030447891 29:0.00062457216 30:0.0084317243 31:0.0020298595 32:0.0024982886 33:0.016707305 34:0.0061676498 35:0.0075729373 36:0.013116015 37:0.036147114 38:0.0017956449 39:0.0023421454 40:0.00054650061 41:0.00085878669 42:0.0044500767 43:0.0082755806 44:0.00023421456 45:0.0035912897 46:0.00093685824 47:0.0035912897 48:0.04574991 49:0.00062457216 50:0.00093685824 
-590.0871688200598 -0 -0 0 1:0.00055239198 2:0.0050140196 3:0.00072235876 4:0.0017846511 5:0.00067986711 6:0.0045041195 7:0.0078184716 8:0.029319268 9:0.0087532885 10:0.00021245847 11:0.0040792027 12:0.017761528 13:0.0039517274 14:0.013172424 15:0.025155082 16:0.0020396013 17:0.00046740862 18:0.00067986711 19:0.0071810959 20:0.002889435 21:0.034333289 22:0.020905914 23:0.0060338206 24:0.0017846511 25:0.0015297009 26:0.011175315 27:0.0086683054 28:0.001104784 29:0.011600232 30:0.0045041195 31:0.0062887706 32:0.00029744185 33:0.0072235879 34:0.0036542856 35:0.00093481725 36:0.0027194684 37:4.2491694e-005 38:0.0012747508 39:0.0045041195 40:0.0097730896 41:0.0014447175 42:0.012917475 43:0.009220697 44:0.019503687 45:0.018356411 46:0.0036967774 47:0 48:0.001104784 49:0.010877874 50:0.014489667 
-190.6024450761172 -612.4025003409633 -0 0 1:0.0027959966 2:0.037135918 3:0.0067612282 4:0.0021605429 5:0.0001016726 6:0.0050327941 7:0.001525089 8:0.004702358 9:0.0039652316 10:0.0011183986 11:0.00048294486 12:0.0046261037 13:0.0063545378 14:0.0043973401 15:0.0038635589 16:0.0009404716 17:0.0002541815 18:0.0009404716 19:0.0074475184 20:0.0029485056 21:0.015810089 22:0.006939155 23:0.0020080339 24:0.0002541815 25:0.00012709075 26:0.0069645732 27:0.0013979983 28:0.0024401424 29:0.0034568685 30:0.0029739237 31:0.0035077049 32:0.0017792706 33:0.011717767 34:0.0051598847 35:0.0001016726 36:0.0058207568 37:0.00043210856 38:0.0002033452 39:0.025341896 40:0.0030501781 41:0.00012709075 42:0.0019063613 43:0.0013217438 44:0.0052361391 45:0.0036856318 46:0.00030501781 47:0 48:0.0001016726 49:0.0049819574 50:0.0021097066 
-444.4572282366731 -0 -0 0 1:0.0096000591 2:0.0093539031 3:0.0041846409 4:0.010707758 5:0.0077538937 6:0.006769272 7:0.0016000099 8:0.04295411 9:0.014769321 10:0.0096000591 11:0.0099692922 12:0.035692528 13:0.022646293 14:0.0076308162 15:0.027446322 16:0.014769321 17:0.011200069 18:0.0057846508 19:0.0083692819 20:0.0070154276 21:0.049600303 22:0.015753943 23:0.0064000394 24:0.006523117 25:0.0082462048 26:0.010215447 27:0.01169238 28:0.01058468 29:0.0078769717 30:0.0048000296 31:0.008615437 32:0.014400088 33:0.0029538642 34:0.016123176 35:0.0080000488 36:0.0084923599 37:0.0048000296 38:0.010830835 39:0.004553874 40:0.0071385051 41:0.012430846 42:0.028800176 43:0.010830835 44:0.0076308162 45:0.023630913 46:0.012923156 47:0.017353952 48:0.011569302 49:0.0081231268 50:0.013292389 
-0 -13.14254024618494 -0 0 1:0.0076842047 2:0.018730249 3:0.026174322 4:0.004802628 5:0.020891432 6:0.009725322 7:0.011046045 8:0.021371694 9:0.01728946 10:0.015128278 11:0.0046825623 12:0.019450644 13:0.00072039419 14:0.021011498 15:0.015848672 16:0.0052828905 17:0.027134849 18:0.0021611825 19:0.026894717 20:0.0098453872 21:0.011406241 22:0.023412811 23:0.025694059 24:0.020291103 25:0.018730249 26:0.022092089 27:0.0075641391 28:0.0031217081 29:0.027615111 30:0.0072039417 31:0.013327292 32:0.015488476 33:0.0045624967 34:0.013567424 35:0.0066036135 36:0.0020411168 37:0.0042022993 38:0.01452795 39:0.025573993 40:0.019210512 41:0.022572352 42:0.027254913 43:0.0058832192 44:0.025573993 45:0.033378266 46:0.019690774 47:0.018129921 48:0.0010805912 49:0.026294388 50:0.0206513 
-0 -0 -0 620.9175437848085 1:0.0028501067 2:0.0056323535 3:0.010382531 4:0.0039358614 5:0.0043430193 6:0.019882886 7:0.018797131 8:0.012282602 9:0.016693482 10:0.0065145292 11:0.035762053 12:0.017711377 13:0.0083467411 14:0.029518962 15:0.014521971 16:0.0024429485 17:0.0050216164 18:0.0095682153 19:0.0082110213 20:0.015472007 21:0.011671865 22:0.016082745 23:0.023140151 24:0.004885897 25:0.0068538277 26:0.012621901 27:0.0041394406 28:0.0077360035 29:0.016489903 30:0.011875444 31:0.028161768 32:0.0061073713 33:0.017643517 34:0.01486127 35:0.0044787391 36:0.02110436 37:0.0023750889 38:0.007396705 39:0.0067181084 40:0.012214743 41:0.007396705 42:0.015947025 43:0.0090931971 44:0.011671865 45:0.014250533 46:0.0168292 47:0.0024429485 48:0.0080753015 49:0.018457834 50:0.012486181 
-0 -0 -0 -619.5935948235182 1:0.0029071418 2:0.0056527755 3:0.011574731 4:0.011897747 5:0.003876189 6:0.0057604476 7:0.011843911 8:0.012812958 9:0.01265145 10:0.015827771 11:0.0057066116 12:0.01039034 13:0.033324458 14:0.014966397 15:0.012489943 16:0.015397084 17:0.0064603151 18:0.0017765866 19:0.0036608453 20:0.022449596 21:0.008506082 22:0.023364807 23:0.015989279 24:0.0059757913 25:0.0087214252 26:0.0048452364 27:0.01292063 28:0.0073216907 29:0.014858725 30:0.011682403 31:0.0081830658 32:0.0087214252 33:0.029878957 34:0.0045222207 35:0.0037685172 36:0.030955676 37:0.0025841261 38:0.0046298923 39:0.0045760567 40:0.0040376969 41:0.0089367693 42:0.0032301575 43:0.0070525105 44:0.0045222207 45:0.0039838608 46:0.013620498 47:0.0083984099 48:0.0054374319 49:0.0050605801 50:0.0030148136 
-0 -0 -19.356052446969 -0 1:0.05402812 2:0.016949998 3:0.018009374 4:0.027543748 5:0.014831249 6:0.059324995 7:0.064621873 8:0.050849997 9:0.020128123 10:0.032840621 11:0.044493746 12:0.042374998 13:0.038137496 14:0.033899996 15:0.016949998 16:0.036018748 17:0.026484372 18:0.039196871 19:0.020128123 20:0.067799993 21:0.024365623 22:0.029662497 23:0.034959372 24:0.011653124 25:0.038137496 26:0.011653124 27:0.025424998 28:0.06038437 29:0.040256247 30:0.044493746 31:0.041315623 32:0.048731245 33:0.048731245 34:0.0031781248 35:0.020128123 36:0.06038437 37:0.032840621 38:0.013771874 39:0.0095343739 40:0.028603124 41:0.026484372 42:0.015890624 43:0.023306249 44:0.06038437 45:0.0052968748 46:0.047671869 47:0.014831249 48:0.014831249 49:0.028603124 50:0.0052968748 
-134.691649543243 -0 -30.3483575959296 -0 1:0.0085004698 2:0.017850988 3:0.029326621 4:0.0216762 5:0.021251176 6:0.019126058 7:0.054828033 8:0.033151835 9:0.0085004698 10:0.030176669 11:0.0144508 12:0.0093505168 13:0.0089254938 14:0.034426905 15:0.019126058 16:0.028051551 17:0.040377233 18:0.0063753529 19:0.0089254938 20:0.07140395 21:0.0072253998 22:0.019976106 23:0.022101222 24:0.010625588 25:0.019551082 26:0.0085004698 27:0.024651363 28:0.0080754468 29:0.023376293 30:0.0042502349 31:0.017425964 32:0.025501411 33:0.036552023 34:0.0089254938 35:0.033151835 36:0.031026715 37:0.024651363 38:0.012750706 39:0.011050611 40:0.042077329 41:0.044627469 42:0.010200564 43:0.015300847 44:0.021251176 45:0.0012750705 46:0.026351457 47:0.030176669 48:0.022101222 49:0.02422634 50:0.0012750705 
-0 -25.69849740710128 -0 -0 1:0.040178675 2:0.010199202 3:0.01421707 4:0.014526137 5:0.019162137 6:0.038942408 7:0.030906674 8:0.029670406 9:0.016380537 10:0.046050943 11:0.012362669 12:0.024107207 13:0.010199202 14:0.0086538689 15:0.0098901354 16:0.0089629358 17:0.021325605 18:0.0043269345 19:0.047905345 20:0.044505611 21:0.0083448021 22:0.021943739 23:0.038324274 24:0.012980803 25:0.0058722682 26:0.029361341 27:0.0061813346 28:0.014526137 29:0.01607147 30:0.012053603 31:0.020089338 32:0.023489073 33:0.025343472 34:0.0021634672 35:0.0015453337 36:0.050068811 37:0.013908003 38:0.020398404 39:0.0046360013 40:0.040178675 41:0.027197873 42:0.0040178676 43:0.0049450677 44:0.013598937 45:0.0049450677 46:0.024725338 47:0.020089338 48:0.0030906673 49:0.012362669 50:0.0086538689 
-0 -183.9360234509913 -0 -0 1:0.0042374316 2:0.044493034 3:0.053674135 4:0.0063561476 5:0 6:0.014124773 7:0.016243488 8:0.019068442 9:0.0042374316 10:0.016949726 11:0.030368261 12:0.0021187158 13:0.026837068 14:0.038843125 15:0.0084748631 16:0 17:0.028955784 18:0.016243488 19:0.019068442 20:0.033193216 21:0.0042374316 22:0.023305874 23:0.040255602 24:0.0035311931 25:0.0021187158 26:0.014831011 27:0.014831011 28:0.022599636 29:0.074861296 30:0.013418534 31:0.021187158 32:0.0098873405 33:0.079098724 34:0.019068442 35:0.0091811018 36:0.038136885 37:0.0028249545 38:0.0014124772 39:0.074861296 40:0.0310745 41:0.0021187158 42:0.0077686249 43:0.0098873405 44:0.018362204 45:0.0021187158 46:0.0063561476 47:0.0070623863 48:0.0028249545 49:0.045199271 50:0.0028249545 
-50.58311482677242 -0 -0 -462.5986929567387 1:0.00024776926 2:0.0010972639 3:0.003893517 4:0.00010618682 5:0.00046014291 6:0.0034687696 7:0.0072561 8:0.0046014292 9:0.0003539561 10:0.00049553852 11:0.0030440225 12:0.00067251659 13:0.044492282 14:0.0035041652 15:0.00049553852 16:0.0014158244 17:0.00095568143 18:0.0010972639 19:0.00038935171 20:0.0041412865 21:0.0093798367 22:0.0041412865 23:0.00067251659 24:0.0007079122 25:0.00038935171 26:0.00031856049 27:0.0027962532 28:0.00088489021 29:0.0077870339 30:0.00145122 31:0.002265319 32:0.0012742419 33:0.022051465 34:0.0003539561 35:0.0011680551 36:0.016989892 37:0.0044244509 38:0.00024776926 39:0.0003539561 40:0.00290244 41:0.003893517 42:0.00067251659 43:0 44:0.0018405716 45:0 46:0.0003539561 47:0.00077870343 48:0.00084949459 49:3.5395609e-005 50:0.00028316487 
-128.5890228010867 -0 -116.9273998451812 -0 1:0.021919763 2:0.009105132 3:0.015512447 4:0.012814631 5:0.0026978168 6:0.039118346 7:0.043839525 8:0.014500766 9:0.0077562234 10:0.014163539 11:0.042827845 12:0.015175221 13:0.009105132 14:0.0067445422 15:0.011465722 16:0.0097795865 17:0.012140176 18:0.019221945 19:0.024617579 20:0.019221945 21:0.010116814 22:0.011465722 23:0.0067445422 24:0.012140176 25:0.011802949 26:0.014837993 27:0.0077562234 28:0.026303714 29:0.018547492 30:0.012814631 31:0.081271738 32:0.025629262 33:0.035746075 34:0.0053956336 35:0.010116814 36:0.028327078 37:0.013489084 38:0.0077562234 39:0.022594217 40:0.0037094983 41:0.022931444 42:0.0037094983 43:0.0037094983 44:0.0020233628 45:0.0003372271 46:0.015849674 47:0.0020233628 48:0.023268672 49:0.023268672 50:0.0047211796 
-653.4419443643734 -32.35191455982768 -242.4284459986325 -354.4511476700238 1:0.013547413 2:0.017934654 3:0.020923764 4:0.012149282 5:0.0021213032 6:0.029312553 7:0.0097387098 8:0.0057371608 9:0.003326589 10:0.0030373204 11:0.011522533 12:0.0015909774 13:0.011377899 14:0.0077620409 15:0.0023141489 16:0.0048211436 17:0.0061228522 18:0.012583185 19:0.0065567554 20:0.0062674866 21:0.0016874003 22:0.0078102527 23:0.010702939 24:0.0067978124 25:0.006412121 26:0.0059300065 27:0.0068460237 28:0.012052859 29:0.012197494 30:0.010751151 31:0.030517839 32:0.0019766688 33:0.019670267 34:0.0066049667 35:0.0058335839 36:0.034422964 37:0.0067978124 38:0.00067496009 39:0.012052859 40:0.01041367 41:0.0068942355 42:0.0015909774 43:0.0064603323 44:0.010269036 45:0.0026998403 46:0.0067013898 47:0.0003856915 48:0.0063156979 49:0.011956436 50:0.0047729323 
-0 -762.1103302512162 -13.92150584222192 -941.0822066077803 1:0.0037399333 2:0.026829956 3:0.0068294434 4:0.0042277505 5:0.0019512696 6:0.017724032 7:0.0082928957 8:0.039838418 9:0.0073172608 10:0.0086181071 11:0.0066668377 12:0.0060164146 13:0.010081559 14:0.025691716 15:0.0094311358 16:0.0026016927 17:0.0042277505 18:0.00065042317 19:0.051220827 20:0.011382406 21:0.044879198 22:0.019350089 23:0.0097563481 24:0.001626058 25:0.0043903566 26:0.036748908 27:0.0053659915 28:0.0047155679 29:0.034635033 30:0.011382406 31:0.015610157 32:0.0043903566 33:0.018049244 34:0.002439087 35:0.0014634521 36:0.021301359 37:0.0030895101 38:0.0011382406 39:0.018699666 40:0.020325724 41:0.0112198 42:0.0019512696 43:0.0045529623 44:0.013496281 45:0.0056912028 46:0.0061790203 47:0.00032521159 48:0.00065042317 49:0.020325724 50:0.0037399333 
-0 -0 -0 -394.6458243538087 1:9.4752751e-005 2:0.0083382418 3:0.0069643273 4:0.005306154 5:0.00014212912 6:0.0029847117 7:0.0050692721 8:0.016534355 9:0.0096174041 10:0.0013739149 11:0.0029373353 12:0.010707061 13:0.025725372 14:0.0091910167 15:0.010043791 16:0.0046428847 17:0.003032088 18:0.00094752753 19:0.013312762 20:0.018855797 21:0.042212352 22:0.01411816 23:0.013312762 24:0.0012317857 25:0.00052114011 26:0.0022266896 27:0.0056377887 28:0.0031742172 29:0.010896566 30:0.0068221982 31:0.0027952062 32:0.0022266896 33:0.024067199 34:0.003932239 35:0.0010422802 36:0.016392225 37:0.0019898077 38:0.00075802201 39:0.0054009068 40:0.0063958107 41:0.0010422802 42:0.0062063052 43:0.0036953574 44:0.014970935 45:0.0076275966 46:0.0077223494 47:0.0031742172 48:0.0033163463 49:0.0043586264 50:0.0027952062 
-0 -0 -0 -389.8458973474626 1:0.064912714 2:0.009273245 3:0.002529067 4:0.037936002 5:0.05901156 6:0.027819736 7:0.023604624 8:0.021075558 9:0.046366226 10:0.036249958 11:0.055639472 12:0.01854649 13:0.0067441785 14:0.044680182 15:0.0033720892 16:0.021075558 17:0.032034848 18:0.010116268 19:0.009273245 20:0.030348802 21:0.0016860446 22:0.005901156 23:0.014331379 24:0.042151116 25:0.0033720892 26:0.00084302231 27:0.0067441785 28:0.01854649 29:0.046366226 30:0.03709298 31:0.021075558 32:0.026133692 33:0.005901156 34:0.0067441785 35:0.0042151115 36:0.052267384 37:0.026133692 38:0.014331379 39:0.00084302231 40:0.049738314 41:0.017703468 42:0.048895292 43:0.042151116 44:0.075872004 45:0.009273245 46:0.04383716 47:0.045523204 48:0.009273245 49:0.022761602 50:0.027819736 
-0 -1000 -66.19665527339619 -1000 1:0.0059580761 2:0.030940184 3:0.014320288 4:0.004442425 5:0.0012543318 6:0.023205139 7:0.014006705 8:0.010348237 9:0.0065329783 10:0.010505029 11:0.0091984328 12:0.0029790381 13:0.0077873101 14:0.023309667 15:0.0013588595 16:0.0048605357 17:0.0055399654 18:0.0067420336 19:0.0084144762 20:0.020382892 21:0.0034494125 22:0.0077873101 23:0.017403854 24:0.0043901615 25:0.0098778633 26:0.0061148675 27:0.0026131913 28:0.0075259907 29:0.016567633 30:0.0067420336 31:0.01667216 32:0.0039720507 33:0.019337615 34:0.01243879 35:0.0050173271 36:0.024093624 37:0.0053831739 38:0.0016724424 39:0.018710449 40:0.027229453 41:0.0083099483 42:0.0038152593 43:0.0027699827 44:0.01829234 45:0.0021428168 46:0.0078918375 47:0.00057490205 48:0.0018292338 49:0.019389879 50:0.0051218551 
-417.3407180641312 -0 -61.6471133917649 -0 1:0.0039793351 2:0.01012287 3:0.010262496 4:0.0043283994 5:0.0022340126 6:0.03225356 7:0.021641998 8:0.0054454058 9:0.010820999 10:0.012147444 11:0.021153308 12:0.0079586701 13:0.010471934 14:0.0047472771 15:0.0015358838 16:0.0076096058 17:0.019198546 18:0.0064227865 19:0.0034208319 20:0.0064227865 21:0.002024574 22:0.011170063 23:0.024085449 24:0.0032113933 25:0.01445127 26:0.0043982123 27:0.0027925158 28:0.018430606 29:0.0011868193 30:0.0057944702 31:0.027436469 32:0.0069812895 33:0.033021498 34:0.0023736386 35:0.013334263 36:0.037698966 37:0.0036302707 38:0.00062831608 39:0.0052359672 40:0.0030019546 41:0.0039095222 42:0.00090756768 43:0.0060039093 44:0.0016056966 45:0.0019547611 46:0.0090058632 47:0.0032812061 48:0.0058642835 49:0.008586986 50:0.0016755095 
-0 -0 -0 -15.09461671474047 1:0.00052158558 2:0.017473118 3:0.021124218 4:0.0088669555 5:0.0046942704 6:0.0065198201 7:0.021906596 8:0.0073021986 9:0.013300433 10:0.023732144 11:0.010170919 12:0.011474883 13:0.051636975 14:0.015647568 15:0.0026079281 16:0.012518055 17:0.015125982 18:0.0031295137 19:0.01303964 20:0.015647568 21:0.012518055 22:0.017994704 23:0.010692505 24:0.0067806127 25:0.013561225 26:0.010953298 27:0.0018255496 28:0.0065198201 29:0.010692505 30:0.01590836 31:0.0057374416 32:0.0041726846 33:0.077194668 34:0.021124218 35:0.0010431712 36:0.035467822 37:0.0067806127 38:0.0083453692 39:0.014343604 40:0.027122451 41:0.0086061629 42:0.0018255496 43:0.011735676 44:0.0088669555 45:0.011735676 46:0.0054766489 47:0.022688974 48:0.010692505 49:0.014082811 50:0.0059982343 
-153.163695834762 -0 -0 -0 1:0.012510743 2:0.0091424659 3:0.017563159 4:0.0067365542 5:0.020931436 6:0.020931436 7:0.018525524 8:0.010345423 9:0.024059122 10:0.031998631 11:0.0074583278 12:0.0060147806 13:0.01587902 14:0.00986424 15:0.0074583278 16:0.015397837 17:0.029592719 18:0.0019247297 19:0.012751334 20:0.017081976 21:0.0091424659 22:0.012751334 23:0.020690845 24:0.013713699 25:0.022134392 26:0.0081801014 27:0.022374984 28:0.041141097 29:0.017563159 30:0.018525524 31:0.020450253 32:0.020690845 33:0.026705625 34:0.0052930065 35:0.011307787 36:0.043547008 37:0.014194882 38:0.011307787 39:0.0033682771 40:0.015397837 41:0.013713699 42:0.002165321 43:0.0057741893 44:0.0069771451 45:0.0026465033 46:0.010104831 47:0.069771454 48:0.0050524157 49:0.0067365542 50:0.0024059121 
-987.0789318076667 -0 -0 -0 1:0.0020416835 2:0.0062451498 3:0.011469457 4:0.0079865856 5:0.00066054467 6:0.0063051991 7:0.0074461401 8:0.02107738 9:0.0061250506 10:0.0029424261 11:0.005584605 12:0.0078064371 13:0.017714607 14:0.011469457 15:0.0079265358 16:0.0039632679 17:0.0033627728 18:0.0014411884 19:0.01483223 20:0.014952329 21:0.047859464 22:0.015672924 23:0.008587081 24:0.0021017331 25:0.002341931 26:0.0045037135 27:0.010148368 28:0.0042635156 29:0.020657033 30:0.0057647536 31:0.0049841097 32:0.0042635156 33:0.021677874 34:0.0066654962 35:0.0021017331 36:0.015793022 37:0.0018014854 38:0.0014411884 39:0.015312626 40:0.0069657438 41:0.0039632679 42:0.0063652485 43:0.0050441595 44:0.018855548 45:0.0046238126 46:0.011529507 47:0.0043235649 48:0.0028223272 49:0.0061250506 50:0.0024620302 
-0 -0 -0 -1000 1:0.0042096768 2:0.0069209943 3:0.011558774 4:0.0048518311 5:0.0019264624 6:0.0047091302 7:0.013770638 8:0.015982503 9:0.0034961724 10:0.0014270091 11:0.0073490972 12:0.0046377797 13:0.051657733 14:0.012985784 15:0.005779387 16:0.0038529248 17:0.005493985 18:0.0029253687 19:0.0047091302 20:0.0060647889 21:0.030537996 22:0.014912246 23:0.0072777467 24:0.0014983596 25:0.00035675228 26:0.0035675229 27:0.0042096768 28:0.0021405136 29:0.012343629 30:0.0055653355 31:0.0070636952 32:0.0027826678 33:0.027327225 34:0.0047804806 35:0.0019264624 36:0.017124109 37:0.0049945321 38:0.0014270091 39:0.010845269 40:0.0038529248 41:0.0052085835 42:0.0077771996 43:0.00099890644 44:0.0053512845 45:0.0034961724 46:0.0017124109 47:0.0030680697 48:0.0028540182 49:0.0079199011 50:0.0017837614 
-0 -86.51530398261703 -29.2807081931148 -16.19921960553948 1:0.009627223 2:0.016401935 3:0.012123169 4:0.0092706587 5:0.0021393828 6:0.0090923775 7:0.013905988 8:0.015510526 9:0.010875196 10:0.010875196 11:0.018897882 12:0.0035656381 13:0.018363036 14:0.049562369 15:0.0057050209 16:0.015688807 17:0.020858983 18:0.0090923775 19:0.0067747124 20:0.034943253 21:0.0049918932 22:0.0099837864 23:0.022285238 24:0.014262552 25:0.012123169 26:0.0080226855 27:0.013192861 28:0.019967573 29:0.052414879 30:0.015332243 31:0.012123169 32:0.014440835 33:0.018719601 34:0.011053478 35:0.010696914 36:0.028346824 37:0.015153962 38:0.0026742285 39:0.01123176 40:0.03262559 41:0.0089140953 42:0.0048136115 43:0.015332243 44:0.021215547 45:0.0033873562 46:0.0099837864 47:0.0035656381 48:0.012479734 49:0.037439201 50:0.0035656381 
-140.6804696525272 -19.0736787589556 -0 -0 1:0.027435211 2:0.0070953132 3:0.01087948 4:0.017028753 5:0.046829067 6:0.017028753 7:0.061019696 8:0.049194172 9:0.013244585 10:0.055343445 11:0.014190626 12:0.017501773 13:0.02128594 14:0.040206775 15:0.02128594 16:0.051559277 17:0.021758961 18:0.03642261 19:0.0066222926 20:0.024124065 21:0.0070953132 22:0.011352502 23:0.022231981 24:0.0070953132 25:0.019393856 26:0.0047302088 27:0.030273337 28:0.0075683342 29:0.01040646 30:0.011352502 31:0.028381253 32:0.012771564 33:0.011825522 34:0.0018920836 35:0.0028381255 36:0.054870423 37:0.0070953132 38:0.02601615 39:0.008987397 40:0.046356048 41:0.031219378 42:0.0080413548 43:0.017028753 44:0.011825522 45:0.0075683342 46:0.0066222926 47:0.021758961 48:0.026962191 49:0.018447815 50:0.015136668 
-0 -0 -0 -16.8196396268888 1:0.055065114 2:0.030890185 3:0.024174929 4:0.014773567 5:0.073867835 6:0.018802721 7:0.013430515 8:0.040291548 9:0.079240039 10:0.029547134 11:0.0094013605 12:0.01745967 13:0.028204083 14:0.049692906 15:0.022831876 16:0.01745967 17:0.032233238 18:0.014773567 19:0.02551798 20:0.07789699 21:0.037605442 22:0.010744412 23:0.037605442 24:0.010744412 25:0.0080583096 26:0.02551798 27:0.0094013605 28:0.012087464 29:0.036262393 30:0.040291548 31:0.02551798 32:0.036262393 33:0.032233238 34:0.0013430516 35:0 36:0.067152575 37:0.061780371 38:0.098042764 39:0.018802721 40:0.0026861031 41:0.024174929 42:0.024174929 43:0.0013430516 44:0.01745967 45:0.049692906 46:0.0040291548 47:0.010744412 48:0.0067152577 49:0.0053722062 50:0.014773567 
