svm_type c_svc
kernel_type linear
nr_class 5
total_sv 64
rho -0.87491 -1.69802 -0.657142 -0.744592 -0.112305 0.927555 0.441907 1.84034 1.31838 -0.628528
label 0 1 2 3 4
probA -1.95421 -1.98931 -2.16469 -2.05797 -1.73168 -1.78232 -1.58021 -1.84296 -1.86394 -1.19253
probB -0.276223 -0.30173 0.179269 0.287967 0.14288 0.346426 -0.054004 0.465404 0.509431 0.185
nr_sv 14 12 9 14 15
SV
0 0 860.911169622012 65.65700913082891 1:0.0035147509 2:0.005835813 3:0.0021884297 4:0.0060016029 5:0.015816379 6:0.019132182 7:0.0088200355 8:0.010776359 9:0.0053716004 10:0.0051394943 11:0.0067642378 12:0.016612172 13:0.0044431756 14:0.01730849 15:0.0090852994 16:0.0046089659 17:0.0034152768 18:0.0054379166 19:0.005968445 20:0.0033821189 21:0.019762184 22:0.0098147765 23:0.011041624 24:0.0095495116 25:0.010676885 26:0.0044763335 27:0.0090852994 28:0.01143952 29:0.01008004 30:0.0096158283 31:0.0070295017 32:0.0050068623 33:0.0056368648 34:0.0078252945 35:0.0072284499 36:0.0037136991 37:0.019065866 38:0.006963186 39:0.030439069 40:0.013561633 41:0.0092510898 42:0.0063994993 43:0.0086874031 44:0.0064658155 45:0.0076263463 46:0.01462269 47:0.018170599 48:0.017805861 49:0.0067642378 50:0.0087537188 
171.0590239379455 279.1580190894794 0 270.7361891944679 1:0.0084720068 2:0.010644317 3:0.0049963119 4:0.010209855 5:0.030412333 6:0.0067341598 7:0.0078203147 8:0.0095581617 9:0.034322489 10:0.011513241 11:0.021723095 12:0.0021723094 13:0.013033858 14:0.023460943 15:0.016944014 16:0.021071402 17:0.0030412334 18:0.0069513908 19:0.010209855 20:0.0086892378 21:0.0032584644 22:0.037363723 23:0.0028240024 24:0.037580956 25:0.020419709 26:0.014554474 27:0.031715721 28:0.032584645 29:0.0091236997 30:0.011730472 31:0.015206167 32:0.016944014 33:0.016509553 34:0.0026067714 35:0.0099926237 36:0.0030412334 37:0.0067341598 38:0.024764329 39:0 40:0.031715721 41:0.010209855 42:0.0030412334 43:0.038015418 44:0.01129601 45:0.014337243 46:0.014771705 47:0.023026481 48:0.05734897 49:0.0071686213 50:0.025633253 
86.84287383176964 0 0 0 1:0.010258868 2:0.00049242569 3:0.0019697028 4:0.0032828378 5:0.015757622 6:0.021912942 7:0.0070581012 8:0.021010162 9:0.0034469797 10:0.020599807 11:0.001477277 12:0.0069760303 13:0.022815723 14:0.013459635 15:0.0048421859 16:0.013459635 17:0.012720997 18:0.00049242569 19:0.007960882 20:0.011572003 21:0.0078788111 22:0.013705848 23:0.00090278039 24:0.016742473 25:0.015593479 26:0.011325791 27:0.0023800575 28:0.0094381589 29:0.028478619 30:0.0056628953 31:0.0050883987 32:0.0217488 33:0.010340939 34:0.0010669223 35:0.015757622 36:0.00016414189 37:0.036029145 38:0.020189453 39:0.015921764 40:0.017481111 41:8.2070947e-005 42:0.0018876317 43:0.019861169 44:0.011982358 45:0.018794246 46:0.025770277 47:0.032335952 48:0.015593479 49:0.011900287 50:0.0022979865 
0 0 496.2896263214703 0 1:0.0024506508 2:0.00204719 3:0.0014644132 4:0.0053495914 5:0.0046771565 6:0.0053047622 7:0.0023908787 8:0.0022265059 9:0.0029736555 10:0.0097428309 11:0.002062133 12:0.004004722 13:0.0099370899 14:0.0035116032 15:0.0067243464 16:0.0067841187 17:0.030169902 18:0.002151791 19:0.0017483301 20:0.0089209666 21:0.0061266269 22:0.0053346483 23:0.0016885581 24:0.0081738168 25:0.0022862779 26:0.00409438 27:0.0034966602 28:0.0047518718 29:0.0074266675 30:0.013807325 31:0.018006306 32:0.0024954798 33:0.0037506912 34:0.0017184442 35:0.0044828979 36:0.0014494703 37:0.0066944608 38:0.0069783777 39:0.0082335891 40:0.0040495507 41:0.0023460498 42:0.0015241852 43:0.0060070828 44:0.0024058218 45:0.0027196247 46:0.0030035414 47:0.0046622138 48:0.0064703156 49:0.0025851377 50:0.010923328 
15.07658415094801 0 1000 1000 1:0.01154883 2:0.0091460533 3:0.0089910356 4:0.021004921 5:0.010696232 6:0.019687269 7:0.0074796118 8:0.0076346295 9:0.011665094 10:0.014067871 11:0.017090719 12:0.013796589 13:0.013602817 14:0.010037406 15:0.016005594 16:0.0084484732 17:0.013680326 18:0.011277549 19:0.0070533124 20:0.0099986522 21:0.012982746 22:0.013757835 23:0.0040304642 24:0.013215273 25:0.0041467277 26:0.0082159461 27:0.010696232 28:0.010928759 29:0.013292781 30:0.017827054 31:0.011006268 32:0.0073633483 33:0.01337029 34:0.005851924 35:0.0095723532 36:0.0066270134 37:0.020539867 38:0.0095335981 39:0.0095335981 40:0.0130215 41:0.010231178 42:0.0063557322 43:0.011936375 44:0.0091460533 45:0.0078671565 46:0.015424277 47:0.0083709648 48:0.027166881 49:0.0066270134 50:0.014300398 
35.20919236221805 0 445.8683655635526 488.5570885290285 1:0.0085787429 2:0.0013846392 3:0.0065017836 4:0.0055686575 5:0.010324592 6:0.012160744 7:0.0051171444 8:0.012220945 9:0.0059599685 10:0.012913265 11:0.002438169 12:0.006832893 13:0.0094215665 14:0.01661567 15:0.0074048094 16:0.0037024047 17:0.0076456163 18:0.003220791 19:0.0055686575 20:0.010926609 21:0.0078864228 22:0.0063813804 23:0.0025284714 24:0.0086991461 25:0.0098429779 26:0.0079165241 27:0.0036422031 28:0.0042141192 29:0.01026439 30:0.0048763379 31:0.0053579514 32:0.0030401859 33:0.0065017836 34:0.0035519004 35:0.011287819 36:0.0025585722 37:0.01450861 38:0.007615515 39:0.037746467 40:0.0067425906 41:0.0037626063 42:0.0062910779 43:0.013394878 44:0.012251046 45:0.0096021714 46:0.0073446077 47:0.013485181 48:0.008879751 49:0.0069231959 50:0.0082476335 
0 0 863.4276083748058 0 1:0.0037975991 2:0.0050749732 3:0.0033142683 4:0.009217809 5:0.015949916 6:0.014361829 7:0.0082166232 8:0.0082511473 9:0.010288041 10:0.0070773438 11:0.0050749732 12:0.019057043 13:0.011668986 14:0.014223735 15:0.0080785286 16:0.010426136 17:0.012808266 18:0.0060761585 19:0.0030726029 20:0.0084237652 21:0.025271295 22:0.011185655 23:0.0059725875 24:0.011358273 25:0.0042118826 26:0.0083892411 27:0.0061797295 28:0.010460659 29:0.013188026 30:0.012532077 31:0.012428506 32:0.00352141 33:0.006594013 34:0.010184471 35:0.0063523473 36:0.0020023703 37:0.022371311 38:0.011945175 39:0.016157057 40:0.0092523322 41:0.0062142531 42:0.0060071112 43:0.014499923 44:0.0078368634 45:0.0069047255 46:0.010357088 47:0.013429691 48:0.026755812 49:0.0068356781 50:0.012980884 
0 64.13588491495368 0 77.27131055269801 1:0.0097909085 2:0.0056447587 3:0.0055448515 4:0.008492115 5:0.0097409552 6:0.018882466 7:0.0040961965 8:0.0070434599 9:0.0016484694 10:0.014386642 11:0.0047455938 12:0.011639193 13:0.0073431819 14:0.0049454081 15:0.018532792 16:0.014586456 17:0.015635483 18:0.0041461503 19:0.0061942483 20:0.013187755 21:0.013487477 22:0.0039962893 23:0.0020480982 24:0.013437524 25:0.012987941 26:0.0072932281 27:0.0055448515 28:0.0094911875 29:0.014186827 30:0.01283808 31:0.013937059 32:0.0097909085 33:0.0079426253 34:0.0047955471 35:0.0062442021 36:0.0033968459 37:0.032669667 38:0.016035112 39:0.033019342 40:0.0051452224 41:0.0060443878 42:0.0045957328 43:0.010889889 44:0.019881539 45:0.0061942483 46:0.0055948053 47:0.0078427177 48:0.022529081 49:0.0055448515 50:0.014536503 
0 235.5210519388707 0 0 1:0.01038797 2:0.0028690584 3:0.0081619769 4:0.0035121234 5:0.0099427719 6:0.017560616 7:0.011426767 8:0.013603294 9:0.0097943721 10:0.012663431 11:0.0032647906 12:0.006677981 13:0.010437436 14:0.014592625 15:0.013999026 16:0.0086566415 17:0.0097943721 18:0.0041057216 19:0.0073210457 20:0.016769152 21:0.0060349158 22:0.030966045 23:0.0032647906 24:0.015631422 25:0.0039573219 26:0.017956348 27:0.0067274473 28:0.0084587755 29:0.01721435 30:0.019588744 31:0.013207562 32:0.0081125097 33:0.0088050412 34:0.0038089224 35:0.0078157112 36:0.0018302614 37:0.011624633 38:0.021369539 39:0.0052929181 40:0.016027154 41:0.0033637236 42:0.0042046546 43:0.0080630435 44:0.0098438384 45:0.012465565 46:0.023150334 47:0.025821526 48:0.020479141 49:0.011179435 50:0.013850627 
0 0 388.5649273482604 0 1:0.0020688092 2:0.0016631604 3:0.0023933284 4:0.0021093742 5:0.0080724126 6:0.012737375 7:0.016956123 8:0.0098572681 9:0.0079101529 10:0.0098167034 11:0.0054762601 12:0.014157146 13:0.010060092 14:0.021580521 15:0.0038536643 16:0.0084780613 17:0.011195909 18:0.0036914048 19:0.0053951303 20:0.0068149013 21:0.018578719 22:0.013426978 23:0.0051923059 24:0.0067337714 25:0.0045027025 26:0.0051923059 27:0.0050300462 28:0.0027178475 29:0.01103365 30:0.0068960311 31:0.0074233743 32:0.0045838323 33:0.0035697101 34:0.0049489164 35:0.004746092 36:0.0019876796 37:0.036346141 38:0.010060092 39:0.025718139 40:0.0027584124 41:0.003610275 42:0.0037725347 43:0.018173071 44:0.0090459697 45:0.014846749 46:0.013913756 47:0.011723253 48:0.006165863 49:0.012291161 50:0.0039347941 
61.43245069422925 0 0 0 1:0.0062008249 2:0.001320546 3:0.017454173 4:0.0069472208 5:0.016248459 6:0.029683579 7:0.01205716 8:0.017167099 9:0.0082103517 10:0.007578786 11:0.0020669417 12:0.0091864076 13:0.01797091 14:0.02910943 15:0.0095308982 16:0.018028324 17:0.015961383 18:0.0014353761 19:0.01217199 20:0.014755667 21:0.010449539 22:0.016363289 23:0.0015502062 24:0.01217199 25:0.0088419169 26:0.007062051 27:0.009416068 28:0.0072342958 29:0.015846552 30:0.019061796 31:0.015903968 32:0.0093586529 33:0.014238931 34:0.0040764683 35:0.01136818 36:0.00091864076 37:0.013262875 38:0.015616893 39:0.019176625 40:0.014526007 41:0.0014927912 42:0.003789393 43:0.0079232762 44:0.011195934 45:0.012918386 46:0.014526007 47:0.024860715 48:0.018717306 49:0.013377706 50:0.013951857 
0 106.6617918937647 0 0 1:0.0018480811 2:0.0014373965 3:0.0053902366 4:0.005749586 5:0.024487074 6:0.016324718 7:0.0076490026 8:0.0060062637 9:0.010113111 10:0.01093448 11:0.0019507523 12:0.0086243786 13:0.014065951 14:0.011447836 15:0.013552595 16:0.011755849 17:0.0062116063 18:0.0012320541 19:0.0050308877 20:0.014681978 21:0.010369789 22:0.01709475 23:0.0039528403 24:0.024127726 25:0.0063656131 26:0.011191158 27:0.0078030094 28:0.010113111 29:0.012833897 30:0.0099077681 31:0.018172799 32:0.0083163651 33:0.01303924 34:0.0044148606 35:0.0046202028 36:0.00092404056 37:0.018532148 38:0.016427388 39:0.010780473 40:0.009035063 41:0.0007700338 42:0.0032854776 43:0.017248757 44:0.006724962 45:0.0093430765 46:0.011088487 47:0.02222831 48:0.036602274 49:0.0051335585 50:0.013347253 
66.60355871781046 0 0 0 1:0.0075637535 2:0.0066957818 3:0.0044638547 4:0.013143572 5:0.027775096 6:0.010539657 7:0.02393122 8:0.028147083 9:0.020707326 10:0.014383531 11:0.0092996974 12:0.009547689 13:0.010291665 14:0.032362945 15:0.010167669 16:0.01413554 17:0.01289558 18:0.0099196769 19:0.0061997981 20:0.013763552 21:0.016119475 22:0.01661546 23:0.003099899 24:0.011159636 25:0.0071917656 26:0.01351556 27:0.016987447 28:0.022195278 29:0.01810341 30:0.015995478 31:0.017855419 32:0.0079357419 33:0.029139051 34:0.006571786 35:0.017111443 36:0.0043398584 37:0.024427203 38:0.022071281 39:0.015747488 40:0.029635035 41:0.0066957818 42:0.0092996974 43:0.02393122 44:0.016987447 45:0.01351556 46:0.016119475 47:0.020087346 48:0.041166659 49:0.023683229 50:0.010167669 
84.25157773863954 0 443.5757949416625 0 1:0.014477381 2:0.0021739197 3:0.0062442375 4:0.008233143 5:0.014153605 6:0.018640205 7:0.0024051878 8:0.0060129697 9:0.0040703178 10:0.011609657 11:0.0073080705 12:0.013089772 13:0.020999139 14:0.0058742086 15:0.0086494256 16:0.0097132586 17:0.016651301 18:0.0046716146 19:0.0093894834 20:0.019010235 21:0.013922337 22:0.010360809 23:0.0029602312 24:0.018917726 25:0.011239627 26:0.008233143 27:0.0048566293 28:0.010268302 29:0.0098982723 30:0.0083719036 31:0.017113836 32:0.011054613 33:0.0057817013 34:0.0043940931 35:0.0049491362 36:0.0033765137 37:0.027474646 38:0.017576372 39:0.02395937 40:0.0063829985 41:0.0030989919 42:0.0043478394 43:0.017576372 44:0.021091647 45:0.011239627 46:0.010268302 47:0.01281225 48:0.01780764 49:0.01947277 50:0.013043518 
-151.4221000987743 80.98161237961992 52.30725594078604 0 1:0.018911239 2:0.0012607493 3:0.00646134 4:0.014498617 5:0.02458461 6:0.016389741 7:0 8:0.038768038 9:0.038610447 10:0.00094556191 11:0.0072493083 12:0.00047278096 13:0.0037822477 14:0.011346743 15:0.0034670604 16:0.0070917145 17:0.00063037465 18:0.00015759366 19:0.028051671 20:0.0070917145 21:0.0017335302 22:0.025687765 23:0.0031518731 24:0.023008674 25:0.036561728 26:0.014183429 27:0.022535892 28:0.02757889 29:0.010716368 30:0.0015759366 31:0.0059885588 32:0.034197822 33:0.044914193 34:0.00031518732 35:0.028524451 36:0.00015759366 37:0.0078796828 38:0.0092980256 39:0.0029942794 40:0.01118915 41:0.00047278096 42:0 43:0.0072493083 44:0.0070917145 45:0.024427017 46:0.0058309655 47:0.013710648 48:0.01292268 49:0.017650489 50:0.01292268 
-123.6757052057574 163.4669974614733 0 96.64032344401545 1:0.02631394 2:0.00048729518 3:0.019004511 4:0.017542627 5:0.035572547 6:0.02728853 7:0 8:0.037521727 9:0.017055331 10:0.020466397 11:0.017055331 12:0.0024364758 13:0.018029921 14:0.002923771 15:0.019491807 16:0.013644265 17:0.0014618855 18:0.00048729518 19:0.021928282 20:0.01315697 21:0.00048729518 22:0.023877464 23:0.00048729518 24:0.042881977 25:0.035085253 26:0.011695084 27:0.040445499 28:0.05457706 29:0.012669674 30:0.029725006 31:0.023877464 32:0.027775824 33:0.019004511 34:0.00048729518 35:0.044343859 36:0 37:0.021928282 38:0.031674188 39:0.0019491807 40:0.0058475421 41:0.00048729518 42:0 43:0.043856565 44:0.040445499 45:0.0097459033 46:0.038009021 47:0.016568035 48:0.073094279 49:0.037521727 50:0.02728853 
-0 0 0 35.57365877861317 1:0.08332736 2:0.014149929 3:0.034588717 4:0.053455286 5:0.06288857 6:0.080182932 7:0 8:0.047166429 9:0.039305359 10:0.0015722143 11:0.048738644 12:0 13:0.026727643 14:0 15:0.028299859 16:0.020438787 17:0.0031444286 18:0 19:0.023583215 20:0.022011001 21:0 22:0.042449787 23:0.0015722143 24:0.06131636 25:0.053455286 26:0.0110055 27:0.06760522 28:0.06131636 29:0.020438787 30:0.0110055 31:0.028299859 32:0.045594215 33:0.012577714 34:0 35:0.073894076 36:0 37:0.023583215 38:0.045594215 39:0.028299859 40:0.020438787 41:0.0015722143 42:0 43:0.034588717 44:0.058171932 45:0.012577714 46:0.053455286 47:0.025155429 48:0.051883072 49:0.06760522 50:0.047166429 
-0 54.12138857274761 0 0 1:0.065282188 2:0.0059347446 3:0.029673722 4:0.020771606 5:0.047477957 6:0.011869489 7:0 8:0.041543212 9:0.011869489 10:0.044510584 11:0.020771606 12:0 13:0.014836861 14:0 15:0.020771606 16:0.059347443 17:0 18:0 19:0.12166226 20:0.011869489 21:0 22:0.074184306 23:0 24:0.077151679 25:0.044510584 26:0 27:0.080119051 28:0.10385803 29:0 30:0.062314816 31:0.062314816 32:0.077151679 33:0 34:0 35:0.062314816 36:0 37:0.026706349 38:0.068249561 39:0 40:0.017804233 41:0 42:0 43:0.044510584 44:0.0059347446 45:0.032641094 46:0.0059347446 47:0 48:0.11572751 49:0.014836861 50:0.029673722 
-46.26595236550931 0 281.4811483754518 335.8297474636847 1:0.013611034 2:0.0072730719 3:0.026806464 4:0.014753946 5:0.014442243 6:0.027949376 7:0 8:0.031897616 9:0.0020780205 10:0.00083120819 11:0.011533014 12:0.00062340614 13:0.0049872492 14:0.00051950512 15:0.014857847 16:0.0004156041 17:0.0004156041 18:0 19:0.010909608 20:0.0064418637 21:0.0004156041 22:0.0067535667 23:0.00072730717 24:0.0087276865 25:0.013714936 26:0.0019741196 27:0.021715315 28:0.028053278 29:0.019948997 30:0.0083120819 31:0.0060262596 32:0.021091908 33:0.0060262596 34:0 35:0.032521021 36:0.00062340614 37:0.028364981 38:0.0014546143 39:0.012572024 40:0.0014546143 41:0.00031170307 42:0 43:0.009766697 44:0.032417122 45:0.0077925771 46:0.0057145567 47:0.0029092287 48:0.0082081808 49:0.041040905 50:0.012468123 
-24.84369653390244 0 6.614347943494721 85.18880350328324 1:0.042053707 2:0.016821483 3:0.025232224 4:0.070650227 5:0.0487823 6:0.057193041 7:0 8:0.057193041 9:0.050464448 10:0.015139335 11:0.053828746 12:0 13:0.03027867 14:0.11438608 15:0.03027867 16:0.011775038 17:0.0067285933 18:0 19:0.050464448 20:0.021867927 21:0 22:0.031960819 23:0 24:0.037007261 25:0.015139335 26:0.016821483 27:0.053828746 28:0.06896808 29:0.013457187 30:0.02018578 31:0.043735854 32:0.038689412 33:0.023550076 34:0 35:0.02859652 36:0 37:0.058875192 38:0.018503631 39:0.011775038 40:0.02859652 41:0 42:0 43:0.038689412 44:0.075696677 45:0.02859652 46:0.038689412 47:0.058875192 48:0.0487823 49:0.03027867 50:0.02018578 
-0 95.02287388170163 0 0 1:0.02270318 2:0 3:0.030270908 4:0 5:0.034054771 6:0.015135454 7:0 8:0.04540636 9:0.09081272 10:0.14757067 11:0.007567727 12:0 13:0.02270318 14:0.0037838635 15:0.034054771 16:0.064325675 17:0 18:0 19:0.056757953 20:0.041622497 21:0 22:0.064325675 23:0 24:0.071893401 25:0.007567727 26:0.060541816 27:0.075677268 28:0.01135159 29:0.01135159 30:0.037838634 31:0.02270318 32:0.049190223 33:0.079461135 34:0 35:0.10973204 36:0 37:0.026487043 38:0.094596587 39:0 40:0.01135159 41:0 42:0 43:0.018919317 44:0.079461135 45:0.026487043 46:0.018919317 47:0.052974086 48:0.094596587 49:0.060541816 50:0.026487043 
-0 26.84225231382291 0 0 1:0.060739275 2:0.010656013 3:0.063580878 4:0.030547239 5:0.027350435 6:0.014918419 7:0.0010656014 8:0.05718727 9:0.015984019 10:0.0024864031 11:0.01633922 12:0.0010656014 13:0.018115222 14:0.0031968041 15:0.012076816 16:0.011366414 17:0.0046176058 18:0.0028416035 19:0.015273619 20:0.0067488085 21:0.0014208017 22:0.0028416035 23:0.00071040087 24:0.0085248109 25:0.031968039 26:0.0049728062 27:0.041558452 28:0.03161284 29:0.018825624 30:0.017760022 31:0.012076816 32:0.017049622 33:0.013852817 34:0.0021312027 35:0.03090244 36:0.0028416035 37:0.0046176058 38:0.012787216 39:0.0021312027 40:0.010300813 41:0.0021312027 42:0.0021312027 43:0.013142416 44:0.031968039 45:0.011366414 46:0.012076816 47:0.01633922 48:0.035164844 49:0.03161284 50:0.0042624054 
-0 0 0 263.0989923011729 1:0.046453997 2:0.022668274 3:0.042463105 4:0.02059301 5:0.010057051 6:0.0089396005 7:0.00015963573 8:0.038951118 9:0.011813045 10:0.0011174501 11:0.019156288 12:0.00095781439 13:0.0071836081 14:0.00095781439 15:0.009418508 16:0.003511986 17:0.0012770859 18:0.0004789072 19:0.026339896 20:0.0014367215 21:0.00031927146 22:0.013569037 23:0.0014367215 24:0.008460694 25:0.032246418 26:0.0054276148 27:0.030969331 28:0.024104996 29:0.0020752645 30:0.0020752645 31:0.0054276148 32:0.02059301 33:0.0098974155 34:0 35:0.026978439 36:0.0020752645 37:0.0057468861 38:0.0097377794 39:0.001755993 40:0.0087799653 41:0.00031927146 42:0.00031927146 43:0.011653408 44:0.039749298 45:0.0041505289 46:0.0011174501 47:0.008460694 48:0.014047944 49:0.021071916 50:0.0047890721 
-174.2678072296171 92.18385083903976 552.8539596740473 450.0689368771197 1:0.031241769 2:0.0049046217 3:0.041991625 4:0.0063155405 5:0.0026202775 6:0.0057780477 7:0.0002687464 8:0.034265168 9:0.0070545934 10:0.0009406124 11:0.0077936458 12:0.0008062392 13:0.0017468516 14:0.001343732 15:0.0090701915 16:0.0001343732 17:0.000335933 18:0.0005374928 19:0.01048111 20:0.0002015598 21:0.0011421723 22:0.0066514737 23:0.0005374928 24:0.0025530909 25:0.016931023 26:0.002687464 27:0.014713866 28:0.00987643 29:0.0010749856 30:0.0014109187 31:0.0017468516 32:0.023985617 33:0.01800601 34:0.000671866 35:0.020021608 36:0.0010077991 37:0.010884229 38:0.0042327559 39:0.0060467944 40:0.005374928 41:0.000671866 42:0.0021499712 43:0.01108579 44:0.013302947 45:0.0016124784 46:0.0022171577 47:0.0041655693 48:0.0061811674 49:0.021499712 50:0.0014781052 
-0 83.68950691390809 0 0 1:0.015419323 2:0.0067284321 3:0.033361807 4:0.0036445674 5:0.024670918 6:0.022147756 7:0.00028035135 8:0.036445674 9:0.0067284321 10:0.0098122964 11:0.013176513 12:0.0019624594 13:0.009531945 14:0.0044856216 15:0.01457827 16:0.01261581 17:0.00028035135 18:0 19:0.02943689 20:0.015980026 21:0.0014017567 22:0.026353026 23:0.0019624594 24:0.023829864 25:0.055789914 26:0.0047659725 27:0.023549512 28:0.025511971 29:0.005887378 30:0.0078498377 31:0.010092648 32:0.021026351 33:0.010653351 34:0.001682108 35:0.068125375 36:0.0025231619 37:0.01878354 38:0.028035134 39:0.0050463239 40:0.0025231619 41:0.0014017567 42:0 43:0.0056070266 44:0.024951268 45:0.010372999 46:0.0067284321 47:0.023829864 48:0.034763567 49:0.022988809 50:0.005887378 
-0 0 0 12.9494705440501 1:0.14373989 2:0.057495959 3:0 4:0.20123586 5:0.057495959 6:0 7:0 8:0.057495959 9:0 10:0.02874798 11:0.02874798 12:0 13:0.057495959 14:0 15:0.02874798 16:0 17:0 18:0 19:0.28747979 20:0.02874798 21:0 22:0 23:0 24:0.02874798 25:0.25873181 26:0 27:0.22998384 28:0.02874798 29:0.02874798 30:0 31:0.02874798 32:0.086243942 33:0.02874798 34:0 35:0.057495959 36:0 37:0 38:0.02874798 39:0.02874798 40:0 41:0 42:0 43:0.02874798 44:0.086243942 45:0 46:0.02874798 47:0.057495959 48:0.14373989 49:0.086243942 50:0.02874798 
-0 -45.35051790985396 0 0 1:0.026507301 2:0 3:0.023562046 4:0.0022089418 5:0.044178836 6:0.0066268253 7:0 8:0.025034674 9:0.053750917 10:0.030925186 11:0.0029452557 12:0 13:0.022825733 14:0.0022089418 15:0.028716244 16:0.061850373 17:0.0044178837 18:0 19:0.03902464 20:0.0022089418 21:0 22:0.055223547 23:0.00073631393 24:0.026507301 25:0.022089418 26:0.053014603 27:0.03387044 28:0.038288325 29:0.012517337 30:0.04270621 31:0.016198907 32:0.01840785 33:0.047860406 34:0 35:0.03755201 36:0 37:0.0088357674 38:0.027243616 39:0.0014726279 40:0.025034674 41:0 42:0.0014726279 43:0.011781023 44:0.032397814 45:0.013989965 46:0.0080994535 47:0.034606755 48:0.08173085 49:0.048596721 50:0.033134129 
-0 -7.051968549077795 0 0 1:0.0050251284 2:0.00071787549 3:0.025125641 4:0.016511137 5:0.033740148 6:0.0043072528 7:0.00071787549 8:0.012921758 9:0.016511137 10:0.025125641 11:0.0021536264 12:0.00071787549 13:0.024407767 14:0.0057430039 15:0.034458023 16:0.038765274 17:0.0021536264 18:0 19:0.03158652 20:0.0078966301 21:0.001435751 22:0.065326668 23:0 24:0.034458023 25:0.027997144 26:0.022972016 27:0.026561392 28:0.020818388 29:0.025843516 30:0.020818388 31:0.040201027 32:0.0043072528 33:0.061019413 34:0 35:0.048815534 36:0.001435751 37:0.020818388 38:0.048097655 39:0 40:0.013639634 41:0 42:0.001435751 43:0.035893772 44:0.014357509 45:0.012203883 46:0.035175897 47:0.030868646 48:0.093323812 49:0.016511137 50:0.012921758 
-187.2404942749279 -147.915311078246 109.550028953693 135.8695356215544 1:0.02958128 2:0.0069919392 3:0.015866322 4:0.016942006 5:0.020706896 6:0.0064540976 7:0.0008067622 8:0.015866322 9:0.031463727 10:0.0086054634 11:0.009143305 12:0.0018824452 13:0.0088743838 14:0.01129467 15:0.027967757 16:0.043834079 17:0.0053784149 18:0.0013446037 19:0.02904344 20:0.01075683 21:0 22:0.04033811 23:0 24:0.019362293 25:0.017210927 26:0.018824451 27:0.012639275 28:0.016404165 29:0.01075683 30:0.0096811466 31:0.023396105 32:0.0067230184 33:0.030388042 34:0 35:0.037648901 36:0.0008067622 37:0.0069919392 38:0.027429914 39:0.0008067622 40:0.015597402 41:0.0018824452 42:0.0013446037 43:0.012370354 44:0.017210927 45:0.012639275 46:0.012370354 47:0.015328482 48:0.06938155 49:0.016404165 50:0.026085312 
-0 -41.64636372801668 0 0 1:0.0058788117 2:0.0036742573 3:0.024250099 4:0.010287921 5:0.064666927 6:0.011022772 7:0.0073485146 8:0.022780396 9:0.036742572 10:0.030863762 11:0.0022045544 12:0.0051439605 13:0.013962178 14:0.012492475 15:0.025719801 16:0.047030494 17:0.013962178 18:0.0014697029 19:0.0088182176 20:0.034538019 21:0.0014697029 22:0.044091087 23:0.0022045544 24:0.028659208 25:0.026454654 26:0.027189504 27:0.032333463 28:0.027924355 29:0.0014697029 30:0.029394059 31:0.0066136634 32:0.0029394059 33:0.019840989 34:0.0044091088 35:0.036007721 36:0.0014697029 37:0.013227327 38:0.044091087 39:0.0029394059 40:0.020575842 41:0.0036742573 42:0.013227327 43:0.016166732 44:0.030128911 45:0.026454654 46:0.012492475 47:0.015431881 48:0.099939801 49:0.05584871 50:0.0088182176 
-491.1541742246243 -271.8063197117156 355.4387363064782 255.9870140182673 1:0.0094565051 2:0.0013509294 3:0.013659396 4:0.0060041305 5:0.02671838 6:0.0072049564 7:0.0013509294 8:0.017261874 9:0.012908881 10:0.020714249 11:0.002401652 12:0.0021014456 13:0.018612804 14:0.00030020651 15:0.022065179 16:0.011407848 17:0.0052536139 18:0.0027018588 19:0.011557951 20:0.016361255 21:0.0019513423 22:0.045481287 23:0.00075051631 24:0.02806931 25:0.010357125 26:0.025967864 27:0.012758777 28:0.010957538 29:0.029570341 30:0.017712185 31:0.031071374 32:0.018462701 33:0.012608673 34:0.002401652 35:0.02536745 36:0.0010507228 37:0.010207022 38:0.017411977 39:0.010807435 40:0.0067546465 41:0.0037525815 42:0.0057039238 43:0.0084057823 44:0.020564146 45:0.004052788 46:0.0087059885 47:0.0094565051 48:0.051035106 49:0.015610739 50:0.01425981 
-0 -6.810050599123897 0 0 1:0.2167484 2:0 3:0.12385623 4:0.27867651 5:0.030964058 6:0 7:0 8:0.09289217 9:0.061928116 10:0 11:0.030964058 12:0 13:0.061928116 14:0 15:0.061928116 16:0.15482029 17:0 18:0 19:0.061928116 20:0 21:0 22:0.12385623 23:0 24:0.15482029 25:0.12385623 26:0.09289217 27:0.12385623 28:0.12385623 29:0.061928116 30:0.061928116 31:0 32:0 33:0.030964058 34:0 35:0.09289217 36:0 37:0 38:0.2167484 39:0 40:0.030964058 41:0 42:0 43:0 44:0.15482029 45:0 46:0 47:0.030964058 48:0.15482029 49:0.12385623 50:0.030964058 
-0 -38.34169445368659 0 0 1:0.10569805 2:0 3:0.089436807 4:0.032522477 5:0.048783712 6:0.024391856 7:0 8:0.12195928 9:0.089436807 10:0.048783712 11:0.0081306193 12:0 13:0.081306189 14:0.0081306193 15:0.0081306193 16:0.016261239 17:0 18:0 19:0.065044954 20:0.056914333 21:0 22:0.032522477 23:0 24:0.056914333 25:0.056914333 26:0.056914333 27:0 28:0.0081306193 29:0.024391856 30:0.016261239 31:0 32:0.056914333 33:0.024391856 34:0 35:0.21952671 36:0 37:0.016261239 38:0.056914333 39:0.0081306193 40:0.040653095 41:0 42:0 43:0 44:0.016261239 45:0.048783712 46:0.024391856 47:0.024391856 48:0.16261238 49:0.056914333 50:0.065044954 
-7.0820793375162 -0 0 0 1:0.0070446022 2:0.0015095576 3:0.0025159295 4:0.013082833 5:0.035726197 6:0.0045286729 7:0.0090573458 8:0.021133807 9:0.0070446022 10:0.044280358 11:0.0095605319 12:0.0055350447 13:0.022643365 14:0.010063718 15:0.024656108 16:0.067930095 17:0.015598763 18:0.0010063718 19:0.015598763 20:0.037738942 21:0.0020127436 22:0.051828146 23:0.0005031859 24:0.027172038 25:0.0080509745 26:0.025159294 27:0.022140179 28:0.015598763 29:0.021133807 30:0.032203898 31:0.020127436 32:0.0090573458 33:0.029687967 34:0.0030191152 35:0.016101949 36:0.0035223011 37:0.0090573458 38:0.027172038 39:0 40:0.017611505 41:0.0030191152 42:0.0045286729 43:0.0080509745 44:0.0085541597 45:0.017611505 46:0.015095577 47:0.026165666 48:0.084535226 49:0.0090573458 50:0.018114692 
-0 -37.38625633259274 0 0 1:0.11382208 2:0 3:0.02845552 4:0 5:0.05691104 6:0 7:0 8:0.1422776 9:0 10:0.099594317 11:0.01422776 12:0.01422776 13:0.085366562 14:0 15:0 16:0.18496087 17:0 18:0 19:0.11382208 20:0.02845552 21:0 22:0.15650536 23:0 24:0.099594317 25:0.099594317 26:0 27:0.1422776 28:0.085366562 29:0.05691104 30:0.12804984 31:0 32:0.1422776 33:0.01422776 34:0 35:0.12804984 36:0 37:0.01422776 38:0.02845552 39:0.02845552 40:0 41:0 42:0 43:0.05691104 44:0.085366562 45:0.02845552 46:0.01422776 47:0 48:0.17073312 49:0.042683281 50:0.02845552 
-1000 -90.50952921104917 -236.8760377208596 157.5296462491873 1:0.0075281649 2:0.00078652473 3:0.0049438695 4:0.0055618533 5:0.014325986 6:0.0034831809 7:0.0086517716 8:0.014494527 9:0.030618284 10:0.0072472636 11:0.0023033938 12:0.0059551154 13:0.0073596239 14:0.016348477 15:0.0077528865 16:0.015842855 17:0.020393463 18:0.0042135254 19:0.0010674264 20:0.013820362 21:0.0055056731 22:0.018820412 23:0.0026404758 24:0.010561903 25:0.0028651971 26:0.030505922 27:0.0064607388 28:0.0099439193 29:0.0079214275 30:0.012977658 31:0.01674174 32:0.0053933123 33:0.019213675 34:0.0041573448 35:0.01168551 36:0.0039888038 37:0.006854001 38:0.02848343 39:0.0044944268 40:0.013202379 41:0.0049438695 42:0.0032022791 43:0.0029775577 44:0.0036517219 45:0.014719248 46:0.014045084 47:0.0084832311 48:0.012303494 49:0.0088764932 50:0.027809266 
-0 -0 -0 753.9897437058322 1:0.018507099 2:0.046676744 3:0.01998971 4:0.016871111 5:0.0026073537 6:0.0067995694 7:0.00040899665 8:0.0054703304 9:0.0067995694 10:0.00081799331 11:0.018404849 12:0.0032719732 13:0.0024028553 14:0.00010224916 15:0.0022494816 16:0.00035787208 17:0.00020449833 18:0.012269899 19:0.014775004 20:0.00071574416 21:0.0029652256 22:0.00066461955 23:0.0077198115 24:0.0013292391 25:0.0086400546 26:0.00015337374 27:0.0066461954 28:0.0087423036 29:0.00010224916 30:0.0014314883 31:0.00066461955 32:0.0098159192 33:0.0013803637 34:0.01339464 35:0.0054192054 36:0.019069469 37:0.0021472324 38:0.0030674748 39:0.001584862 40:0.0034253469 41:0.016155368 42:0.0098670442 43:0.0082310578 44:0.0048568351 45:0.00030674748 46:0.00071574416 47:0.00066461955 48:0.01104291 49:0.0048057106 50:0.0016359866 
-364.48740069072 -0 -0 0 1:0.0088092294 2:0.023407379 3:0.0078024599 4:0.0078024599 5:0.0046563069 6:0.016737536 7:0.006669845 8:0.0060406141 9:0.0062923064 10:0.011074459 11:0.0021393842 12:0.027560301 13:0.01170369 14:0.02240061 15:0.0096901515 16:0.0075507676 17:0.0095643057 18:0.012836305 19:0.0050338451 20:0.0079283062 21:0.0406483 22:0.0062923064 23:0.019002765 24:0.0096901515 25:0.0070473831 26:0.0039012299 27:0.0035236916 28:0.001006769 29:0.015479074 30:0.0044046147 31:0.015730767 32:0.0013843074 33:0.01170369 34:0.03020307 35:0.0079283062 36:0.010696921 37:0.033726763 38:0.01006769 39:0.045933835 40:0.011326152 41:0.0096901515 42:0.017744305 43:0.035236917 44:0.009186767 45:0.0096901515 46:0.016108304 47:0.015982458 48:0.0090609211 49:0.012207074 50:0.0059147682 
-525.7013979084642 -0 -0 0 1:0.0043520583 2:0.0043960186 3:0.0047916602 4:0.0019782083 5:0.003077213 6:0.023167018 7:0.00092316384 8:0.0090997582 9:0.0011429648 10:0.0083084749 11:0.0059346249 12:0.025321066 13:0.0083963955 14:4.3960183e-005 15:0.0016265268 16:0.0012308852 17:0.00070336292 18:0.0058027441 19:0.018507237 20:0.001670487 21:0.01929852 22:0.0020221684 23:0.025936509 24:0.0014946463 25:0.0090557979 26:0.00026376112 27:0.0061544259 28:0.0089678774 29:0.0019782083 30:0.0026815713 31:0.003824536 32:0.010990046 33:0.00065940275 34:0.014111219 35:0.0097152004 36:0.005275222 37:0.022243854 38:0.00057148241 39:0.032442614 40:0.0010110842 41:0.0054510627 42:0.0085722357 43:0.024222061 44:0.007649072 45:0.00070336292 46:0.0056269034 47:0.00030772129 48:0.0061544259 49:0.010550444 50:0.00096712407 
-0 -0 -0 557.8978130350284 1:0.014518385 2:0.047660355 3:0.007709763 4:0.023629922 5:0.017221808 6:0.0078098895 7:0.01061344 8:0.016921427 9:0.025732586 10:0.0052065933 11:0.027735122 12:0.0098124258 13:0.004705959 14:0.0049062129 15:0.0099125523 16:0.011915089 17:0.01341699 18:0.031740192 19:0.010813694 20:0.0079100169 21:0.011013947 22:0.0099125523 23:0.01371737 24:0.0098124258 25:0.0069087488 26:0.0075095096 27:0.020626118 28:0.015019019 29:0.0091115376 30:0.0075095096 31:0.027234487 32:0.0069087488 33:0.011915089 34:0.016621048 35:0.017622314 36:0.004705959 37:0.0058073541 38:0.017722443 39:0.006207861 40:0.0099125523 41:0.024531065 42:0.01091382 43:0.0028035501 44:0.0055069737 45:0.013116609 46:0.012916356 47:0.0097122984 48:0.0085107777 49:0.011714835 50:0.0073092557 
-216.0798969271253 -0 -0 1000 1:0.017220289 2:0.050704185 3:0.027880469 4:0.031160524 5:0.0068334481 6:0.012710214 7:0.0057400963 8:0.0076534618 9:0.0088834828 10:0.0054667587 11:0.026103772 12:0.012983551 13:0.0066967793 14:0.027470462 15:0.01052351 16:0.00656011 17:0.0064234412 18:0.013530227 19:0.0082001379 20:0.008746814 21:0.016810283 22:0.0054667587 23:0.0036900621 24:0.011070186 25:0.012300206 26:0.0038267309 27:0.011480193 28:0.0035533931 29:0.0097034965 30:0.0017766965 31:0.0079268003 32:0.0056034275 33:0.031707201 34:0.011343524 35:0.0090201516 36:0.0068334481 37:0.033620566 38:0.015716931 39:0.038130641 40:0.016263606 41:0.012846882 42:0.0039634001 43:0.017220289 44:0.0084734755 45:0.0041000689 46:0.0084734755 47:0.019680331 48:0.0049200826 49:0.014213572 50:0.014213572 
-63.01158245415461 -87.80963318744419 -0 1000 1:0.010387916 2:0.010454935 3:0.010253878 4:0.013202706 5:0.0044902605 6:0.032906238 7:0.0083773518 8:0.018631229 9:0.011460217 10:0.016084515 11:0.01239848 12:0.010253878 13:0.015548364 14:0.0089135021 15:0.00281479 16:0.0018765267 17:0.0041551664 18:0.0097847469 19:0.021647077 20:0.0040881475 21:0.0076401448 22:0.0085784076 23:0.013135687 24:0.014744138 25:0.025266092 26:0.0044232416 27:0.01916738 28:0.02084285 29:0.0065678437 30:0.0087794643 31:0.0056965989 32:0.026338393 33:0.015414326 34:0.013202706 35:0.0087124454 36:0.0081092762 37:0.010991085 38:0.01125916 39:0.013403762 40:0.0088464832 41:0.010454935 42:0.015950477 43:0.033911519 44:0.011661273 45:0.0081762951 46:0.016218552 47:0.0062327497 48:0.015146252 49:0.010119841 50:0.0085784076 
-1000 -0 -0 0 1:0.0045281132 2:0.0068621919 3:0.0045747948 4:0.0058351974 5:0.011670395 6:0.020446531 7:0.019279491 8:0.0077491421 9:0.0030343025 10:0.010690081 11:0.0045747948 12:0.028989259 13:0.014424607 14:0.012557345 15:0.0070956 16:0.011763758 17:0.0093829976 18:0.010690081 19:0.011016852 20:0.0071889632 21:0.029922891 22:0.018392542 23:0.018112453 24:0.0124173 25:0.0067221471 26:0.0071422816 27:0.011156897 28:0.0049015656 29:0.0066287839 30:0.0099898577 31:0.015638329 32:0.004668158 33:0.0045281132 34:0.016478596 35:0.0050882921 36:0.0047615208 37:0.020539895 38:0.0075624157 39:0.012744071 40:0.0033143919 41:0.010456674 42:0.0077491421 43:0.0090562264 44:0.005881879 45:0.010129903 46:0.019139446 47:0.0083093205 48:0.020539895 49:0.0063020131 50:0.0061152866 
-0 -71.21829077064029 -0 0 1:0.032936867 2:0.028848959 3:0.021373926 4:0.032119285 5:0.0028031378 6:0.0096941851 7:0.0012847715 8:0.024994645 9:0.0046718963 10:0.012730917 11:0.019154774 12:0.0072414391 13:0.0096941851 14:0.0014015689 15:0.0086430078 16:0.0054894779 17:0.0047886935 18:0.029199351 19:0.016935624 20:0.0056062755 21:0.013782094 22:0.0053726807 23:0.011913335 24:0.015884448 25:0.022541899 26:0.0026863404 27:0.037608765 28:0.016585231 29:0.0077086287 30:0.0050222883 31:0.017286016 32:0.028148174 33:0.018103598 34:0.026162619 35:0.016935624 36:0.019855559 37:0.0092269955 38:0.00035039222 39:0.0061902627 40:0.003971112 41:0.032119285 42:0.010628564 43:0.015650852 44:0.0042047068 45:0.0022191508 46:0.0054894779 47:0.0021023534 48:0.017402813 49:0.0072414391 50:0.0018687585 
-483.0095268505838 -168.2030741633889 -51.96964000251322 0 1:0.020558661 2:0.0060031288 3:0.025410505 4:0.0090458104 5:0.010032627 6:0.010484917 7:0.0037416762 8:0.0085112853 9:0.0066198888 10:0.0084701683 11:0.0097859222 12:0.013075308 13:0.0069077099 14:0.0016035755 15:0.016200224 16:0.0021381008 17:0.0055508385 18:0.0095803356 19:0.0048929611 20:0.0068254755 21:0.015830169 22:0.0044406708 23:0.0053041345 24:0.01151285 25:0.0064143022 26:0.0029193298 27:0.0096214535 28:0.011060559 29:0.0089635765 30:0.0071132965 31:0.0087579899 32:0.011142794 33:0.007771174 34:0.014966705 35:0.013404246 36:0.0046051401 37:0.014308828 38:0.0046051401 39:0.024382571 40:0.0024259221 41:0.0074833524 42:0.013733186 43:0.0055919555 44:0.023724694 45:0.0019736313 46:0.0035360896 47:0.0034538549 48:0.019983018 49:0.028617656 50:0.0083468165 
-300.8345812628092 -276.1873367783306 -0 724.6024220448265 1:0.016885469 2:0.0091247382 3:0.013263795 4:0.0035276047 5:0.0027750491 6:0.015098149 7:0.00042331259 8:0.018061336 9:0.0022106324 10:0.0032453965 11:0.013640072 12:0.013404898 13:0.0034335353 14:0.00028220838 15:0.0045623691 16:0.0016932504 17:0.0013640072 18:0.0073374179 19:0.01133537 20:0.0041390564 21:0.0094069466 22:0.00028220838 23:0.0081840437 24:0.0052208551 25:0.011570544 26:0.0022106324 27:0.0056912024 28:0.00094069465 29:0.0039038826 30:0.0010347641 31:0.0028220839 32:0.017496919 33:0.0018343545 34:0.0098302588 35:0.018155407 36:0.005785272 37:0.02713904 38:0.001222903 39:0.035605293 40:0.00028220838 41:0.0078547997 42:0.005456029 43:0.0063496889 44:0.028126769 45:0.00061145151 46:0.0018813893 47:0.0012699377 48:0.0051738205 49:0.022905914 50:0.00084662519 
-193.5104794002651 -0 -176.1430875367984 295.4025812551947 1:0.012131211 2:0.003895343 3:0.0070116175 4:0.017362101 5:0.019921897 6:0.017584691 7:0.0042292294 8:0.018920237 9:0.0072342088 10:0.0052308892 11:0.0090149371 12:0.011574734 13:0.016694328 14:0.0080132773 15:0.0083471639 16:0.01068437 17:0.0023372059 18:0.013689348 19:0.023260763 20:0.0081245732 21:0.01291028 22:0.020033194 23:0.015803963 24:0.012242507 25:0.019254124 26:0.0026710925 27:0.033054769 28:0.017028214 29:0.0030049789 30:0.015803963 31:0.019142829 32:0.015581372 33:0.0073455041 34:0.017695988 35:0.022147808 36:0.011018256 37:0.011352142 38:0.0028936835 39:0.0025597969 40:0.0087923454 41:0.010795665 42:0.02804647 43:0.042514887 44:0.01291028 45:0.0056760712 46:0.028491652 47:0.0082358681 48:0.036727522 49:0.014023235 50:0.0092375278 
-0 -199.3288478229265 -0 0 1:0.036439188 2:0.015616794 3:0.032083482 4:0.018963249 5:0.0023903258 6:0.016785398 7:0.009720658 8:0.013545179 9:0.012429694 10:0.004249468 11:0.016041741 12:0.010464314 13:0.0031871009 14:0.0099331308 15:0.0020184973 16:0.0044088229 17:0.00021247339 18:0.0083926991 19:0.016201096 20:0.0014873138 21:0.011792273 22:0.0046212962 23:0.012110983 24:0.0039307578 25:0.010464314 26:0.0018591422 27:0.0095613031 28:0.0086582908 29:0.0013279587 30:0.002124734 31:0.001381077 32:0.015298084 33:0.011579799 34:0.017422818 35:0.0090832375 36:0.0098268939 37:0.015669912 38:0.0039307578 39:0.020503683 40:0.010198723 41:0.0090832375 42:0.011154853 43:0.0099862497 44:0.019600671 45:0.0054180715 46:0.0053649531 47:0.0086582908 48:0.0075428053 49:0.010198723 50:0.0061617284 
-352.0026266776409 -0 -0 88.44991272013908 1:0.0025558171 2:0.0089840842 3:0.0072802063 4:0.011385004 5:0.0028656132 6:0.00069704105 7:0.0024783681 8:0.00046469402 9:0.018200517 10:0.0059635732 11:0.016574087 12:0.0010068371 13:0.00937133 14:0.0060410225 15:0.031986438 16:0.0065831654 17:0.046314504 18:0.0116948 19:0.00030979601 20:0.0073576556 21:0.001161735 22:0.0051890835 23:0.0012391841 24:0.0059635732 25:0.00054214301 26:0.03338052 27:0.0023234701 28:0.0069704107 29:0.0043371441 30:0.008054697 31:0.0079772472 32:0.00085193908 33:0.009061534 34:0.0041047973 35:0.00069704105 36:0.0072802063 37:0.00023234701 38:0.010223269 39:0.00023234701 40:0.0049567362 41:0.0092938803 42:0.00085193908 43:0.00038724503 44:0.00054214301 45:0.0017813271 46:0.0017813271 47:0.0034852054 48:0.00069704105 49:0.001084286 50:0.034309909 
-0 -0 -0 -209.9949707021504 1:0.016504664 2:0.041497439 3:0.016504664 4:0.019334035 5:0.0009431236 6:0.018390911 7:0.0009431236 8:0.041025877 9:0.050928675 10:0.0056587416 11:0.045741495 12:0.0033009327 13:0.0037724944 14:0.023106528 15:0.0051871799 16:0.0037724944 17:0.0042440561 18:0.039139628 19:0.072148956 20:0.0051871799 21:0.0014146854 22:0.013203731 23:0.024521213 24:0.032066204 25:0.03348089 26:0.0009431236 27:0.050928675 28:0.011317483 29:0.0066018654 30:0.022163404 31:0.025464337 32:0.040082753 33:0.024521213 34:0.013675292 35:0.036310259 36:0.01037436 37:0.0061303033 38:0.0070734271 39:0.0018862472 40:0.011789045 41:0.022634966 42:0.013203731 43:0.051400237 44:0.0014146854 45:0.01037436 46:0.016504664 47:0.0023578091 48:0.024992775 49:0 50:0.0023578091 
-361.9666803525682 -0 -99.52750582796124 -169.3257697519068 1:0.006796388 2:0.012473371 3:0.01087422 4:0.041657861 5:0.016711118 6:0.013752691 7:0.0010394475 8:0.0035181302 9:0.013272946 10:0.00191898 11:0.032622661 12:0.0018390226 13:0.0086354101 14:0.011833711 15:0.026146105 16:0.017670609 17:0.0035181302 18:0.017510694 19:0.0015191926 20:0.0032782576 21:0.0081556654 22:0.024626911 23:0.002078895 24:0.010074645 25:0.00039978753 26:0.0032782576 27:0.023747379 28:0.01567167 29:0.0096748583 30:0.015911544 31:0.020229248 32:0.006956303 33:0.016551204 34:0.00087953254 35:0.012633285 36:0.0022388101 37:0.0068763453 38:0.0051972377 39:0.00191898 40:0.011274008 41:0.0060767704 42:0.0011993626 43:0.0024786827 44:0.0037580028 45:0.0033582151 46:0.010634348 47:0.0096748583 48:0.028704744 49:0.0052771955 50:0.017430736 
-47.14542306797539 -12.82766291343057 -31.76761829181138 -325.8030168225354 1:0 2:0.0060142186 3:0.0075177732 4:0.04736197 5:0.023305096 6:0.0097731054 7:0.027063983 8:0.036837086 9:0.012028437 10:0.0037588866 11:0.0037588866 12:0.002255332 13:0.036085311 14:0.048865523 15:0.013531991 16:0.0060142186 17:0.0067659956 18:0.039092422 19:0.085702613 20:0.029319314 21:0.019546211 22:0.0060142186 23:0.012028437 24:0.021801542 25:0.030822869 26:0.025560427 27:0.026312206 28:0.010524882 29:0.021049764 30:0.023305096 31:0.039092422 32:0.022553319 33:0.038340643 34:0.016539101 35:0.0097731054 36:0.0060142186 37:0.0082695503 38:0.066908181 39:0.00075177732 40:0.035333533 41:0.035333533 42:0.035333533 43:0.048865523 44:0.0097731054 45:0.0082695503 46:0.068411738 47:0.023305096 48:0.016539101 49:0.0015035546 50:0.015787324 
-0 -230.6995943844383 -0 -33.6501132423544 1:0.086937785 2:0.031680718 3:0.042732131 4:0.029470434 5:0.0095778918 6:0.030943956 7:0.00073676091 8:0.036838043 9:0.047889456 10:0.013261695 11:0.068518765 12:0.0088411309 13:0.0088411309 14:0.027260153 15:0.027260153 16:0.014735217 17:0.0029470436 18:0.0095778918 19:0.018419022 20:0.0036838043 21:0.0014735218 22:0.011051414 23:0.0022102827 24:0.010314653 25:0.073676087 26:0.0044205654 27:0.054520305 28:0.036838043 29:0 30:0.011788175 31:0.012524934 32:0.025786631 33:0.019892544 34:0.0073676086 35:0.043468893 36:0.00810437 37:0.013998456 38:0.0044205654 39:0.0044205654 40:0.026523391 41:0.014735217 42:0.0036838043 43:0.027996913 44:0.018419022 45:0.0014735218 46:0.0073676086 47:0.0088411309 48:0.014735217 49:0.013998456 50:0.027260153 
-113.9260607937881 -0 -7.132928839845295 -0 1:0.0020800033 2:0.023400037 3:0.0026000042 4:0.06708011 5:0.011960019 6:0.024960039 7:0.0031200049 8:0.006760011 9:0.011440018 10:0.023920039 11:0.034840055 12:0.016640026 13:0.022880036 14:0.018720031 15:0.017160028 16:0.025480041 17:0.037440062 18:0.014040022 19:0.018200029 20:0.026000042 21:0.013520022 22:0.017680028 23:0 24:0.047840077 25:0.018200029 26:0.028600046 27:0.0078000124 28:0.013000021 29:0.023400037 30:0.048880078 31:0.019760031 32:0 33:0.0088400142 34:0.0036400058 35:0.0010400016 36:0.0010400016 37:0.028600046 38:0.023400037 39:0.0052000084 40:0.047840077 41:0.034840055 42:0.011960019 43:0.030680049 44:0.010400017 45:0.0088400142 46:0.006760011 47:0.021320034 48:0.030160049 49:0.0031200049 50:0.078000121 
-5.586315164605912 -0 -0 -869.9710396001121 1:0.00028662014 2:0.044784397 3:0.00085986039 4:0.016552312 5:0.00093151542 6:0.0042634746 7:0.0002149651 8:0.0023646161 9:0.0037260617 10:0.0028662013 11:0.02221306 12:0.00046575771 13:0.00010748255 14:0.001038998 15:0.0015047557 16:0.0011823081 17:0.00046575771 18:0.0008956879 19:0.0021138235 20:7.1655035e-005 21:0.00071655033 22:0.00028662014 23:0 24:0.00053741276 25:0.0068788831 26:0.0046217497 27:0.0016122382 28:0.0059831953 29:0.0016480658 30:0.0045142672 31:0.0020421685 32:0.0022929611 33:0.0002149651 34:0.0002149651 35:3.5827517e-005 36:0.00032244765 37:0.004084337 38:0.00046575771 39:0.0089927064 40:0.0032244765 41:0.00068072282 42:7.1655035e-005 43:0.0048008873 44:0.00042993019 45:0.0035469241 46:0.00028662014 47:0.0014331007 48:0.0032244765 49:0.00032244765 50:0.0031528214 
-0 -0 -0 -1000 1:0.010239672 2:0.052773695 3:0.0065161549 4:0.016111372 5:0.0039383355 6:0.014106401 7:0.0032222744 8:0.0031506682 9:0.012817492 10:0.0033654866 11:0.026923893 12:0.0046543963 13:0.001432122 14:0.0047260025 15:0.0025778196 16:0.0023630012 17:0.0022913951 18:0.0037235171 19:0.0047260025 20:0.0028642439 21:0.0040815477 22:0.00071606098 23:0.0035086989 24:0.0086643379 25:0.010454491 26:0.0040815477 27:0.0093803992 28:0.010526096 29:0.0036519109 30:0.0082347011 31:0.0037235171 32:0.012602673 33:0.0025778196 34:0.0054420633 35:0.0080198832 36:0.002219789 37:0.018474374 38:0.0042963661 39:0.027711559 40:0.0052988511 41:0.0062297303 42:0.002219789 43:0.0087359436 44:0.0052272454 45:0.0034370928 46:0.0019333647 47:0.0027926378 48:0.0053704572 49:0.0038667293 50:0.0043679718 
-130.5160173327027 -8.659228784592511 -0 -53.63083266408252 1:0.0072813481 2:0.0061316616 3:0.010347178 4:0.042155173 5:0.013413009 6:0.0099639501 7:0.045221001 8:0.021460814 9:0.027592476 10:0.0034490596 11:0.032957681 12:0.013796238 13:0.0042155171 14:0.072813481 15:0.0199279 16:0.0026826018 17:0.0095807211 18:0.010347178 19:0.0053652036 20:0.0026826018 21:0.0072813481 22:0.012646551 23:0.0088142632 24:0.019161442 25:0.0076645766 26:0.0091974922 27:0.017245298 28:0.034107365 29:0.010730407 30:0.032191221 31:0.011880094 32:0.038706113 33:0.058634013 34:0.0011496865 35:0.0072813481 36:0.0080478052 37:0.0076645766 38:0.017245298 39:0.011496865 40:0.041005485 41:0.0091974922 42:0.015712382 43:0.025293102 44:0.021460814 45:0.0053652036 46:0.0091974922 47:0.024143416 48:0.01302978 49:0.0038322883 50:0.026826018 
-691.22598753589 -0 -0 -543.8119622504247 1:0.016159045 2:0.019584764 3:0.0075624334 4:0.0159005 5:0.0049123499 6:0.017451769 7:0.0011634512 8:0.0062050736 9:0.011893057 10:0.0096307909 11:0.020425033 12:0.0078209778 13:0.0046538049 14:0.0055587115 15:0.0048477137 16:0.0021329939 17:0.0024561749 18:0.0065928907 19:0.019584764 20:0.0080148866 21:0.0078209778 22:0.0020037217 23:0.0031025368 24:0.0065928907 25:0.018938402 26:0.0012927236 27:0.012474783 28:0.014155324 29:0.0040720794 30:0.0046538049 31:0.0049123499 32:0.0089197932 33:0.0029086282 34:0.0071099801 35:0.0063989819 36:0.0045891688 37:0.023980023 38:0.0027147196 39:0.048412502 40:0.012410147 41:0.0078209778 42:0.0043952605 43:0.012022329 44:0.015448048 45:0.0045245327 46:0.01066497 47:0.0048477137 48:0.0054294392 49:0.0050416221 50:0.0030379004 
-0 -0 -7.851703056863895 -0 1:0.0085190414 2:0.044015046 3:0.012068641 4:0.039045606 5:0.019877762 6:0.019167842 7:0.0049694404 8:0.019522803 9:0.042950165 10:0.014908322 11:0.062118009 12:0.016683122 13:0.017393041 14:0.033721205 15:0.049339447 16:0.0074541611 17:0.0067442409 18:0.014908322 19:0.0063892808 20:0.012068641 21:0.019522803 22:0.0081640808 23:0.0095839212 24:0.020587683 25:0.023782322 26:0.014553362 27:0.023427363 28:0.029461684 29:0.026622003 30:0.033721205 31:0.018102963 32:0.027331924 33:0.014553362 34:0.011003762 35:0.0081640808 36:0.0067442409 37:0.028396804 38:0.012068641 39:0.024137283 40:0.025912084 41:0.020232722 42:0.0081640808 43:0.025202163 44:0.034431122 45:0.0028396803 46:0.007099201 47:0.016328162 48:0.041885287 49:0.027331924 50:0.010293841 
-0 -0 -1.085241079198099 -0 1:0.035142105 2:0.047545202 3:0.021705419 4:0.06408266 5:0.011369505 6:0.048578791 7:0.0041343654 8:0.01550387 9:0.059948299 10:0.025839783 11:0.060981888 12:0.0010335913 13:0.01550387 14:0.069250621 15:0.028940558 16:0.02273901 17:0 18:0.013436687 19:0.0082687307 20:0.014470279 21:0 22:0.023772601 23:0.0010335913 24:0.027906965 25:0.043410838 26:0.03824288 27:0.055813931 28:0.023772601 29:0.033074923 30:0.012403096 31:0.0051679569 32:0.03204133 33:0.04547802 34:0 35:0.020671828 36:0.014470279 37:0.02997415 38:0.042377245 39:0.02273901 40:0.072351396 41:0.0072351396 42:0.0010335913 43:0.080620125 44:0.021705419 45:0 46:0.01550387 47:0.016537461 48:0.035142105 49:0.0020671827 50:0.023772601 
-496.1906905633701 -432.6172678254071 -199.7949243646207 -489.3417447567048 1:0.015694836 2:0.013230801 3:0.019498022 4:0.035942782 5:0.021212133 6:0.010659633 7:0.0010177538 8:0.011088161 9:0.018212438 10:0.0065886173 11:0.019283758 12:0.0028389976 13:0.008891955 14:0.0013927158 15:0.014891346 16:0.0066957492 17:0.0054101655 18:0.0063207871 19:0.011409556 20:0.0092133507 21:0.0018212438 22:0.0072849751 23:0.0038031857 24:0.012802272 25:0.011355991 26:0.0081420308 27:0.013284367 28:0.019819418 29:0.0061600893 30:0.0095883133 31:0.014677082 32:0.0031603936 33:0.0057315612 34:0.0040174494 35:0.012480876 36:0.0060529574 37:0.0042852797 38:0.016819723 39:0.0017141118 40:0.0051423353 41:0.0073385411 42:0.0026782998 43:0.0085705593 44:0.006963579 45:0.0042317137 46:0.0080348989 47:0.0024104698 48:0.030746881 49:0.007927767 50:0.021158567 
-0 -0 -0 -112.8788376638713 1:0.018325077 2:0.031011671 3:0.036650155 4:0.073300309 5:0.036650155 6:0.014096214 7:0.10149274 8:0.0028192429 9:0.018325077 10:0.0098673496 11:0.032421291 12:0.028192429 13:0.0042288643 14:0.031011671 15:0.014096214 16:0.0028192429 17:0.0056384858 18:0.073300309 19:0.0084577287 20:0.0084577287 21:0.019734699 22:0.018325077 23:0.038059779 24:0.032421291 25:0.035240535 26:0.060613722 27:0.028192429 28:0.029602049 29:0.018325077 30:0.0070481072 31:0.014096214 32:0.040879022 33:0.021144321 34:0.031011671 35:0.0084577287 36:0.015505835 37:0.054975234 38:0.063432962 39:0.026782807 40:0.090215772 41:0.029602049 42:0.047927126 43:0.022553943 44:0.026782807 45:0.015505835 46:0.0084577287 47:0.042288642 48:0.026782807 49:0.031011671 50:0.019734699 
-55.66442259612305 -594.546179004071 -44.69662817952121 -738.9950961464614 1:0.016321138 2:0.011531238 3:0.029094202 4:0.023417285 5:0.010644221 6:0.024836514 7:0.0010644221 8:0.021820651 9:0.0053221104 10:0.0037254773 11:0.014724505 12:0.0094023943 13:0.0047898991 14:0.0021288441 15:0.0058543212 16:0.0026610552 17:0.00017740368 18:0.0088701835 19:0.01543412 20:0.0047898991 21:0.0051447065 22:0.0070961472 23:0.0028384589 24:0.012240853 25:0.032464873 26:0.0021288441 27:0.016498541 28:0.012773065 29:0.0026610552 30:0.0030158625 31:0.0046124957 32:0.022885075 33:0.0086927805 34:0.0021288441 35:0.023594689 36:0.0094023943 37:0.037254773 38:0.0046124957 39:0.041689865 40:0.0090475874 41:0.0086927805 42:0.004967303 43:0.031932663 44:0.053753313 45:0.0062091285 46:0.0070961472 47:0.0054995138 48:0.016853349 49:0.039028808 50:0.0040802844 
-0 -0 -0 -30.46873540960384 1:0.0020859225 2:0.02300309 3:0.0032447684 4:0.044325855 5:0.0079960367 6:0.028333781 7:0.0015644419 8:0.0015644419 9:0.0086913435 10:0.011588459 11:0.026711397 12:0.0048092101 13:0.0062577678 14:0.0060259984 15:0.01338467 16:0.0039400761 17:0.0047512678 18:0.0059680562 19:0.0014485574 20:0.0055045178 21:0.0056783445 22:0.0060839406 23:0.0013326728 24:0.0085175168 25:0.012341708 26:0.0048092101 27:0.0096763633 28:0.010893151 29:0.013848208 30:0.010719324 31:0.0082278056 32:0.0096763633 33:0.019468611 34:0.0038241914 35:0.0044036144 36:0.004171845 37:0.0084016323 38:0.0045194989 39:0.0063736523 40:0.0074745556 41:0.0081698634 42:0.0016223842 43:0.0099660745 44:0.0066633634 45:0.0026653456 46:0.0083436901 47:0.010893151 48:0.013326727 49:0.0048092101 50:0.0050409795 
